SVM-light Version V6.01
0 # kernel type
3 # kernel parameter -d
1.0 # kernel parameter -g
1.0 # kernel parameter -s
0.0 # kernel parameter -r
empty# kernel parameter -u
1135 # highest feature index
241 # number of training documents
201 # number of support vectors plus 1
0.5647120343078047 # threshold b, each following line is a SV (starting with alpha*y)
-13.409088381127193 1:0.0 2:0.029411764815449715 3:0.029411764815449715 4:0.0 5:0.0 6:0.029411764815449715 7:0.029411764815449715 8:0.0 9:0.029411764815449715 10:0.11764705926179886 11:0.029411764815449715 12:0.029411764815449715 13:0.029411764815449715 14:0.029411764815449715 15:0.029411764815449715 16:0.029411764815449715 17:0.11764705926179886 18:0.11764705926179886 19:0.029411764815449715 20:0.029411764815449715 21:0.029411764815449715 22:0.029411764815449715 23:0.029411764815449715 24:0.029411764815449715 25:0.029411764815449715 26:0.029411764815449715 27:0.029411764815449715 28:0.029411764815449715 29:0.029411764815449715
5.206444434805915 1:0.02777777798473835 2:0.02777777798473835 3:0.02777777798473835 4:0.0 5:0.02777777798473835 6:0.02777777798473835 7:0.02777777798473835 8:0.0 10:0.25 35:0.1111111119389534 61:0.02777777798473835 71:0.02777777798473835 90:0.02777777798473835 103:0.02777777798473835 118:0.02777777798473835 135:0.02777777798473835 167:0.02777777798473835 304:0.02777777798473835 754:0.1111111119389534 758:0.02777777798473835 856:0.02777777798473835 868:0.02777777798473835 898:0.02777777798473835 899:0.02777777798473835
9.200895574721331 1:0.0476190485060215 2:0.0476190485060215 3:0.0476190485060215 4:0.0476190485060215 5:0.0476190485060215 6:0.0476190485060215 7:0.0476190485060215 8:0.0 12:0.0476190485060215 35:0.0476190485060215 50:0.0476190485060215 71:0.0476190485060215 103:0.0476190485060215 142:0.0476190485060215 186:0.0476190485060215 194:0.0476190485060215 269:0.0476190485060215 318:0.0476190485060215 364:0.0476190485060215 369:0.0476190485060215 485:0.0476190485060215 486:0.0476190485060215
-5.875771467008857 1:0.0 2:0.05882352963089943 3:0.05882352963089943 4:0.05882352963089943 5:0.0 6:0.05882352963089943 7:0.0 8:0.0 23:0.05882352963089943 44:0.05882352963089943 57:0.05882352963089943 71:0.05882352963089943 440:0.05882352963089943 923:0.05882352963089943 925:0.05882352963089943 961:0.05882352963089943 962:0.05882352963089943 963:0.05882352963089943 964:0.05882352963089943 965:0.05882352963089943 966:0.05882352963089943
-13.409088381127193 1:0.0 2:0.012195121496915817 3:0.012195121496915817 4:0.0 5:0.0 6:0.012195121496915817 7:0.012195121496915817 8:0.0 27:0.012195121496915817 44:0.4390243887901306 48:0.012195121496915817 49:0.012195121496915817 52:0.10975609719753265 54:0.012195121496915817 56:0.012195121496915817 65:0.012195121496915817 66:0.012195121496915817 71:0.012195121496915817 72:0.012195121496915817 73:0.012195121496915817 74:0.012195121496915817 75:0.012195121496915817 76:0.012195121496915817 77:0.012195121496915817 78:0.04878048598766327 79:0.012195121496915817 80:0.012195121496915817 81:0.012195121496915817 82:0.012195121496915817 83:0.012195121496915817 84:0.012195121496915817 85:0.012195121496915817 86:0.012195121496915817 87:0.012195121496915817 88:0.012195121496915817 89:0.012195121496915817 90:0.012195121496915817 91:0.012195121496915817 92:0.012195121496915817 93:0.012195121496915817
13.409088381127193 1:0.0 2:0.010869565419852734 3:0.010869565419852734 4:0.0 5:0.0 6:0.010869565419852734 7:0.010869565419852734 8:0.0 10:0.09782608598470688 11:0.010869565419852734 35:0.010869565419852734 44:0.17391304671764374 47:0.010869565419852734 51:0.010869565419852734 52:0.010869565419852734 65:0.010869565419852734 71:0.010869565419852734 73:0.010869565419852734 78:0.010869565419852734 94:0.010869565419852734 97:0.010869565419852734 100:0.010869565419852734 103:0.17391304671764374 106:0.010869565419852734 108:0.010869565419852734 115:0.010869565419852734 122:0.010869565419852734 127:0.010869565419852734 128:0.010869565419852734 130:0.010869565419852734 131:0.043478261679410934 132:0.010869565419852734 133:0.010869565419852734 134:0.010869565419852734 135:0.010869565419852734 136:0.010869565419852734 137:0.010869565419852734 138:0.010869565419852734 139:0.010869565419852734 140:0.010869565419852734 141:0.010869565419852734 142:0.010869565419852734 143:0.010869565419852734 144:0.010869565419852734 145:0.010869565419852734 146:0.010869565419852734 147:0.010869565419852734 148:0.010869565419852734 149:0.010869565419852734 150:0.010869565419852734 151:0.010869565419852734 152:0.010869565419852734 153:0.010869565419852734 154:0.010869565419852734 155:0.010869565419852734
13.409088381127193 1:0.09090909361839294 2:0.09090909361839294 3:0.09090909361839294 4:0.09090909361839294 5:0.0 6:0.09090909361839294 7:0.0 8:0.0 44:0.09090909361839294 71:0.09090909361839294 108:0.09090909361839294 129:0.09090909361839294 197:0.09090909361839294 198:0.09090909361839294
13.409088381127193 1:0.0 2:0.02857142873108387 3:0.02857142873108387 4:0.0 5:0.0 6:0.02857142873108387 7:0.02857142873108387 8:0.0 15:0.02857142873108387 44:0.02857142873108387 49:0.02857142873108387 50:0.02857142873108387 51:0.02857142873108387 52:0.11428571492433548 65:0.02857142873108387 71:0.02857142873108387 94:0.02857142873108387 103:0.11428571492433548 120:0.02857142873108387 138:0.02857142873108387 141:0.02857142873108387 142:0.02857142873108387 165:0.02857142873108387 167:0.02857142873108387 195:0.02857142873108387 199:0.02857142873108387 200:0.02857142873108387 201:0.02857142873108387 202:0.02857142873108387 203:0.02857142873108387 204:0.02857142873108387 205:0.02857142873108387 206:0.02857142873108387
-5.934022389129242 1:0.0 2:0.10000000149011612 3:0.0 4:0.10000000149011612 5:0.10000000149011612 6:0.10000000149011612 7:0.0 8:0.0 53:0.10000000149011612 103:0.10000000149011612 189:0.10000000149011612 190:0.10000000149011612 191:0.10000000149011612 192:0.10000000149011612
13.409088381127193 1:0.0357142873108387 2:0.0357142873108387 3:0.0357142873108387 4:0.0 5:0.0 6:0.0357142873108387 7:0.0357142873108387 8:0.0 12:0.0357142873108387 14:0.0357142873108387 44:0.0357142873108387 51:0.0357142873108387 52:0.0357142873108387 61:0.0357142873108387 71:0.0357142873108387 90:0.0357142873108387 100:0.0357142873108387 103:0.0357142873108387 161:0.0357142873108387 173:0.0357142873108387 191:0.0357142873108387 195:0.0357142873108387 265:0.0357142873108387 266:0.0357142873108387 267:0.0357142873108387 268:0.0357142873108387 269:0.0357142873108387 270:0.0357142873108387 271:0.0357142873108387 272:0.0357142873108387 273:0.0357142873108387
-13.409088381127193 1:0.0 2:0.0625 3:0.0 4:0.0625 5:0.0625 6:0.0625 7:0.0 8:0.0 53:0.0625 61:0.0625 103:0.25 108:0.0625 119:0.0625 122:0.0625 124:0.0625 125:0.0625 126:0.0625
-13.409088381127193 1:0.0 2:0.03846153989434242 3:0.03846153989434242 4:0.0 5:0.0 6:0.03846153989434242 7:0.03846153989434242 8:0.0 9:0.03846153989434242 12:0.03846153989434242 23:0.03846153989434242 44:0.03846153989434242 71:0.03846153989434242 74:0.03846153989434242 103:0.1538461595773697 140:0.03846153989434242 270:0.1538461595773697 338:0.03846153989434242 549:0.03846153989434242 748:0.03846153989434242 750:0.03846153989434242 751:0.03846153989434242 752:0.03846153989434242 753:0.03846153989434242
-13.409088381127193 1:0.0 2:0.02777777798473835 3:0.02777777798473835 4:0.0 5:0.0 6:0.02777777798473835 7:0.02777777798473835 8:0.0 10:0.02777777798473835 12:0.1111111119389534 35:0.02777777798473835 44:0.02777777798473835 51:0.02777777798473835 52:0.02777777798473835 67:0.02777777798473835 71:0.02777777798473835 90:0.02777777798473835 99:0.02777777798473835 103:0.1111111119389534 137:0.02777777798473835 140:0.02777777798473835 144:0.02777777798473835 192:0.02777777798473835 414:0.02777777798473835 508:0.02777777798473835 509:0.02777777798473835 522:0.02777777798473835 606:0.02777777798473835 682:0.02777777798473835 693:0.02777777798473835 707:0.02777777798473835 708:0.02777777798473835 709:0.02777777798473835 710:0.02777777798473835
-13.409088381127193 1:0.0 2:0.02222222276031971 3:0.02222222276031971 4:0.0 5:0.0 6:0.02222222276031971 7:0.02222222276031971 8:0.0 9:0.02222222276031971 10:0.02222222276031971 27:0.02222222276031971 31:0.02222222276031971 44:0.02222222276031971 67:0.02222222276031971 71:0.02222222276031971 74:0.02222222276031971 86:0.02222222276031971 103:0.20000000298023224 122:0.02222222276031971 132:0.02222222276031971 138:0.02222222276031971 159:0.08888889104127884 207:0.02222222276031971 415:0.02222222276031971 439:0.02222222276031971 471:0.02222222276031971 750:0.02222222276031971 754:0.02222222276031971 858:0.08888889104127884 859:0.02222222276031971 860:0.02222222276031971 861:0.02222222276031971 862:0.02222222276031971 863:0.02222222276031971 864:0.02222222276031971
-13.409088381127193 1:0.0 2:0.019999999552965164 3:0.019999999552965164 4:0.0 5:0.0 6:0.019999999552965164 7:0.019999999552965164 8:0.0 10:0.07999999821186066 12:0.019999999552965164 23:0.07999999821186066 44:0.019999999552965164 52:0.019999999552965164 61:0.019999999552965164 67:0.019999999552965164 71:0.019999999552965164 103:0.18000000715255737 108:0.019999999552965164 110:0.019999999552965164 125:0.019999999552965164 171:0.019999999552965164 187:0.019999999552965164 190:0.07999999821186066 304:0.019999999552965164 509:0.019999999552965164 519:0.019999999552965164 561:0.019999999552965164 578:0.019999999552965164 582:0.019999999552965164 588:0.019999999552965164 631:0.019999999552965164 708:0.019999999552965164 761:0.019999999552965164 762:0.019999999552965164 763:0.019999999552965164 764:0.019999999552965164 765:0.019999999552965164
13.409088381127193 1:0.05882352963089943 2:0.05882352963089943 3:0.05882352963089943 4:0.05882352963089943 5:0.05882352963089943 6:0.05882352963089943 7:0.05882352963089943 8:0.0 10:0.05882352963089943 12:0.05882352963089943 71:0.05882352963089943 183:0.05882352963089943 215:0.05882352963089943 304:0.05882352963089943 305:0.05882352963089943 306:0.05882352963089943 307:0.05882352963089943 308:0.05882352963089943
13.409088381127193 1:0.0 2:0.0416666679084301 3:0.0416666679084301 4:0.0 5:0.0 6:0.0416666679084301 7:0.0416666679084301 8:0.0 27:0.1666666716337204 35:0.1666666716337204 44:0.0416666679084301 51:0.0416666679084301 55:0.0416666679084301 57:0.0416666679084301 71:0.0416666679084301 192:0.0416666679084301 465:0.0416666679084301 483:0.0416666679084301 543:0.0416666679084301 564:0.0416666679084301 679:0.0416666679084301 742:0.0416666679084301
7.341591439515173 1:0.0 2:0.03999999910593033 3:0.03999999910593033 4:0.0 5:0.0 6:0.03999999910593033 7:0.03999999910593033 8:0.0 35:0.03999999910593033 44:0.03999999910593033 61:0.03999999910593033 66:0.03999999910593033 71:0.03999999910593033 89:0.03999999910593033 94:0.03999999910593033 103:0.1599999964237213 137:0.1599999964237213 155:0.03999999910593033 519:0.03999999910593033 771:0.03999999910593033 865:0.03999999910593033 878:0.03999999910593033 882:0.03999999910593033
13.409088381127193 1:0.0 2:0.016949152573943138 3:0.016949152573943138 4:0.0 5:0.0 6:0.016949152573943138 7:0.016949152573943138 8:0.0 10:0.1525423675775528 12:0.016949152573943138 29:0.016949152573943138 40:0.016949152573943138 44:0.2711864411830902 54:0.016949152573943138 71:0.016949152573943138 94:0.016949152573943138 103:0.016949152573943138 127:0.016949152573943138 129:0.016949152573943138 131:0.016949152573943138 143:0.016949152573943138 152:0.016949152573943138 215:0.016949152573943138 279:0.016949152573943138 297:0.016949152573943138 302:0.016949152573943138 375:0.016949152573943138 376:0.016949152573943138 377:0.016949152573943138 378:0.016949152573943138 379:0.016949152573943138 380:0.016949152573943138 381:0.016949152573943138 382:0.016949152573943138 383:0.016949152573943138 384:0.016949152573943138 385:0.016949152573943138 386:0.016949152573943138 387:0.016949152573943138 388:0.016949152573943138
-13.409088381127193 1:0.0181818176060915 2:0.0181818176060915 3:0.0181818176060915 4:0.0 5:0.0 6:0.0181818176060915 7:0.0181818176060915 8:0.0 44:0.4545454680919647 61:0.0181818176060915 71:0.0181818176060915 143:0.0181818176060915 146:0.0181818176060915 152:0.0181818176060915 195:0.0181818176060915 213:0.0181818176060915 216:0.072727270424366 225:0.0181818176060915 238:0.072727270424366 246:0.0181818176060915 248:0.0181818176060915 249:0.0181818176060915 250:0.0181818176060915 251:0.0181818176060915 252:0.072727270424366
-13.409088381127193 1:0.0 2:0.018518518656492233 3:0.018518518656492233 4:0.0 5:0.0 6:0.018518518656492233 7:0.018518518656492233 8:0.0 44:0.46296295523643494 61:0.018518518656492233 71:0.018518518656492233 143:0.018518518656492233 152:0.018518518656492233 161:0.018518518656492233 213:0.018518518656492233 217:0.018518518656492233 225:0.018518518656492233 232:0.018518518656492233 235:0.018518518656492233 253:0.018518518656492233 254:0.018518518656492233 255:0.07407407462596893 256:0.018518518656492233 257:0.018518518656492233 258:0.018518518656492233 259:0.018518518656492233 260:0.018518518656492233 261:0.018518518656492233 262:0.018518518656492233 263:0.018518518656492233 264:0.018518518656492233
-12.256647484456806 1:0.0 2:0.027027027681469917 3:0.027027027681469917 4:0.0 5:0.0 6:0.027027027681469917 7:0.027027027681469917 8:0.0 44:0.4324324429035187 61:0.027027027681469917 71:0.027027027681469917 153:0.027027027681469917 211:0.027027027681469917 212:0.027027027681469917 225:0.027027027681469917 231:0.027027027681469917 232:0.027027027681469917 233:0.10810811072587967 234:0.027027027681469917 235:0.027027027681469917 236:0.027027027681469917 237:0.027027027681469917 238:0.027027027681469917
-13.409088381127193 1:0.0 2:0.016129031777381897 3:0.016129031777381897 4:0.0 5:0.0 6:0.016129031777381897 7:0.016129031777381897 8:0.0 10:0.25806450843811035 27:0.06451612710952759 35:0.016129031777381897 44:0.016129031777381897 47:0.06451612710952759 54:0.06451612710952759 61:0.06451612710952759 71:0.016129031777381897 78:0.016129031777381897 108:0.016129031777381897 117:0.016129031777381897 129:0.016129031777381897 143:0.016129031777381897 152:0.016129031777381897 155:0.016129031777381897 169:0.016129031777381897 278:0.016129031777381897 451:0.016129031777381897 558:0.016129031777381897 754:0.016129031777381897 771:0.016129031777381897 861:0.016129031777381897 876:0.016129031777381897 877:0.06451612710952759 878:0.016129031777381897 879:0.016129031777381897 880:0.016129031777381897 881:0.016129031777381897
13.409088381127193 1:0.0 2:0.032258063554763794 3:0.032258063554763794 4:0.0 5:0.0 6:0.032258063554763794 7:0.032258063554763794 8:0.0 23:0.29032257199287415 44:0.032258063554763794 50:0.032258063554763794 61:0.032258063554763794 71:0.032258063554763794 103:0.032258063554763794 127:0.032258063554763794 244:0.032258063554763794 247:0.032258063554763794 289:0.12903225421905518 290:0.032258063554763794 291:0.032258063554763794 292:0.032258063554763794 293:0.032258063554763794 294:0.032258063554763794 295:0.032258063554763794
-13.409088381127193 1:0.0 2:0.06666667014360428 3:0.06666667014360428 4:0.06666667014360428 5:0.06666667014360428 6:0.06666667014360428 7:0.0 8:0.0 12:0.06666667014360428 23:0.06666667014360428 27:0.06666667014360428 49:0.06666667014360428 71:0.06666667014360428 192:0.06666667014360428 327:0.06666667014360428 679:0.06666667014360428 925:0.06666667014360428 943:0.06666667014360428
-11.021048938897215 1:0.0 2:0.0625 3:0.0625 4:0.0625 5:0.0625 6:0.0625 7:0.0625 8:0.0 65:0.0625 71:0.0625 78:0.0625 90:0.0625 167:0.0625 189:0.0625 274:0.0625 364:0.0625 505:0.0625 506:0.0625
11.64929573010799 1:0.0 2:0.03999999910593033 3:0.03999999910593033 4:0.0 5:0.0 6:0.03999999910593033 7:0.03999999910593033 8:0.0 10:0.03999999910593033 12:0.03999999910593033 35:0.03999999910593033 40:0.03999999910593033 44:0.03999999910593033 52:0.03999999910593033 71:0.03999999910593033 103:0.03999999910593033 106:0.03999999910593033 127:0.03999999910593033 131:0.03999999910593033 278:0.03999999910593033 521:0.03999999910593033 522:0.03999999910593033 677:0.03999999910593033 727:0.03999999910593033 733:0.03999999910593033 734:0.03999999910593033 735:0.03999999910593033 736:0.03999999910593033 737:0.03999999910593033
13.409088381127193 1:0.05263157933950424 2:0.05263157933950424 3:0.05263157933950424 4:0.05263157933950424 5:0.05263157933950424 6:0.05263157933950424 7:0.05263157933950424 8:0.0 23:0.21052631735801697 61:0.05263157933950424 71:0.05263157933950424 227:0.05263157933950424 229:0.05263157933950424 230:0.05263157933950424 294:0.05263157933950424 295:0.05263157933950424 296:0.05263157933950424
-13.409088381127193 1:0.0 2:0.0476190485060215 3:0.0476190485060215 4:0.0476190485060215 5:0.0476190485060215 6:0.0476190485060215 7:0.0476190485060215 8:0.0 14:0.0476190485060215 35:0.190476194024086 71:0.0476190485060215 84:0.0476190485060215 90:0.0476190485060215 103:0.0476190485060215 121:0.0476190485060215 131:0.0476190485060215 133:0.0476190485060215 284:0.0476190485060215 427:0.0476190485060215 518:0.0476190485060215
-13.409088381127193 1:0.05882352963089943 2:0.05882352963089943 3:0.05882352963089943 4:0.05882352963089943 5:0.05882352963089943 6:0.05882352963089943 7:0.05882352963089943 8:0.0 10:0.05882352963089943 27:0.05882352963089943 35:0.05882352963089943 71:0.05882352963089943 103:0.05882352963089943 129:0.05882352963089943 135:0.05882352963089943 754:0.05882352963089943 771:0.05882352963089943 900:0.05882352963089943
-13.409088381127193 1:0.043478261679410934 2:0.043478261679410934 3:0.043478261679410934 4:0.043478261679410934 5:0.0 6:0.043478261679410934 7:0.043478261679410934 8:0.0 35:0.17391304671764374 44:0.043478261679410934 51:0.043478261679410934 71:0.043478261679410934 99:0.043478261679410934 121:0.043478261679410934 129:0.043478261679410934 558:0.043478261679410934 771:0.043478261679410934 856:0.043478261679410934 879:0.043478261679410934 880:0.043478261679410934 888:0.043478261679410934 889:0.043478261679410934
-13.409088381127193 1:0.0 2:0.03846153989434242 3:0.03846153989434242 4:0.0 5:0.0 6:0.03846153989434242 7:0.0 8:0.0 12:0.1538461595773697 27:0.1538461595773697 35:0.03846153989434242 71:0.03846153989434242 104:0.03846153989434242 137:0.03846153989434242 192:0.03846153989434242 325:0.03846153989434242 449:0.03846153989434242 557:0.03846153989434242 558:0.03846153989434242 602:0.03846153989434242 707:0.03846153989434242 708:0.03846153989434242 709:0.03846153989434242 754:0.03846153989434242 857:0.03846153989434242
13.409088381127193 1:0.0 2:0.020408162847161293 3:0.020408162847161293 4:0.0 5:0.0 6:0.020408162847161293 7:0.020408162847161293 8:0.0 10:0.020408162847161293 23:0.020408162847161293 35:0.020408162847161293 44:0.3265306055545807 57:0.020408162847161293 61:0.020408162847161293 65:0.020408162847161293 71:0.020408162847161293 94:0.020408162847161293 103:0.020408162847161293 186:0.08163265138864517 628:0.020408162847161293 634:0.020408162847161293 635:0.020408162847161293 636:0.020408162847161293 637:0.020408162847161293 638:0.020408162847161293 639:0.020408162847161293 640:0.020408162847161293 641:0.020408162847161293 642:0.020408162847161293 643:0.020408162847161293 644:0.020408162847161293 645:0.020408162847161293 646:0.020408162847161293 647:0.020408162847161293 648:0.020408162847161293
13.409088381127193 1:0.0 2:0.025641025975346565 3:0.025641025975346565 4:0.0 5:0.0 6:0.025641025975346565 7:0.025641025975346565 8:0.0 35:0.025641025975346565 44:0.23076923191547394 61:0.10256410390138626 71:0.025641025975346565 137:0.10256410390138626 140:0.025641025975346565 169:0.025641025975346565 174:0.025641025975346565 292:0.025641025975346565 578:0.10256410390138626 589:0.025641025975346565 710:0.025641025975346565 760:0.025641025975346565 790:0.025641025975346565 805:0.025641025975346565 806:0.025641025975346565 807:0.025641025975346565 808:0.025641025975346565
13.409088381127193 1:0.01075268816202879 2:0.01075268816202879 3:0.01075268816202879 4:0.0 5:0.0 6:0.01075268816202879 7:0.01075268816202879 8:0.0 12:0.01075268816202879 23:0.01075268816202879 27:0.09677419066429138 44:0.2688172161579132 50:0.09677419066429138 52:0.04301075264811516 55:0.01075268816202879 61:0.01075268816202879 71:0.01075268816202879 100:0.04301075264811516 104:0.01075268816202879 128:0.01075268816202879 169:0.04301075264811516 226:0.04301075264811516 246:0.01075268816202879 289:0.01075268816202879 296:0.01075268816202879 318:0.09677419066429138 364:0.01075268816202879 433:0.04301075264811516 454:0.04301075264811516 512:0.01075268816202879
13.409088381127193 1:0.0 2:0.008403361774981022 3:0.008403361774981022 4:0.0 5:0.0 6:0.008403361774981022 7:0.008403361774981022 8:0.0 10:0.3025210201740265 12:0.03361344709992409 44:0.21008403599262238 61:0.008403361774981022 65:0.03361344709992409 67:0.008403361774981022 71:0.008403361774981022 90:0.008403361774981022 103:0.008403361774981022 104:0.008403361774981022 108:0.008403361774981022 127:0.008403361774981022 137:0.008403361774981022 138:0.008403361774981022 143:0.008403361774981022 152:0.008403361774981022 155:0.008403361774981022 304:0.008403361774981022 522:0.008403361774981022 558:0.008403361774981022 648:0.008403361774981022 754:0.13445378839969635 827:0.008403361774981022 856:0.008403361774981022 865:0.008403361774981022 866:0.008403361774981022 867:0.008403361774981022 868:0.008403361774981022 869:0.008403361774981022 870:0.008403361774981022 871:0.008403361774981022 872:0.008403361774981022 873:0.008403361774981022 874:0.008403361774981022 875:0.008403361774981022
-11.699275938532125 1:0.0 2:0.03999999910593033 3:0.03999999910593033 4:0.03999999910593033 5:0.0 6:0.0 7:0.03999999910593033 8:0.0 44:0.36000001430511475 71:0.03999999910593033 100:0.03999999910593033 208:0.03999999910593033 225:0.03999999910593033 226:0.1599999964237213 227:0.03999999910593033 228:0.03999999910593033 229:0.03999999910593033 230:0.03999999910593033
13.409088381127193 1:0.0 2:0.10000000149011612 3:0.10000000149011612 4:0.10000000149011612 5:0.10000000149011612 6:0.10000000149011612 7:0.0 8:0.0 71:0.10000000149011612 74:0.10000000149011612 106:0.10000000149011612 428:0.10000000149011612 480:0.10000000149011612
13.409088381127193 1:0.0 2:0.06666667014360428 3:0.06666667014360428 4:0.06666667014360428 5:0.06666667014360428 6:0.06666667014360428 7:0.06666667014360428 8:0.0 52:0.06666667014360428 71:0.06666667014360428 103:0.06666667014360428 185:0.06666667014360428 190:0.06666667014360428 192:0.06666667014360428 508:0.06666667014360428 509:0.06666667014360428 693:0.06666667014360428
10.742637081775293 1:0.06666667014360428 2:0.06666667014360428 3:0.06666667014360428 4:0.06666667014360428 5:0.06666667014360428 6:0.06666667014360428 7:0.06666667014360428 8:0.0 12:0.06666667014360428 71:0.06666667014360428 192:0.06666667014360428 216:0.06666667014360428 266:0.06666667014360428 489:0.06666667014360428 707:0.06666667014360428 708:0.06666667014360428
13.409088381127193 1:0.0 2:0.07692307978868484 3:0.07692307978868484 4:0.07692307978868484 5:0.07692307978868484 6:0.07692307978868484 7:0.07692307978868484 8:0.0 51:0.07692307978868484 71:0.07692307978868484 146:0.07692307978868484 840:0.07692307978868484 1108:0.07692307978868484 1110:0.07692307978868484 1112:0.07692307978868484
-13.409088381127193 1:0.0 2:0.027027027681469917 3:0.027027027681469917 4:0.0 5:0.027027027681469917 6:0.027027027681469917 7:0.027027027681469917 8:0.0 10:0.2432432472705841 54:0.027027027681469917 61:0.027027027681469917 71:0.027027027681469917 78:0.027027027681469917 103:0.10810811072587967 108:0.027027027681469917 127:0.027027027681469917 131:0.10810811072587967 137:0.027027027681469917 185:0.027027027681469917 279:0.027027027681469917 381:0.027027027681469917 427:0.027027027681469917 460:0.027027027681469917 587:0.027027027681469917 590:0.027027027681469917 825:0.027027027681469917
-1.324807814805738 1:0.0 2:0.0555555559694767 3:0.0555555559694767 4:0.0555555559694767 5:0.0555555559694767 6:0.0555555559694767 7:0.0 8:0.0 35:0.0555555559694767 51:0.0555555559694767 292:0.0555555559694767 386:0.0555555559694767 440:0.0555555559694767 483:0.0555555559694767 538:0.0555555559694767 544:0.0555555559694767 973:0.0555555559694767 974:0.0555555559694767 975:0.0555555559694767 976:0.0555555559694767 977:0.0555555559694767
-5.089501377056237 1:0.0 2:0.09090909361839294 3:0.09090909361839294 4:0.09090909361839294 5:0.09090909361839294 6:0.09090909361839294 7:0.0 8:0.0 51:0.09090909361839294 52:0.09090909361839294 71:0.09090909361839294 386:0.09090909361839294 483:0.09090909361839294 934:0.09090909361839294
-13.409088381127193 1:0.0833333358168602 2:0.0833333358168602 3:0.0833333358168602 4:0.0833333358168602 5:0.0833333358168602 6:0.0 7:0.0833333358168602 8:0.0 51:0.0833333358168602 52:0.0833333358168602 71:0.0833333358168602 106:0.0833333358168602 716:0.0833333358168602 717:0.0833333358168602
13.409088381127193 1:0.0 2:0.021276595070958138 3:0.021276595070958138 4:0.0 5:0.0 6:0.021276595070958138 7:0.021276595070958138 8:0.0 27:0.08510638028383255 40:0.021276595070958138 44:0.3404255211353302 57:0.021276595070958138 61:0.021276595070958138 71:0.021276595070958138 103:0.021276595070958138 120:0.021276595070958138 131:0.021276595070958138 204:0.021276595070958138 215:0.021276595070958138 225:0.021276595070958138 267:0.021276595070958138 274:0.021276595070958138 297:0.021276595070958138 339:0.021276595070958138 346:0.021276595070958138 348:0.021276595070958138 349:0.021276595070958138 401:0.021276595070958138 405:0.021276595070958138 406:0.021276595070958138 407:0.021276595070958138 408:0.021276595070958138 409:0.021276595070958138
13.409088381127193 1:0.0 2:0.03030303120613098 3:0.03030303120613098 4:0.0 5:0.0 6:0.03030303120613098 7:0.03030303120613098 8:0.0 12:0.12121212482452393 27:0.03030303120613098 35:0.03030303120613098 44:0.27272728085517883 71:0.03030303120613098 138:0.03030303120613098 419:0.03030303120613098 465:0.03030303120613098 519:0.03030303120613098 578:0.03030303120613098 707:0.03030303120613098 819:0.03030303120613098 830:0.03030303120613098 883:0.03030303120613098 884:0.03030303120613098 885:0.03030303120613098 886:0.03030303120613098 887:0.03030303120613098
13.409088381127193 1:0.0 2:0.06666667014360428 3:0.06666667014360428 4:0.06666667014360428 5:0.0 6:0.06666667014360428 7:0.0 8:0.0 44:0.2666666805744171 71:0.06666667014360428 84:0.06666667014360428 279:0.06666667014360428 383:0.06666667014360428 429:0.06666667014360428 502:0.06666667014360428 503:0.06666667014360428
-13.409088381127193 1:0.0 2:0.027027027681469917 3:0.027027027681469917 4:0.0 5:0.0 6:0.027027027681469917 7:0.027027027681469917 8:0.0 44:0.2432432472705841 50:0.027027027681469917 52:0.027027027681469917 60:0.027027027681469917 61:0.027027027681469917 67:0.027027027681469917 71:0.027027027681469917 92:0.027027027681469917 94:0.027027027681469917 103:0.10810811072587967 127:0.027027027681469917 164:0.027027027681469917 165:0.027027027681469917 166:0.027027027681469917 167:0.027027027681469917 168:0.027027027681469917 169:0.027027027681469917 170:0.027027027681469917 171:0.027027027681469917 172:0.027027027681469917 173:0.027027027681469917 174:0.027027027681469917
-3.1865207983002426 1:0.0 2:0.09090909361839294 3:0.09090909361839294 4:0.09090909361839294 5:0.09090909361839294 6:0.09090909361839294 7:0.0 8:0.0 71:0.09090909361839294 901:0.09090909361839294 902:0.09090909361839294 903:0.09090909361839294 904:0.09090909361839294 905:0.09090909361839294
13.409088381127193 1:0.0 2:0.004672897048294544 3:0.004672897048294544 4:0.0 5:0.0 6:0.004672897048294544 7:0.004672897048294544 8:0.0 9:0.04205607622861862 10:0.07476635277271271 12:0.004672897048294544 23:0.004672897048294544 35:0.004672897048294544 44:0.004672897048294544 51:0.1682243049144745 52:0.004672897048294544 55:0.004672897048294544 67:0.004672897048294544 71:0.004672897048294544 84:0.004672897048294544 92:0.04205607622861862 103:0.018691588193178177 104:0.11682242900133133 119:0.004672897048294544 120:0.018691588193178177 121:0.004672897048294544 131:0.004672897048294544 138:0.004672897048294544 161:0.004672897048294544 292:0.004672897048294544 302:0.004672897048294544 307:0.018691588193178177 314:0.018691588193178177 315:0.018691588193178177 325:0.004672897048294544 361:0.1682243049144745 373:0.004672897048294544 403:0.004672897048294544 419:0.07476635277271271 429:0.004672897048294544 432:0.004672897048294544 433:0.004672897048294544 444:0.004672897048294544 445:0.004672897048294544 446:0.004672897048294544 447:0.004672897048294544 448:0.004672897048294544 449:0.018691588193178177 450:0.004672897048294544 451:0.018691588193178177 452:0.018691588193178177 453:0.004672897048294544 454:0.004672897048294544 455:0.004672897048294544
13.409088381127193 1:0.05263157933950424 2:0.05263157933950424 3:0.05263157933950424 4:0.05263157933950424 5:0.0 6:0.05263157933950424 7:0.05263157933950424 8:0.0 35:0.05263157933950424 71:0.05263157933950424 90:0.05263157933950424 103:0.05263157933950424 270:0.05263157933950424 527:0.05263157933950424 587:0.05263157933950424 771:0.05263157933950424 829:0.05263157933950424 841:0.05263157933950424 872:0.05263157933950424 879:0.05263157933950424 880:0.05263157933950424
13.409088381127193 1:0.0 2:0.05000000074505806 3:0.05000000074505806 4:0.05000000074505806 5:0.05000000074505806 6:0.05000000074505806 7:0.05000000074505806 8:0.0 10:0.05000000074505806 12:0.05000000074505806 35:0.05000000074505806 54:0.05000000074505806 71:0.05000000074505806 103:0.05000000074505806 190:0.05000000074505806 384:0.05000000074505806 427:0.05000000074505806 537:0.05000000074505806 653:0.05000000074505806 654:0.05000000074505806 655:0.05000000074505806 656:0.05000000074505806
13.409088381127193 1:0.0416666679084301 2:0.0416666679084301 3:0.0416666679084301 4:0.0416666679084301 5:0.0416666679084301 6:0.0416666679084301 7:0.0416666679084301 8:0.0 10:0.0416666679084301 47:0.0416666679084301 50:0.0416666679084301 71:0.0416666679084301 103:0.1666666716337204 119:0.1666666716337204 144:0.0416666679084301 427:0.0416666679084301 549:0.0416666679084301 652:0.0416666679084301 718:0.0416666679084301
-13.409088381127193 1:0.0 2:0.020408162847161293 3:0.020408162847161293 4:0.0 5:0.0 6:0.020408162847161293 7:0.020408162847161293 8:0.0 10:0.020408162847161293 35:0.08163265138864517 44:0.020408162847161293 50:0.020408162847161293 54:0.020408162847161293 55:0.020408162847161293 61:0.020408162847161293 71:0.020408162847161293 76:0.020408162847161293 84:0.020408162847161293 90:0.020408162847161293 92:0.08163265138864517 103:0.08163265138864517 127:0.020408162847161293 128:0.020408162847161293 138:0.020408162847161293 143:0.020408162847161293 152:0.020408162847161293 167:0.020408162847161293 190:0.020408162847161293 267:0.020408162847161293 307:0.020408162847161293 318:0.18367347121238708 327:0.020408162847161293 433:0.020408162847161293 509:0.020408162847161293 510:0.020408162847161293 511:0.020408162847161293
-13.409088381127193 1:0.0714285746216774 2:0.0714285746216774 3:0.0714285746216774 4:0.0714285746216774 5:0.0714285746216774 6:0.0714285746216774 7:0.0714285746216774 8:0.0 12:0.0714285746216774 71:0.0714285746216774 196:0.0714285746216774 248:0.0714285746216774 292:0.0714285746216774 1126:0.0714285746216774 1127:0.0714285746216774
-10.845692184233261 1:0.0 2:0.010101010091602802 3:0.010101010091602802 4:0.0 5:0.0 6:0.010101010091602802 7:0.0 8:0.0 15:0.04040404036641121 23:0.16161616146564484 29:0.010101010091602802 35:0.09090909361839294 44:0.010101010091602802 102:0.04040404036641121 104:0.16161616146564484 143:0.010101010091602802 152:0.010101010091602802 229:0.04040404036641121 549:0.09090909361839294 858:0.010101010091602802 958:0.010101010091602802 986:0.010101010091602802 989:0.04040404036641121 1005:0.010101010091602802 1006:0.010101010091602802 1007:0.010101010091602802 1008:0.010101010091602802 1009:0.010101010091602802 1010:0.04040404036641121 1011:0.04040404036641121 1012:0.010101010091602802 1013:0.010101010091602802 1014:0.04040404036641121 1015:0.010101010091602802 1016:0.010101010091602802 1017:0.010101010091602802 1018:0.010101010091602802
13.409088381127193 1:0.0 2:0.024390242993831635 3:0.024390242993831635 4:0.0 5:0.0 6:0.024390242993831635 7:0.024390242993831635 8:0.0 10:0.024390242993831635 44:0.2195121943950653 67:0.024390242993831635 71:0.024390242993831635 85:0.024390242993831635 103:0.09756097197532654 127:0.024390242993831635 143:0.024390242993831635 152:0.024390242993831635 155:0.024390242993831635 378:0.09756097197532654 558:0.024390242993831635 587:0.024390242993831635 588:0.024390242993831635 589:0.024390242993831635 590:0.024390242993831635 606:0.024390242993831635 827:0.024390242993831635 878:0.024390242993831635 881:0.024390242993831635 890:0.024390242993831635 891:0.024390242993831635 892:0.024390242993831635
13.409088381127193 1:0.0 2:0.0476190485060215 3:0.0476190485060215 4:0.0 5:0.0 6:0.0476190485060215 7:0.0476190485060215 8:0.0 44:0.0476190485060215 49:0.0476190485060215 52:0.0476190485060215 71:0.0476190485060215 110:0.0476190485060215 120:0.0476190485060215 138:0.0476190485060215 161:0.0476190485060215 167:0.0476190485060215 203:0.0476190485060215 307:0.0476190485060215 315:0.0476190485060215 316:0.0476190485060215 317:0.0476190485060215 318:0.0476190485060215 319:0.0476190485060215 320:0.0476190485060215
-13.409088381127193 1:0.0 2:0.02500000037252903 3:0.02500000037252903 4:0.0 5:0.0 6:0.02500000037252903 7:0.02500000037252903 8:0.0 14:0.02500000037252903 35:0.02500000037252903 44:0.22499999403953552 52:0.10000000149011612 61:0.10000000149011612 71:0.02500000037252903 90:0.02500000037252903 91:0.02500000037252903 94:0.02500000037252903 121:0.02500000037252903 138:0.02500000037252903 169:0.02500000037252903 223:0.02500000037252903 291:0.02500000037252903 317:0.02500000037252903 454:0.02500000037252903 491:0.02500000037252903 492:0.02500000037252903 493:0.02500000037252903 494:0.02500000037252903 495:0.02500000037252903 496:0.02500000037252903
1.4303837455060258 1:0.05263157933950424 2:0.05263157933950424 3:0.05263157933950424 4:0.05263157933950424 5:0.05263157933950424 6:0.05263157933950424 7:0.05263157933950424 8:0.0 35:0.21052631735801697 71:0.05263157933950424 117:0.05263157933950424 185:0.05263157933950424 559:0.05263157933950424 771:0.05263157933950424 809:0.05263157933950424 810:0.05263157933950424 811:0.05263157933950424
13.409088381127193 1:0.0 2:0.0714285746216774 3:0.0714285746216774 4:0.0714285746216774 5:0.0714285746216774 6:0.0714285746216774 7:0.0714285746216774 8:0.0 35:0.0714285746216774 71:0.0714285746216774 90:0.0714285746216774 102:0.0714285746216774 108:0.0714285746216774 122:0.0714285746216774 836:0.0714285746216774 837:0.0714285746216774
13.409088381127193 1:0.05263157933950424 2:0.05263157933950424 3:0.05263157933950424 4:0.05263157933950424 5:0.05263157933950424 6:0.05263157933950424 7:0.05263157933950424 8:0.0 9:0.05263157933950424 71:0.05263157933950424 91:0.05263157933950424 92:0.05263157933950424 94:0.05263157933950424 103:0.05263157933950424 137:0.05263157933950424 314:0.05263157933950424 587:0.05263157933950424 590:0.05263157933950424 676:0.05263157933950424 738:0.05263157933950424
9.779571392365732 1:0.0625 2:0.0625 3:0.0625 4:0.0625 5:0.0625 6:0.0625 7:0.0625 8:0.0 12:0.0625 71:0.0625 97:0.0625 213:0.0625 278:0.0625 292:0.0625 665:0.0625 708:0.0625 784:0.0625
-13.409088381127193 1:0.0 2:0.0476190485060215 3:0.0476190485060215 4:0.0476190485060215 5:0.0476190485060215 6:0.0476190485060215 7:0.0476190485060215 8:0.0 10:0.190476194024086 71:0.0476190485060215 74:0.0476190485060215 78:0.0476190485060215 84:0.0476190485060215 97:0.0476190485060215 108:0.0476190485060215 140:0.0476190485060215 279:0.0476190485060215 378:0.0476190485060215 479:0.0476190485060215 480:0.0476190485060215
-13.409088381127193 1:0.0 2:0.0555555559694767 3:0.0555555559694767 4:0.0555555559694767 5:0.0555555559694767 6:0.0555555559694767 7:0.0555555559694767 8:0.0 10:0.0555555559694767 11:0.0555555559694767 12:0.0555555559694767 71:0.0555555559694767 103:0.0555555559694767 135:0.0555555559694767 146:0.0555555559694767 147:0.0555555559694767 155:0.0555555559694767 170:0.0555555559694767 194:0.0555555559694767 504:0.0555555559694767
-1.3180117991893834 1:0.0 2:0.1111111119389534 3:0.1111111119389534 4:0.1111111119389534 5:0.1111111119389534 6:0.1111111119389534 7:0.0 8:0.0 71:0.1111111119389534 903:0.1111111119389534 909:0.1111111119389534 910:0.1111111119389534
3.704030291591475 1:0.0 2:0.023255813866853714 3:0.023255813866853714 4:0.0 5:0.0 6:0.023255813866853714 7:0.023255813866853714 8:0.0 44:0.023255813866853714 50:0.023255813866853714 52:0.09302325546741486 57:0.09302325546741486 66:0.09302325546741486 67:0.023255813866853714 71:0.023255813866853714 84:0.023255813866853714 90:0.023255813866853714 99:0.023255813866853714 103:0.20930232107639313 108:0.023255813866853714 131:0.023255813866853714 338:0.023255813866853714 432:0.023255813866853714 471:0.023255813866853714 549:0.023255813866853714 607:0.023255813866853714 816:0.023255813866853714 817:0.023255813866853714 818:0.023255813866853714 819:0.023255813866853714
13.409088381127193 1:0.0 2:0.03703703731298447 3:0.03703703731298447 4:0.0 5:0.0 6:0.03703703731298447 7:0.03703703731298447 8:0.0 10:0.03703703731298447 12:0.03703703731298447 44:0.14814814925193787 52:0.14814814925193787 61:0.03703703731298447 71:0.03703703731298447 97:0.03703703731298447 122:0.03703703731298447 153:0.03703703731298447 693:0.03703703731298447 694:0.03703703731298447 695:0.03703703731298447 696:0.03703703731298447 697:0.03703703731298447 698:0.03703703731298447 699:0.03703703731298447 700:0.03703703731298447
13.409088381127193 1:0.0 2:0.03333333507180214 3:0.03333333507180214 4:0.0 5:0.0 6:0.03333333507180214 7:0.03333333507180214 8:0.0 12:0.03333333507180214 35:0.03333333507180214 44:0.13333334028720856 50:0.03333333507180214 54:0.13333334028720856 66:0.03333333507180214 71:0.03333333507180214 90:0.03333333507180214 103:0.03333333507180214 131:0.03333333507180214 184:0.03333333507180214 185:0.03333333507180214 215:0.03333333507180214 300:0.03333333507180214 301:0.13333334028720856 302:0.03333333507180214 303:0.03333333507180214
-13.409088381127193 1:0.0 2:0.025641025975346565 3:0.025641025975346565 4:0.0 5:0.0 6:0.025641025975346565 7:0.025641025975346565 8:0.0 12:0.10256410390138626 27:0.025641025975346565 44:0.10256410390138626 52:0.10256410390138626 71:0.025641025975346565 102:0.025641025975346565 103:0.025641025975346565 138:0.025641025975346565 170:0.025641025975346565 190:0.025641025975346565 192:0.025641025975346565 291:0.025641025975346565 292:0.10256410390138626 437:0.025641025975346565 695:0.025641025975346565 719:0.025641025975346565 720:0.025641025975346565 721:0.025641025975346565 722:0.025641025975346565 723:0.025641025975346565 724:0.025641025975346565 725:0.025641025975346565 726:0.025641025975346565
-13.409088381127193 1:0.0 2:0.032258063554763794 3:0.032258063554763794 4:0.0 5:0.0 6:0.032258063554763794 7:0.032258063554763794 8:0.0 10:0.032258063554763794 12:0.12903225421905518 14:0.032258063554763794 44:0.12903225421905518 52:0.032258063554763794 71:0.032258063554763794 103:0.032258063554763794 111:0.032258063554763794 122:0.032258063554763794 128:0.032258063554763794 131:0.032258063554763794 133:0.032258063554763794 191:0.032258063554763794 195:0.032258063554763794 207:0.032258063554763794 303:0.032258063554763794 382:0.032258063554763794 429:0.032258063554763794 513:0.032258063554763794 519:0.032258063554763794 520:0.032258063554763794
-13.409088381127193 1:0.0 2:0.023255813866853714 3:0.023255813866853714 4:0.0 5:0.0 6:0.023255813866853714 7:0.023255813866853714 8:0.0 27:0.09302325546741486 35:0.023255813866853714 44:0.20930232107639313 49:0.023255813866853714 52:0.023255813866853714 61:0.023255813866853714 71:0.023255813866853714 78:0.023255813866853714 122:0.023255813866853714 196:0.09302325546741486 292:0.023255813866853714 380:0.023255813866853714 434:0.023255813866853714 435:0.023255813866853714 436:0.023255813866853714 437:0.023255813866853714 438:0.09302325546741486 439:0.023255813866853714 440:0.023255813866853714 441:0.023255813866853714 442:0.023255813866853714 443:0.023255813866853714
-13.409088381127193 1:0.0 2:0.0357142873108387 3:0.0357142873108387 4:0.0 5:0.0 6:0.0357142873108387 7:0.0357142873108387 8:0.0 35:0.0357142873108387 44:0.0357142873108387 71:0.0357142873108387 94:0.0357142873108387 100:0.0357142873108387 103:0.1428571492433548 122:0.0357142873108387 131:0.0357142873108387 161:0.0357142873108387 167:0.0357142873108387 174:0.0357142873108387 273:0.0357142873108387 297:0.0357142873108387 303:0.0357142873108387 338:0.0357142873108387 498:0.0357142873108387 513:0.0357142873108387 514:0.0357142873108387 515:0.0357142873108387 516:0.0357142873108387 517:0.0357142873108387
13.409088381127193 1:0.0 2:0.0555555559694767 3:0.0555555559694767 4:0.0555555559694767 5:0.0555555559694767 6:0.0555555559694767 7:0.0555555559694767 8:0.0 10:0.0555555559694767 35:0.0555555559694767 71:0.0555555559694767 106:0.0555555559694767 194:0.0555555559694767 304:0.0555555559694767 519:0.0555555559694767 662:0.0555555559694767 663:0.0555555559694767 664:0.0555555559694767 665:0.0555555559694767 666:0.0555555559694767
5.903079095550174 1:0.03703703731298447 2:0.03703703731298447 3:0.03703703731298447 4:0.0 5:0.03703703731298447 6:0.03703703731298447 7:0.03703703731298447 8:0.0 10:0.14814814925193787 71:0.03703703731298447 84:0.03703703731298447 110:0.03703703731298447 111:0.03703703731298447 138:0.03703703731298447 159:0.03703703731298447 266:0.03703703731298447 296:0.03703703731298447 297:0.03703703731298447 607:0.14814814925193787 649:0.03703703731298447 650:0.03703703731298447 651:0.03703703731298447 652:0.03703703731298447
13.409088381127193 1:0.0 2:0.0714285746216774 3:0.0714285746216774 4:0.0714285746216774 5:0.0714285746216774 6:0.0714285746216774 7:0.0 8:0.0 12:0.0714285746216774 71:0.0714285746216774 90:0.0714285746216774 140:0.0714285746216774 1115:0.0714285746216774 1128:0.0714285746216774 1129:0.0714285746216774 1130:0.0714285746216774 1131:0.0714285746216774
-6.581163778487936 1:0.0 2:0.0833333358168602 3:0.0833333358168602 4:0.0833333358168602 5:0.0833333358168602 6:0.0833333358168602 7:0.0 8:0.0 71:0.0833333358168602 90:0.0833333358168602 796:0.0833333358168602 797:0.0833333358168602 798:0.0833333358168602 799:0.0833333358168602 800:0.0833333358168602
-0.9944091821066858 1:0.0 2:0.10000000149011612 3:0.10000000149011612 4:0.10000000149011612 5:0.10000000149011612 6:0.10000000149011612 7:0.0 8:0.0 71:0.10000000149011612 483:0.10000000149011612 978:0.10000000149011612 979:0.10000000149011612 980:0.10000000149011612
-3.826110860663303 1:0.0 2:0.10000000149011612 3:0.10000000149011612 4:0.10000000149011612 5:0.10000000149011612 6:0.10000000149011612 7:0.0 8:0.0 71:0.10000000149011612 1116:0.10000000149011612 1117:0.10000000149011612 1118:0.10000000149011612 1119:0.10000000149011612
-13.409088381127193 1:0.0 2:0.0714285746216774 3:0.0714285746216774 4:0.0714285746216774 5:0.0714285746216774 6:0.0714285746216774 7:0.0714285746216774 8:0.0 23:0.0714285746216774 35:0.0714285746216774 71:0.0714285746216774 158:0.0714285746216774 194:0.0714285746216774 601:0.0714285746216774 657:0.0714285746216774 658:0.0714285746216774
0.4221651395830097 1:0.0 2:0.0416666679084301 3:0.0416666679084301 4:0.0 5:0.0 6:0.0416666679084301 7:0.0416666679084301 8:0.0 12:0.0416666679084301 23:0.0416666679084301 44:0.0416666679084301 71:0.0416666679084301 94:0.0416666679084301 103:0.1666666716337204 127:0.0416666679084301 128:0.0416666679084301 131:0.0416666679084301 140:0.0416666679084301 142:0.0416666679084301 147:0.0416666679084301 191:0.0416666679084301 292:0.0416666679084301 346:0.0416666679084301 1107:0.0416666679084301 1110:0.0416666679084301
6.743655565711066 1:0.0 2:0.043478261679410934 3:0.043478261679410934 4:0.043478261679410934 5:0.043478261679410934 6:0.043478261679410934 7:0.043478261679410934 8:0.0 10:0.043478261679410934 35:0.043478261679410934 52:0.043478261679410934 54:0.043478261679410934 71:0.043478261679410934 93:0.043478261679410934 103:0.17391304671764374 190:0.043478261679410934 549:0.043478261679410934 677:0.043478261679410934 717:0.043478261679410934 727:0.043478261679410934 728:0.043478261679410934 729:0.043478261679410934
-9.415840069992498 1:0.014705882407724857 2:0.014705882407724857 3:0.014705882407724857 4:0.0 5:0.0 6:0.014705882407724857 7:0.014705882407724857 8:0.0 20:0.014705882407724857 44:0.529411792755127 61:0.014705882407724857 71:0.014705882407724857 143:0.014705882407724857 152:0.014705882407724857 214:0.05882352963089943 238:0.014705882407724857 239:0.014705882407724857 240:0.014705882407724857 241:0.014705882407724857 242:0.014705882407724857 243:0.13235294818878174 244:0.014705882407724857 245:0.014705882407724857 246:0.014705882407724857 247:0.014705882407724857
-13.409088381127193 1:0.0 2:0.029411764815449715 3:0.029411764815449715 4:0.0 5:0.0 6:0.029411764815449715 7:0.029411764815449715 8:0.0 10:0.029411764815449715 44:0.029411764815449715 47:0.029411764815449715 50:0.11764705926179886 51:0.029411764815449715 52:0.029411764815449715 55:0.029411764815449715 66:0.029411764815449715 71:0.029411764815449715 94:0.029411764815449715 99:0.029411764815449715 103:0.11764705926179886 109:0.029411764815449715 119:0.029411764815449715 132:0.029411764815449715 137:0.029411764815449715 274:0.029411764815449715 275:0.029411764815449715 276:0.029411764815449715 277:0.029411764815449715 278:0.029411764815449715 279:0.029411764815449715 280:0.029411764815449715 281:0.029411764815449715
-13.409088381127193 1:0.0 2:0.019607843831181526 3:0.019607843831181526 4:0.0 5:0.0 6:0.019607843831181526 7:0.019607843831181526 8:0.0 10:0.0784313753247261 12:0.019607843831181526 20:0.019607843831181526 21:0.019607843831181526 35:0.0784313753247261 44:0.0784313753247261 52:0.0784313753247261 66:0.019607843831181526 67:0.019607843831181526 71:0.019607843831181526 74:0.019607843831181526 90:0.019607843831181526 108:0.019607843831181526 186:0.0784313753247261 259:0.019607843831181526 274:0.019607843831181526 278:0.019607843831181526 281:0.019607843831181526 331:0.019607843831181526 522:0.019607843831181526 549:0.019607843831181526 586:0.019607843831181526 591:0.019607843831181526 592:0.019607843831181526 593:0.019607843831181526 594:0.019607843831181526 595:0.019607843831181526 596:0.019607843831181526 597:0.019607843831181526 598:0.019607843831181526 599:0.019607843831181526 600:0.019607843831181526
13.409088381127193 1:0.0 2:0.0625 3:0.0625 4:0.0625 5:0.0625 6:0.0625 7:0.0625 8:0.0 23:0.0625 35:0.0625 65:0.0625 71:0.0625 78:0.0625 117:0.0625 489:0.0625 587:0.0625 590:0.0625 801:0.0625
12.236551339699805 1:0.0833333358168602 2:0.0833333358168602 3:0.0833333358168602 4:0.0833333358168602 5:0.0833333358168602 6:0.0833333358168602 7:0.0833333358168602 8:0.0 12:0.0833333358168602 71:0.0833333358168602 522:0.0833333358168602 821:0.0833333358168602 822:0.0833333358168602
13.409088381127193 1:0.06666667014360428 2:0.06666667014360428 3:0.06666667014360428 4:0.06666667014360428 5:0.06666667014360428 6:0.06666667014360428 7:0.06666667014360428 8:0.0 12:0.06666667014360428 71:0.06666667014360428 522:0.06666667014360428 793:0.06666667014360428 827:0.06666667014360428 835:0.06666667014360428 845:0.06666667014360428 846:0.06666667014360428
-13.409088381127193 1:0.0 2:0.1111111119389534 3:0.1111111119389534 4:0.1111111119389534 5:0.0 6:0.1111111119389534 7:0.0 8:0.0 35:0.1111111119389534 44:0.1111111119389534 71:0.1111111119389534 117:0.1111111119389534 865:0.1111111119389534
-13.409088381127193 1:0.0 2:0.0714285746216774 3:0.0714285746216774 4:0.0714285746216774 5:0.0714285746216774 6:0.0714285746216774 7:0.0714285746216774 8:0.0 23:0.0714285746216774 49:0.0714285746216774 71:0.0714285746216774 110:0.0714285746216774 138:0.0714285746216774 925:0.0714285746216774 967:0.0714285746216774 968:0.0714285746216774
-13.409088381127193 1:0.0 2:0.10000000149011612 3:0.10000000149011612 4:0.10000000149011612 5:0.10000000149011612 6:0.10000000149011612 7:0.10000000149011612 8:0.0 12:0.10000000149011612 29:0.10000000149011612 522:0.10000000149011612 549:0.10000000149011612
-13.409088381127193 1:0.0 2:0.0625 3:0.0625 4:0.0625 5:0.0625 6:0.0625 7:0.0625 8:0.0 65:0.0625 71:0.0625 76:0.0625 119:0.0625 521:0.0625 588:0.0625 590:0.0625 826:0.0625 827:0.0625 828:0.0625
2.1246386414825027 1:0.0 2:0.021276595070958138 3:0.021276595070958138 4:0.0 5:0.0 6:0.021276595070958138 7:0.021276595070958138 8:0.0 10:0.021276595070958138 12:0.021276595070958138 23:0.021276595070958138 27:0.021276595070958138 29:0.021276595070958138 35:0.021276595070958138 44:0.08510638028383255 50:0.08510638028383255 52:0.08510638028383255 61:0.021276595070958138 66:0.08510638028383255 84:0.021276595070958138 99:0.021276595070958138 103:0.08510638028383255 127:0.021276595070958138 131:0.021276595070958138 135:0.021276595070958138 138:0.021276595070958138 140:0.021276595070958138 509:0.021276595070958138 578:0.021276595070958138 582:0.021276595070958138 693:0.08510638028383255 711:0.021276595070958138 712:0.021276595070958138
-4.220992195709762 1:0.0 2:0.04545454680919647 3:0.04545454680919647 4:0.04545454680919647 5:0.04545454680919647 6:0.04545454680919647 7:0.0 8:0.0 12:0.04545454680919647 29:0.04545454680919647 51:0.04545454680919647 97:0.04545454680919647 102:0.04545454680919647 422:0.04545454680919647 436:0.04545454680919647 483:0.1818181872367859 508:0.04545454680919647 938:0.04545454680919647 939:0.04545454680919647 940:0.04545454680919647 941:0.04545454680919647 942:0.04545454680919647
13.409088381127193 1:0.0 2:0.03703703731298447 3:0.03703703731298447 4:0.0 5:0.0 6:0.03703703731298447 7:0.03703703731298447 8:0.0 27:0.03703703731298447 43:0.03703703731298447 44:0.03703703731298447 50:0.03703703731298447 51:0.03703703731298447 52:0.03703703731298447 71:0.03703703731298447 78:0.03703703731298447 94:0.03703703731298447 103:0.14814814925193787 108:0.03703703731298447 110:0.03703703731298447 112:0.03703703731298447 127:0.03703703731298447 159:0.03703703731298447 279:0.03703703731298447 281:0.03703703731298447 313:0.03703703731298447 341:0.03703703731298447 342:0.03703703731298447
-13.409088381127193 1:0.0 2:0.02222222276031971 3:0.02222222276031971 4:0.0 5:0.02222222276031971 6:0.02222222276031971 7:0.02222222276031971 8:0.0 23:0.02222222276031971 27:0.08888889104127884 61:0.02222222276031971 64:0.02222222276031971 65:0.02222222276031971 71:0.02222222276031971 78:0.02222222276031971 103:0.08888889104127884 120:0.08888889104127884 131:0.02222222276031971 144:0.02222222276031971 156:0.02222222276031971 222:0.08888889104127884 226:0.02222222276031971 244:0.02222222276031971 246:0.02222222276031971 289:0.02222222276031971 315:0.20000000298023224 507:0.02222222276031971 508:0.02222222276031971
-13.409088381127193 1:0.0 2:0.02500000037252903 3:0.02500000037252903 4:0.0 5:0.0 6:0.02500000037252903 7:0.02500000037252903 8:0.0 12:0.10000000149011612 52:0.02500000037252903 57:0.02500000037252903 66:0.02500000037252903 71:0.02500000037252903 103:0.02500000037252903 109:0.02500000037252903 122:0.02500000037252903 138:0.02500000037252903 143:0.02500000037252903 152:0.02500000037252903 186:0.10000000149011612 331:0.02500000037252903 521:0.02500000037252903 522:0.22499999403953552 544:0.02500000037252903 549:0.02500000037252903 766:0.02500000037252903 858:0.02500000037252903 998:0.02500000037252903 999:0.02500000037252903 1000:0.02500000037252903
-13.409088381127193 1:0.0 2:0.043478261679410934 3:0.043478261679410934 4:0.0 5:0.043478261679410934 6:0.043478261679410934 7:0.043478261679410934 8:0.0 10:0.043478261679410934 49:0.043478261679410934 55:0.043478261679410934 61:0.043478261679410934 71:0.043478261679410934 103:0.17391304671764374 121:0.043478261679410934 131:0.043478261679410934 207:0.043478261679410934 412:0.043478261679410934 521:0.043478261679410934 631:0.043478261679410934 747:0.043478261679410934 1132:0.043478261679410934 1133:0.043478261679410934
-13.409088381127193 1:0.0 2:0.05000000074505806 3:0.05000000074505806 4:0.0 5:0.0 6:0.05000000074505806 7:0.05000000074505806 8:0.0 10:0.05000000074505806 12:0.05000000074505806 44:0.05000000074505806 54:0.05000000074505806 65:0.05000000074505806 71:0.05000000074505806 74:0.05000000074505806 76:0.05000000074505806 103:0.05000000074505806 270:0.05000000074505806 341:0.05000000074505806 472:0.05000000074505806 488:0.05000000074505806 497:0.05000000074505806 522:0.05000000074505806 802:0.05000000074505806
13.409088381127193 1:0.0 2:0.06666667014360428 3:0.06666667014360428 4:0.06666667014360428 5:0.0 6:0.06666667014360428 7:0.06666667014360428 8:0.0 35:0.06666667014360428 44:0.06666667014360428 71:0.06666667014360428 121:0.06666667014360428 771:0.06666667014360428 873:0.06666667014360428 874:0.06666667014360428 878:0.06666667014360428 879:0.06666667014360428 880:0.06666667014360428
13.409088381127193 1:0.0 2:0.09090909361839294 3:0.09090909361839294 4:0.09090909361839294 5:0.0 6:0.09090909361839294 7:0.0 8:0.0 44:0.09090909361839294 71:0.09090909361839294 83:0.09090909361839294 110:0.09090909361839294 142:0.09090909361839294 713:0.09090909361839294 1111:0.09090909361839294
13.409088381127193 1:0.0 2:0.07692307978868484 3:0.07692307978868484 4:0.07692307978868484 5:0.07692307978868484 6:0.07692307978868484 7:0.0 8:0.0 23:0.07692307978868484 35:0.07692307978868484 57:0.07692307978868484 71:0.07692307978868484 184:0.07692307978868484 192:0.07692307978868484 1111:0.07692307978868484 1134:0.07692307978868484
13.409088381127193 1:0.022727273404598236 2:0.022727273404598236 3:0.022727273404598236 4:0.0 5:0.022727273404598236 6:0.022727273404598236 7:0.022727273404598236 8:0.0 12:0.022727273404598236 14:0.022727273404598236 27:0.09090909361839294 35:0.022727273404598236 51:0.022727273404598236 52:0.022727273404598236 71:0.022727273404598236 90:0.022727273404598236 118:0.022727273404598236 122:0.09090909361839294 129:0.022727273404598236 138:0.022727273404598236 140:0.022727273404598236 143:0.022727273404598236 152:0.022727273404598236 153:0.022727273404598236 196:0.09090909361839294 222:0.022727273404598236 315:0.09090909361839294 318:0.022727273404598236 321:0.022727273404598236 322:0.022727273404598236 323:0.022727273404598236 324:0.022727273404598236 325:0.022727273404598236 326:0.022727273404598236
-13.409088381127193 1:0.0 2:0.05882352963089943 3:0.05882352963089943 4:0.05882352963089943 5:0.0 6:0.05882352963089943 7:0.05882352963089943 8:0.0 10:0.05882352963089943 35:0.05882352963089943 44:0.05882352963089943 71:0.05882352963089943 304:0.05882352963089943 364:0.05882352963089943 757:0.05882352963089943 771:0.05882352963089943 871:0.05882352963089943 872:0.05882352963089943 879:0.05882352963089943 880:0.05882352963089943
-2.0434199428080655 1:0.0 2:0.0714285746216774 3:0.0714285746216774 4:0.0714285746216774 5:0.0 6:0.0 7:0.0 8:0.0 44:0.0714285746216774 57:0.0714285746216774 71:0.0714285746216774 361:0.0714285746216774 417:0.0714285746216774 418:0.0714285746216774 419:0.0714285746216774 420:0.0714285746216774 421:0.0714285746216774 422:0.0714285746216774 423:0.0714285746216774
-5.201190247101324 1:0.0 2:0.0714285746216774 3:0.0714285746216774 4:0.0714285746216774 5:0.0 6:0.0 7:0.0 8:0.0 44:0.0714285746216774 57:0.0714285746216774 71:0.0714285746216774 361:0.0714285746216774 417:0.0714285746216774 418:0.0714285746216774 419:0.0714285746216774 420:0.0714285746216774 421:0.0714285746216774 424:0.0714285746216774 425:0.0714285746216774
9.520901515329887 1:0.0 2:0.03846153989434242 3:0.03846153989434242 4:0.0 5:0.03846153989434242 6:0.03846153989434242 7:0.03846153989434242 8:0.0 10:0.03846153989434242 12:0.1538461595773697 27:0.03846153989434242 35:0.03846153989434242 71:0.03846153989434242 103:0.03846153989434242 122:0.03846153989434242 125:0.03846153989434242 190:0.03846153989434242 419:0.03846153989434242 521:0.1538461595773697 522:0.03846153989434242 708:0.03846153989434242 728:0.03846153989434242 785:0.03846153989434242
7.99011532999767 1:0.0555555559694767 2:0.0555555559694767 3:0.0555555559694767 4:0.0555555559694767 5:0.0555555559694767 6:0.0555555559694767 7:0.0555555559694767 8:0.0 35:0.0555555559694767 71:0.0555555559694767 103:0.0555555559694767 155:0.0555555559694767 471:0.0555555559694767 588:0.0555555559694767 793:0.0555555559694767 827:0.0555555559694767 829:0.0555555559694767 833:0.0555555559694767 834:0.0555555559694767
13.409088381127193 1:0.0 2:0.023255813866853714 3:0.023255813866853714 4:0.0 5:0.0 6:0.023255813866853714 7:0.023255813866853714 8:0.0 10:0.20930232107639313 12:0.09302325546741486 44:0.09302325546741486 52:0.023255813866853714 54:0.023255813866853714 61:0.023255813866853714 66:0.023255813866853714 71:0.023255813866853714 89:0.023255813866853714 97:0.023255813866853714 103:0.023255813866853714 122:0.023255813866853714 125:0.023255813866853714 127:0.023255813866853714 189:0.023255813866853714 296:0.023255813866853714 521:0.023255813866853714 522:0.023255813866853714 549:0.023255813866853714 578:0.023255813866853714 642:0.023255813866853714 746:0.023255813866853714 747:0.023255813866853714 748:0.023255813866853714 749:0.023255813866853714
13.409088381127193 1:0.0 2:0.02631578966975212 3:0.02631578966975212 4:0.0 5:0.0 6:0.02631578966975212 7:0.02631578966975212 8:0.0 12:0.02631578966975212 44:0.02631578966975212 52:0.02631578966975212 61:0.02631578966975212 65:0.02631578966975212 71:0.02631578966975212 90:0.10526315867900848 103:0.10526315867900848 108:0.02631578966975212 119:0.02631578966975212 127:0.02631578966975212 144:0.02631578966975212 154:0.02631578966975212 229:0.02631578966975212 427:0.02631578966975212 471:0.02631578966975212 509:0.02631578966975212 522:0.10526315867900848 549:0.02631578966975212 587:0.02631578966975212 590:0.02631578966975212 841:0.02631578966975212 854:0.02631578966975212 855:0.02631578966975212 856:0.02631578966975212
-8.442100865925362 1:0.0 2:0.025641025975346565 3:0.0 4:0.0 5:0.0 6:0.025641025975346565 7:0.025641025975346565 8:0.0 9:0.025641025975346565 10:0.025641025975346565 12:0.025641025975346565 20:0.025641025975346565 22:0.025641025975346565 53:0.025641025975346565 90:0.23076923191547394 143:0.025641025975346565 152:0.025641025975346565 276:0.025641025975346565 292:0.025641025975346565 521:0.025641025975346565 522:0.025641025975346565 523:0.025641025975346565 524:0.025641025975346565 525:0.23076923191547394 526:0.025641025975346565 527:0.025641025975346565 528:0.025641025975346565 529:0.025641025975346565
-13.409088381127193 1:0.0 2:0.03999999910593033 3:0.0 4:0.0 5:0.03999999910593033 6:0.03999999910593033 7:0.03999999910593033 8:0.0 52:0.03999999910593033 53:0.03999999910593033 54:0.03999999910593033 90:0.1599999964237213 92:0.03999999910593033 94:0.03999999910593033 103:0.03999999910593033 132:0.03999999910593033 159:0.03999999910593033 167:0.03999999910593033 181:0.03999999910593033 182:0.03999999910593033 183:0.03999999910593033 184:0.03999999910593033 185:0.03999999910593033 186:0.03999999910593033 187:0.03999999910593033 188:0.03999999910593033
-13.409088381127193 1:0.0555555559694767 2:0.0555555559694767 3:0.0 4:0.0555555559694767 5:0.0555555559694767 6:0.0555555559694767 7:0.0555555559694767 8:0.0 9:0.0555555559694767 10:0.0555555559694767 12:0.0555555559694767 53:0.0555555559694767 84:0.0555555559694767 94:0.0555555559694767 103:0.0555555559694767 157:0.0555555559694767 158:0.0555555559694767 159:0.0555555559694767 160:0.0555555559694767 161:0.0555555559694767
-13.409088381127193 1:0.0044843051582574844 2:0.0044843051582574844 3:0.0044843051582574844 4:0.0 5:0.0 6:0.0044843051582574844 7:0.0044843051582574844 8:0.0 9:0.0044843051582574844 10:0.017937220633029938 12:0.07174888253211975 27:0.07174888253211975 30:0.017937220633029938 33:0.0044843051582574844 35:0.017937220633029938 40:0.0044843051582574844 44:0.04035874456167221 47:0.0044843051582574844 52:0.04035874456167221 55:0.0044843051582574844 61:0.04035874456167221 71:0.0044843051582574844 78:0.0044843051582574844 90:0.017937220633029938 108:0.0044843051582574844 118:0.0044843051582574844 133:0.0044843051582574844 162:0.017937220633029938 173:0.0044843051582574844 342:0.0044843051582574844 468:0.0044843051582574844 483:0.04035874456167221 517:0.11210761964321136 521:0.0044843051582574844 522:0.0044843051582574844 530:0.0044843051582574844 531:0.0044843051582574844 532:0.0044843051582574844 533:0.0044843051582574844 534:0.0044843051582574844 535:0.0044843051582574844 536:0.0044843051582574844 537:0.0044843051582574844 538:0.0044843051582574844 539:0.0044843051582574844 540:0.0044843051582574844 541:0.0044843051582574844 542:0.0044843051582574844 543:0.0044843051582574844 544:0.0044843051582574844 545:0.07174888253211975 546:0.0044843051582574844 547:0.0044843051582574844 548:0.0044843051582574844 549:0.07174888253211975 550:0.017937220633029938 551:0.0044843051582574844 552:0.0044843051582574844 553:0.0044843051582574844 554:0.0044843051582574844 555:0.0044843051582574844 556:0.017937220633029938 557:0.0044843051582574844 558:0.0044843051582574844 559:0.0044843051582574844 560:0.017937220633029938 561:0.0044843051582574844 562:0.0044843051582574844 563:0.0044843051582574844 564:0.0044843051582574844 565:0.0044843051582574844 566:0.0044843051582574844 567:0.0044843051582574844 568:0.0044843051582574844 569:0.0044843051582574844 570:0.0044843051582574844 571:0.0044843051582574844 572:0.0044843051582574844 573:0.0044843051582574844 574:0.0044843051582574844 575:0.0044843051582574844 576:0.0044843051582574844 577:0.0044843051582574844 578:0.0044843051582574844 579:0.0044843051582574844 580:0.0044843051582574844
13.022163958732865 1:0.03448275849223137 2:0.03448275849223137 3:0.03448275849223137 4:0.0 5:0.03448275849223137 6:0.03448275849223137 7:0.03448275849223137 8:0.0 35:0.13793103396892548 61:0.03448275849223137 71:0.03448275849223137 103:0.03448275849223137 119:0.03448275849223137 292:0.13793103396892548 343:0.03448275849223137 364:0.03448275849223137 463:0.03448275849223137 494:0.03448275849223137 559:0.03448275849223137 578:0.03448275849223137 754:0.03448275849223137 807:0.03448275849223137 810:0.03448275849223137 813:0.03448275849223137 814:0.03448275849223137
13.409088381127193 1:0.05263157933950424 2:0.05263157933950424 3:0.05263157933950424 4:0.05263157933950424 5:0.05263157933950424 6:0.05263157933950424 7:0.05263157933950424 8:0.0 35:0.05263157933950424 65:0.05263157933950424 71:0.05263157933950424 78:0.05263157933950424 108:0.05263157933950424 128:0.05263157933950424 138:0.05263157933950424 146:0.05263157933950424 161:0.05263157933950424 282:0.05263157933950424 343:0.05263157933950424 344:0.05263157933950424
-13.409088381127193 1:0.0 2:0.0714285746216774 3:0.0714285746216774 4:0.0714285746216774 5:0.0 6:0.0714285746216774 7:0.0714285746216774 8:0.0 10:0.0714285746216774 35:0.0714285746216774 44:0.0714285746216774 71:0.0714285746216774 103:0.0714285746216774 623:0.0714285746216774 624:0.0714285746216774 625:0.0714285746216774 626:0.0714285746216774
-13.409088381127193 1:0.0 2:0.0476190485060215 3:0.0476190485060215 4:0.0476190485060215 5:0.0476190485060215 6:0.0476190485060215 7:0.0476190485060215 8:0.0 12:0.0476190485060215 30:0.0476190485060215 51:0.190476194024086 52:0.0476190485060215 71:0.0476190485060215 173:0.0476190485060215 422:0.0476190485060215 471:0.0476190485060215 691:0.0476190485060215 709:0.0476190485060215 829:0.0476190485060215 988:0.0476190485060215
-13.409088381127193 1:0.0 2:0.05000000074505806 3:0.0 4:0.05000000074505806 5:0.05000000074505806 6:0.05000000074505806 7:0.05000000074505806 8:0.0 27:0.20000000298023224 35:0.20000000298023224 47:0.05000000074505806 53:0.05000000074505806 78:0.05000000074505806 297:0.05000000074505806 322:0.05000000074505806 334:0.05000000074505806 389:0.05000000074505806
13.409088381127193 1:0.0 2:0.02222222276031971 3:0.02222222276031971 4:0.0 5:0.02222222276031971 6:0.02222222276031971 7:0.02222222276031971 8:0.0 14:0.02222222276031971 52:0.02222222276031971 71:0.02222222276031971 74:0.02222222276031971 90:0.02222222276031971 94:0.02222222276031971 103:0.02222222276031971 106:0.02222222276031971 110:0.02222222276031971 120:0.02222222276031971 123:0.02222222276031971 131:0.02222222276031971 138:0.02222222276031971 143:0.08888889104127884 152:0.08888889104127884 153:0.02222222276031971 223:0.02222222276031971 279:0.08888889104127884 281:0.08888889104127884 313:0.02222222276031971 315:0.02222222276031971 327:0.02222222276031971 328:0.02222222276031971 329:0.02222222276031971 330:0.02222222276031971 331:0.02222222276031971 332:0.02222222276031971 333:0.02222222276031971
13.409088381127193 1:0.0 2:0.0625 3:0.0625 4:0.0625 5:0.0 6:0.0625 7:0.0625 8:0.0 10:0.0625 12:0.0625 44:0.0625 71:0.0625 169:0.0625 296:0.0625 369:0.0625 516:0.0625 517:0.0625 612:0.0625 739:0.0625
13.409088381127193 1:0.0 2:0.03999999910593033 3:0.03999999910593033 4:0.0 5:0.0 6:0.03999999910593033 7:0.03999999910593033 8:0.0 12:0.03999999910593033 44:0.03999999910593033 51:0.03999999910593033 71:0.03999999910593033 84:0.1599999964237213 94:0.03999999910593033 103:0.03999999910593033 128:0.03999999910593033 267:0.03999999910593033 318:0.03999999910593033 429:0.03999999910593033 519:0.03999999910593033 522:0.03999999910593033 549:0.03999999910593033 689:0.03999999910593033 690:0.03999999910593033 691:0.03999999910593033 692:0.03999999910593033
13.409088381127193 1:0.0 2:0.0555555559694767 3:0.0555555559694767 4:0.0555555559694767 5:0.0 6:0.0555555559694767 7:0.0555555559694767 8:0.0 12:0.0555555559694767 29:0.0555555559694767 44:0.0555555559694767 50:0.0555555559694767 66:0.0555555559694767 106:0.0555555559694767 111:0.0555555559694767 130:0.0555555559694767 156:0.0555555559694767 676:0.0555555559694767 693:0.0555555559694767 701:0.0555555559694767 702:0.0555555559694767
13.409088381127193 1:0.03846153989434242 2:0.03846153989434242 3:0.03846153989434242 4:0.0 5:0.03846153989434242 6:0.03846153989434242 7:0.03846153989434242 8:0.0 27:0.1538461595773697 52:0.1538461595773697 71:0.03846153989434242 84:0.03846153989434242 92:0.03846153989434242 106:0.03846153989434242 138:0.03846153989434242 186:0.03846153989434242 223:0.03846153989434242 304:0.03846153989434242 693:0.03846153989434242 717:0.03846153989434242 740:0.03846153989434242 741:0.03846153989434242
-13.409088381127193 1:0.0 2:0.03703703731298447 3:0.03703703731298447 4:0.0 5:0.0 6:0.03703703731298447 7:0.03703703731298447 8:0.0 10:0.03703703731298447 31:0.03703703731298447 44:0.03703703731298447 61:0.03703703731298447 71:0.03703703731298447 94:0.03703703731298447 103:0.03703703731298447 108:0.03703703731298447 131:0.03703703731298447 194:0.03703703731298447 281:0.03703703731298447 500:0.03703703731298447 578:0.03703703731298447 581:0.03703703731298447 582:0.03703703731298447 583:0.03703703731298447 584:0.03703703731298447 585:0.03703703731298447 586:0.03703703731298447 587:0.03703703731298447 588:0.03703703731298447 589:0.03703703731298447 590:0.03703703731298447
-13.409088381127193 1:0.0 2:0.0555555559694767 3:0.0555555559694767 4:0.0555555559694767 5:0.0 6:0.0555555559694767 7:0.0555555559694767 8:0.0 28:0.0555555559694767 44:0.0555555559694767 50:0.0555555559694767 52:0.0555555559694767 60:0.0555555559694767 65:0.0555555559694767 71:0.0555555559694767 78:0.0555555559694767 94:0.0555555559694767 103:0.0555555559694767 127:0.0555555559694767 162:0.0555555559694767 163:0.0555555559694767
-13.409088381127193 1:0.0 2:0.043478261679410934 3:0.043478261679410934 4:0.0 5:0.0 6:0.043478261679410934 7:0.043478261679410934 8:0.0 15:0.043478261679410934 44:0.043478261679410934 52:0.043478261679410934 55:0.043478261679410934 65:0.043478261679410934 71:0.043478261679410934 94:0.043478261679410934 103:0.043478261679410934 138:0.043478261679410934 171:0.043478261679410934 195:0.043478261679410934 196:0.043478261679410934 204:0.043478261679410934 218:0.043478261679410934 219:0.043478261679410934 220:0.043478261679410934 221:0.043478261679410934 222:0.043478261679410934 223:0.043478261679410934
-13.409088381127193 1:0.0 2:0.0625 3:0.0625 4:0.0625 5:0.0 6:0.0625 7:0.0625 8:0.0 10:0.0625 12:0.0625 71:0.0625 104:0.0625 449:0.0625 521:0.0625 983:0.0625 984:0.0625 985:0.0625 986:0.0625 987:0.0625
13.409088381127193 1:0.0 2:0.05263157933950424 3:0.05263157933950424 4:0.05263157933950424 5:0.0 6:0.05263157933950424 7:0.05263157933950424 8:0.0 23:0.05263157933950424 27:0.05263157933950424 35:0.05263157933950424 44:0.05263157933950424 57:0.05263157933950424 71:0.05263157933950424 103:0.05263157933950424 118:0.05263157933950424 127:0.05263157933950424 131:0.05263157933950424 549:0.05263157933950424 671:0.05263157933950424 672:0.05263157933950424 673:0.05263157933950424
4.692646124264086 1:0.0 2:0.03703703731298447 3:0.03703703731298447 4:0.0 5:0.0 6:0.03703703731298447 7:0.03703703731298447 8:0.0 10:0.03703703731298447 35:0.14814814925193787 40:0.03703703731298447 44:0.03703703731298447 71:0.03703703731298447 90:0.03703703731298447 100:0.14814814925193787 127:0.03703703731298447 284:0.03703703731298447 378:0.03703703731298447 509:0.03703703731298447 559:0.03703703731298447 798:0.03703703731298447 800:0.03703703731298447 804:0.03703703731298447 895:0.03703703731298447 896:0.03703703731298447
9.097421315536465 1:0.0 2:0.021276595070958138 3:0.021276595070958138 4:0.0 5:0.0 6:0.021276595070958138 7:0.021276595070958138 8:0.0 35:0.19148936867713928 44:0.021276595070958138 54:0.021276595070958138 55:0.021276595070958138 57:0.021276595070958138 65:0.08510638028383255 67:0.021276595070958138 71:0.021276595070958138 90:0.021276595070958138 93:0.021276595070958138 94:0.021276595070958138 99:0.021276595070958138 100:0.021276595070958138 103:0.08510638028383255 104:0.021276595070958138 110:0.021276595070958138 111:0.021276595070958138 122:0.021276595070958138 128:0.021276595070958138 159:0.021276595070958138 313:0.021276595070958138 318:0.021276595070958138 459:0.021276595070958138 460:0.021276595070958138 461:0.021276595070958138 462:0.021276595070958138 463:0.021276595070958138 464:0.021276595070958138 465:0.021276595070958138
-13.409088381127193 1:0.0 2:0.0476190485060215 3:0.0476190485060215 4:0.0476190485060215 5:0.0 6:0.0476190485060215 7:0.0476190485060215 8:0.0 12:0.0476190485060215 14:0.0476190485060215 35:0.0476190485060215 44:0.0476190485060215 71:0.0476190485060215 84:0.0476190485060215 105:0.0476190485060215 122:0.190476194024086 176:0.0476190485060215 177:0.0476190485060215 178:0.0476190485060215 179:0.0476190485060215 180:0.0476190485060215
-12.281203178236812 1:0.0 2:0.043478261679410934 3:0.043478261679410934 4:0.0 5:0.0 6:0.043478261679410934 7:0.043478261679410934 8:0.0 11:0.043478261679410934 35:0.043478261679410934 55:0.043478261679410934 61:0.043478261679410934 71:0.043478261679410934 90:0.043478261679410934 122:0.043478261679410934 143:0.043478261679410934 152:0.043478261679410934 324:0.043478261679410934 345:0.043478261679410934 361:0.043478261679410934 393:0.043478261679410934 395:0.043478261679410934 400:0.043478261679410934 401:0.043478261679410934 402:0.043478261679410934 403:0.043478261679410934 404:0.043478261679410934
-13.409088381127193 1:0.0 2:0.04545454680919647 3:0.04545454680919647 4:0.0 5:0.04545454680919647 6:0.04545454680919647 7:0.04545454680919647 8:0.0 11:0.04545454680919647 35:0.04545454680919647 61:0.04545454680919647 71:0.04545454680919647 90:0.04545454680919647 143:0.04545454680919647 152:0.04545454680919647 273:0.04545454680919647 324:0.04545454680919647 346:0.04545454680919647 361:0.04545454680919647 390:0.04545454680919647 391:0.04545454680919647 392:0.04545454680919647 393:0.04545454680919647 394:0.04545454680919647 395:0.04545454680919647
-13.409088381127193 1:0.0 2:0.032258063554763794 3:0.032258063554763794 4:0.0 5:0.0 6:0.032258063554763794 7:0.032258063554763794 8:0.0 14:0.032258063554763794 15:0.032258063554763794 27:0.032258063554763794 35:0.032258063554763794 44:0.032258063554763794 51:0.032258063554763794 52:0.032258063554763794 59:0.032258063554763794 61:0.032258063554763794 71:0.032258063554763794 74:0.032258063554763794 78:0.032258063554763794 94:0.032258063554763794 99:0.032258063554763794 103:0.032258063554763794 105:0.032258063554763794 106:0.032258063554763794 107:0.032258063554763794 108:0.032258063554763794 109:0.032258063554763794 110:0.032258063554763794 111:0.032258063554763794 112:0.032258063554763794 113:0.032258063554763794 114:0.032258063554763794 115:0.032258063554763794 116:0.032258063554763794
-13.409088381127193 1:0.0 2:0.0416666679084301 3:0.0416666679084301 4:0.0 5:0.0416666679084301 6:0.0416666679084301 7:0.0416666679084301 8:0.0 11:0.0416666679084301 27:0.0416666679084301 35:0.0416666679084301 52:0.0416666679084301 61:0.0416666679084301 71:0.0416666679084301 90:0.0416666679084301 324:0.0416666679084301 346:0.0416666679084301 361:0.0416666679084301 396:0.0416666679084301 397:0.0416666679084301 398:0.0416666679084301 399:0.0416666679084301 400:0.1666666716337204 401:0.0416666679084301
13.409088381127193 1:0.0 2:0.0476190485060215 3:0.0476190485060215 4:0.0476190485060215 5:0.0476190485060215 6:0.0476190485060215 7:0.0476190485060215 8:0.0 12:0.0476190485060215 51:0.0476190485060215 52:0.0476190485060215 71:0.0476190485060215 97:0.0476190485060215 103:0.0476190485060215 190:0.0476190485060215 292:0.0476190485060215 384:0.0476190485060215 537:0.0476190485060215 549:0.0476190485060215 605:0.0476190485060215 612:0.0476190485060215 613:0.0476190485060215 614:0.0476190485060215
13.409088381127193 1:0.0 2:0.04545454680919647 3:0.04545454680919647 4:0.04545454680919647 5:0.04545454680919647 6:0.04545454680919647 7:0.04545454680919647 8:0.0 12:0.04545454680919647 61:0.04545454680919647 71:0.04545454680919647 90:0.04545454680919647 97:0.04545454680919647 138:0.04545454680919647 378:0.1818181872367859 521:0.04545454680919647 588:0.04545454680919647 719:0.04545454680919647 764:0.04545454680919647 829:0.04545454680919647 830:0.04545454680919647
13.409088381127193 1:0.0625 2:0.0625 3:0.0625 4:0.0625 5:0.0625 6:0.0625 7:0.0625 8:0.0 12:0.0625 52:0.0625 71:0.0625 132:0.0625 522:0.0625 829:0.0625 833:0.0625 834:0.0625 835:0.0625
13.409088381127193 1:0.05263157933950424 2:0.05263157933950424 3:0.05263157933950424 4:0.05263157933950424 5:0.0 6:0.05263157933950424 7:0.05263157933950424 8:0.0 10:0.05263157933950424 29:0.05263157933950424 44:0.05263157933950424 65:0.05263157933950424 74:0.05263157933950424 103:0.05263157933950424 110:0.05263157933950424 190:0.05263157933950424 618:0.05263157933950424 630:0.05263157933950424 631:0.05263157933950424 632:0.05263157933950424 633:0.05263157933950424
-13.409088381127193 1:0.0 2:0.0476190485060215 3:0.0476190485060215 4:0.0476190485060215 5:0.0476190485060215 6:0.0476190485060215 7:0.0476190485060215 8:0.0 27:0.0476190485060215 52:0.190476194024086 61:0.0476190485060215 71:0.0476190485060215 103:0.0476190485060215 132:0.0476190485060215 190:0.0476190485060215 275:0.0476190485060215 378:0.0476190485060215 437:0.0476190485060215 738:0.0476190485060215 812:0.0476190485060215
-13.409088381127193 1:0.0 2:0.09090909361839294 3:0.09090909361839294 4:0.09090909361839294 5:0.0 6:0.09090909361839294 7:0.0 8:0.0 29:0.09090909361839294 44:0.09090909361839294 108:0.09090909361839294 120:0.09090909361839294 127:0.09090909361839294 128:0.09090909361839294 129:0.09090909361839294
-13.409088381127193 1:0.0 2:0.03999999910593033 3:0.03999999910593033 4:0.0 5:0.03999999910593033 6:0.03999999910593033 7:0.03999999910593033 8:0.0 9:0.03999999910593033 23:0.03999999910593033 71:0.03999999910593033 103:0.03999999910593033 159:0.03999999910593033 183:0.03999999910593033 190:0.03999999910593033 200:0.03999999910593033 274:0.03999999910593033 302:0.03999999910593033 307:0.03999999910593033 320:0.03999999910593033 350:0.03999999910593033 509:0.03999999910593033 522:0.03999999910593033 549:0.03999999910593033 1001:0.03999999910593033 1002:0.03999999910593033 1003:0.03999999910593033 1004:0.03999999910593033
-13.409088381127193 1:0.0 2:0.05882352963089943 3:0.05882352963089943 4:0.05882352963089943 5:0.05882352963089943 6:0.05882352963089943 7:0.05882352963089943 8:0.0 51:0.05882352963089943 52:0.05882352963089943 71:0.05882352963089943 86:0.05882352963089943 106:0.05882352963089943 119:0.05882352963089943 174:0.05882352963089943 733:0.05882352963089943 743:0.05882352963089943 744:0.05882352963089943 745:0.05882352963089943
13.409088381127193 1:0.0 2:0.0357142873108387 3:0.0357142873108387 4:0.0 5:0.0 6:0.0357142873108387 7:0.0357142873108387 8:0.0 10:0.0357142873108387 12:0.0357142873108387 27:0.0357142873108387 35:0.0357142873108387 44:0.0357142873108387 71:0.0357142873108387 90:0.0357142873108387 103:0.0357142873108387 127:0.0357142873108387 129:0.0357142873108387 131:0.0357142873108387 194:0.0357142873108387 273:0.0357142873108387 318:0.0357142873108387 320:0.0357142873108387 322:0.0357142873108387 324:0.0357142873108387 334:0.0357142873108387 335:0.0357142873108387 336:0.0357142873108387 337:0.0357142873108387 338:0.0357142873108387 339:0.0357142873108387 340:0.0357142873108387
13.409088381127193 1:0.02380952425301075 2:0.02380952425301075 3:0.02380952425301075 4:0.0 5:0.0 6:0.02380952425301075 7:0.02380952425301075 8:0.0 12:0.02380952425301075 15:0.02380952425301075 35:0.02380952425301075 44:0.095238097012043 50:0.02380952425301075 51:0.02380952425301075 52:0.02380952425301075 54:0.02380952425301075 61:0.095238097012043 71:0.02380952425301075 103:0.095238097012043 127:0.02380952425301075 165:0.02380952425301075 190:0.02380952425301075 194:0.02380952425301075 206:0.02380952425301075 215:0.02380952425301075 225:0.02380952425301075 282:0.02380952425301075 283:0.02380952425301075 284:0.02380952425301075 285:0.02380952425301075 286:0.095238097012043 287:0.02380952425301075 288:0.02380952425301075
13.409088381127193 1:0.03846153989434242 2:0.03846153989434242 3:0.03846153989434242 4:0.0 5:0.0 6:0.03846153989434242 7:0.03846153989434242 8:0.0 10:0.03846153989434242 27:0.03846153989434242 35:0.03846153989434242 44:0.1538461595773697 52:0.03846153989434242 65:0.03846153989434242 71:0.03846153989434242 74:0.03846153989434242 118:0.03846153989434242 137:0.03846153989434242 138:0.03846153989434242 277:0.03846153989434242 539:0.03846153989434242 678:0.03846153989434242 679:0.03846153989434242 680:0.03846153989434242 681:0.03846153989434242 682:0.03846153989434242
13.409088381127193 1:0.0 2:0.0476190485060215 3:0.0476190485060215 4:0.0 5:0.0476190485060215 6:0.0476190485060215 7:0.0476190485060215 8:0.0 12:0.0476190485060215 27:0.0476190485060215 52:0.0476190485060215 61:0.0476190485060215 71:0.0476190485060215 94:0.0476190485060215 97:0.0476190485060215 103:0.0476190485060215 136:0.0476190485060215 146:0.0476190485060215 161:0.0476190485060215 272:0.0476190485060215 361:0.0476190485060215 410:0.0476190485060215 411:0.0476190485060215 412:0.0476190485060215
-9.441506189262304 1:0.0 2:0.0026525198481976986 3:0.0026525198481976986 4:0.0 5:0.0 6:0.0026525198481976986 7:0.0026525198481976986 8:0.0 10:0.0026525198481976986 12:0.04244031757116318 16:0.010610079392790794 18:0.0026525198481976986 21:0.0026525198481976986 23:0.023872679099440575 32:0.0663129985332489 44:0.023872679099440575 51:0.0026525198481976986 71:0.0026525198481976986 82:0.010610079392790794 117:0.0026525198481976986 118:0.04244031757116318 180:0.0026525198481976986 191:0.0026525198481976986 195:0.0026525198481976986 266:0.010610079392790794 279:0.0026525198481976986 436:0.0026525198481976986 538:0.010610079392790794 543:0.0026525198481976986 550:0.0026525198481976986 576:0.0026525198481976986 578:0.0026525198481976986 609:0.010610079392790794 631:0.0026525198481976986 656:0.0026525198481976986 929:0.0026525198481976986 941:0.0026525198481976986 988:0.010610079392790794 989:0.1697612702846527 1021:0.0026525198481976986 1036:0.010610079392790794 1041:0.010610079392790794 1042:0.0026525198481976986 1043:0.0663129985332489 1044:0.0026525198481976986 1045:0.0026525198481976986 1046:0.0026525198481976986 1047:0.0026525198481976986 1048:0.0026525198481976986 1049:0.0663129985332489 1050:0.0026525198481976986 1051:0.0026525198481976986 1052:0.0954907163977623 1053:0.0026525198481976986 1054:0.0026525198481976986 1055:0.0026525198481976986 1056:0.0026525198481976986 1057:0.0026525198481976986 1058:0.0026525198481976986 1059:0.0026525198481976986 1060:0.0026525198481976986 1061:0.0026525198481976986 1062:0.0026525198481976986 1063:0.010610079392790794 1064:0.0026525198481976986 1065:0.0026525198481976986 1066:0.0026525198481976986 1067:0.0026525198481976986 1068:0.0026525198481976986 1069:0.0026525198481976986 1070:0.04244031757116318 1071:0.010610079392790794 1072:0.0026525198481976986 1073:0.010610079392790794 1074:0.0026525198481976986 1075:0.0026525198481976986 1076:0.0026525198481976986 1077:0.0026525198481976986 1078:0.0026525198481976986 1079:0.0026525198481976986 1080:0.0026525198481976986 1081:0.0026525198481976986 1082:0.010610079392790794 1083:0.0026525198481976986 1084:0.0026525198481976986 1085:0.0026525198481976986 1086:0.0026525198481976986 1087:0.0026525198481976986 1088:0.0026525198481976986 1089:0.0026525198481976986 1090:0.0026525198481976986 1091:0.0026525198481976986 1092:0.0026525198481976986 1093:0.0026525198481976986 1094:0.0026525198481976986 1095:0.0026525198481976986 1096:0.0026525198481976986 1097:0.0026525198481976986 1098:0.0026525198481976986 1099:0.0026525198481976986 1100:0.0026525198481976986 1101:0.0026525198481976986 1102:0.0026525198481976986 1103:0.023872679099440575 1104:0.0026525198481976986 1105:0.0026525198481976986
-13.409088381127193 1:0.0 2:0.03703703731298447 3:0.03703703731298447 4:0.0 5:0.0 6:0.03703703731298447 7:0.03703703731298447 8:0.0 12:0.03703703731298447 23:0.03703703731298447 35:0.03703703731298447 44:0.03703703731298447 49:0.03703703731298447 71:0.03703703731298447 104:0.03703703731298447 256:0.03703703731298447 286:0.03703703731298447 292:0.03703703731298447 449:0.03703703731298447 920:0.03703703731298447 925:0.03703703731298447 944:0.03703703731298447 945:0.03703703731298447 946:0.03703703731298447 947:0.03703703731298447 948:0.03703703731298447 949:0.03703703731298447 950:0.03703703731298447 951:0.03703703731298447 952:0.03703703731298447 953:0.03703703731298447
-13.409088381127193 1:0.0 2:0.03333333507180214 3:0.03333333507180214 4:0.0 5:0.0 6:0.03333333507180214 7:0.03333333507180214 8:0.0 12:0.03333333507180214 23:0.03333333507180214 24:0.03333333507180214 44:0.03333333507180214 49:0.03333333507180214 51:0.03333333507180214 57:0.03333333507180214 71:0.03333333507180214 117:0.03333333507180214 167:0.03333333507180214 266:0.03333333507180214 322:0.03333333507180214 402:0.03333333507180214 451:0.03333333507180214 679:0.03333333507180214 920:0.03333333507180214 921:0.03333333507180214 922:0.03333333507180214 923:0.03333333507180214 924:0.03333333507180214 925:0.03333333507180214 926:0.03333333507180214 927:0.03333333507180214 928:0.03333333507180214 929:0.03333333507180214 930:0.03333333507180214
-13.409088381127193 1:0.0 2:0.03333333507180214 3:0.03333333507180214 4:0.0 5:0.0 6:0.03333333507180214 7:0.03333333507180214 8:0.0 44:0.03333333507180214 47:0.03333333507180214 49:0.03333333507180214 51:0.03333333507180214 65:0.03333333507180214 71:0.03333333507180214 77:0.03333333507180214 78:0.13333334028720856 86:0.03333333507180214 94:0.03333333507180214 95:0.03333333507180214 96:0.03333333507180214 97:0.03333333507180214 98:0.03333333507180214 99:0.03333333507180214 100:0.03333333507180214 101:0.03333333507180214 102:0.03333333507180214 103:0.13333334028720856 104:0.03333333507180214
13.409088381127193 1:0.0 2:0.043478261679410934 3:0.043478261679410934 4:0.043478261679410934 5:0.043478261679410934 6:0.043478261679410934 7:0.043478261679410934 8:0.0 27:0.043478261679410934 51:0.043478261679410934 52:0.17391304671764374 65:0.043478261679410934 71:0.043478261679410934 84:0.043478261679410934 103:0.043478261679410934 190:0.043478261679410934 192:0.043478261679410934 411:0.043478261679410934 508:0.043478261679410934 509:0.043478261679410934 693:0.043478261679410934 703:0.043478261679410934
13.409088381127193 1:0.0416666679084301 2:0.0416666679084301 3:0.0416666679084301 4:0.0 5:0.0416666679084301 6:0.0416666679084301 7:0.0416666679084301 8:0.0 27:0.0416666679084301 29:0.0416666679084301 35:0.0416666679084301 51:0.0416666679084301 52:0.0416666679084301 61:0.0416666679084301 97:0.0416666679084301 106:0.0416666679084301 108:0.0416666679084301 191:0.0416666679084301 214:0.0416666679084301 265:0.0416666679084301 266:0.0416666679084301 278:0.0416666679084301 354:0.0416666679084301 481:0.0416666679084301 482:0.0416666679084301 483:0.0416666679084301
-13.409088381127193 1:0.0 2:0.05000000074505806 3:0.05000000074505806 4:0.05000000074505806 5:0.05000000074505806 6:0.05000000074505806 7:0.05000000074505806 8:0.0 10:0.20000000298023224 14:0.05000000074505806 52:0.05000000074505806 71:0.05000000074505806 84:0.05000000074505806 306:0.05000000074505806 309:0.05000000074505806 310:0.05000000074505806 311:0.05000000074505806 312:0.05000000074505806 313:0.05000000074505806
-13.409088381127193 1:0.0 2:0.01315789483487606 3:0.0 4:0.0 5:0.01315789483487606 6:0.01315789483487606 7:0.01315789483487606 8:0.0 9:0.01315789483487606 10:0.01315789483487606 35:0.05263157933950424 51:0.1184210553765297 52:0.05263157933950424 53:0.01315789483487606 97:0.01315789483487606 102:0.01315789483487606 162:0.01315789483487606 197:0.05263157933950424 266:0.01315789483487606 292:0.01315789483487606 298:0.01315789483487606 453:0.01315789483487606 543:0.01315789483487606 562:0.01315789483487606 679:0.01315789483487606 709:0.05263157933950424 721:0.01315789483487606 821:0.01315789483487606 942:0.01315789483487606 988:0.01315789483487606 992:0.01315789483487606 994:0.01315789483487606 1019:0.01315789483487606 1020:0.01315789483487606 1021:0.01315789483487606 1022:0.01315789483487606 1023:0.01315789483487606 1024:0.01315789483487606 1025:0.01315789483487606 1026:0.01315789483487606 1027:0.01315789483487606 1028:0.05263157933950424 1029:0.01315789483487606 1030:0.01315789483487606 1031:0.05263157933950424 1032:0.01315789483487606 1033:0.01315789483487606 1034:0.01315789483487606 1035:0.01315789483487606 1036:0.01315789483487606 1037:0.01315789483487606 1038:0.01315789483487606 1039:0.01315789483487606 1040:0.01315789483487606
-13.409088381127193 1:0.0 2:0.0416666679084301 3:0.0416666679084301 4:0.0 5:0.0 6:0.0416666679084301 7:0.0416666679084301 8:0.0 27:0.1666666716337204 35:0.0416666679084301 71:0.0416666679084301 90:0.0416666679084301 104:0.0416666679084301 133:0.0416666679084301 325:0.0416666679084301 440:0.0416666679084301 452:0.0416666679084301 552:0.0416666679084301 553:0.0416666679084301 596:0.0416666679084301 601:0.0416666679084301 602:0.0416666679084301 603:0.0416666679084301 604:0.0416666679084301 605:0.0416666679084301
13.409088381127193 1:0.0 2:0.03999999910593033 3:0.03999999910593033 4:0.0 5:0.0 6:0.03999999910593033 7:0.03999999910593033 8:0.0 12:0.03999999910593033 44:0.03999999910593033 50:0.03999999910593033 52:0.03999999910593033 65:0.03999999910593033 66:0.03999999910593033 71:0.03999999910593033 93:0.03999999910593033 103:0.03999999910593033 109:0.03999999910593033 120:0.03999999910593033 128:0.03999999910593033 130:0.03999999910593033 278:0.03999999910593033 341:0.03999999910593033 549:0.03999999910593033 656:0.03999999910593033 717:0.03999999910593033 730:0.03999999910593033 731:0.03999999910593033 732:0.03999999910593033
-12.565158838122477 1:0.0 2:0.0714285746216774 3:0.0 4:0.0714285746216774 5:0.0714285746216774 6:0.0714285746216774 7:0.0714285746216774 8:0.0 47:0.0714285746216774 50:0.0714285746216774 53:0.0714285746216774 66:0.0714285746216774 67:0.0714285746216774 92:0.0714285746216774 103:0.0714285746216774 127:0.0714285746216774 487:0.0714285746216774
-13.409088381127193 1:0.0 2:0.05000000074505806 3:0.05000000074505806 4:0.05000000074505806 5:0.05000000074505806 6:0.05000000074505806 7:0.05000000074505806 8:0.0 23:0.05000000074505806 52:0.05000000074505806 67:0.05000000074505806 71:0.05000000074505806 279:0.05000000074505806 338:0.05000000074505806 798:0.05000000074505806 1108:0.05000000074505806 1120:0.05000000074505806 1121:0.05000000074505806 1122:0.05000000074505806 1123:0.05000000074505806 1124:0.05000000074505806 1125:0.05000000074505806
-13.409088381127193 1:0.0 2:0.0714285746216774 3:0.0714285746216774 4:0.0714285746216774 5:0.0 6:0.0714285746216774 7:0.0 8:0.0 27:0.0714285746216774 44:0.0714285746216774 47:0.0714285746216774 71:0.0714285746216774 103:0.0714285746216774 117:0.0714285746216774 118:0.0714285746216774 119:0.0714285746216774 120:0.0714285746216774 121:0.0714285746216774
13.409088381127193 1:0.0 2:0.03448275849223137 3:0.03448275849223137 4:0.0 5:0.0 6:0.03448275849223137 7:0.03448275849223137 8:0.0 10:0.03448275849223137 27:0.03448275849223137 35:0.03448275849223137 44:0.03448275849223137 52:0.03448275849223137 67:0.03448275849223137 71:0.03448275849223137 90:0.03448275849223137 102:0.03448275849223137 103:0.03448275849223137 108:0.13793103396892548 122:0.03448275849223137 144:0.03448275849223137 162:0.03448275849223137 281:0.03448275849223137 509:0.03448275849223137 586:0.03448275849223137 647:0.03448275849223137 693:0.03448275849223137 704:0.03448275849223137 705:0.03448275849223137 706:0.03448275849223137
13.409088381127193 1:0.0 2:0.03333333507180214 3:0.03333333507180214 4:0.0 5:0.0 6:0.03333333507180214 7:0.03333333507180214 8:0.0 10:0.03333333507180214 12:0.03333333507180214 23:0.03333333507180214 35:0.03333333507180214 44:0.03333333507180214 71:0.03333333507180214 99:0.03333333507180214 108:0.03333333507180214 110:0.03333333507180214 171:0.03333333507180214 190:0.13333334028720856 256:0.03333333507180214 440:0.03333333507180214 497:0.03333333507180214 519:0.03333333507180214 582:0.03333333507180214 776:0.03333333507180214 778:0.03333333507180214 779:0.03333333507180214 780:0.03333333507180214 781:0.03333333507180214 782:0.03333333507180214 783:0.03333333507180214
13.409088381127193 1:0.0 2:0.03125 3:0.03125 4:0.0 5:0.0 6:0.03125 7:0.03125 8:0.0 10:0.125 12:0.03125 27:0.03125 35:0.03125 44:0.03125 54:0.03125 61:0.03125 71:0.03125 103:0.03125 129:0.03125 131:0.03125 141:0.03125 143:0.03125 146:0.03125 152:0.03125 215:0.03125 284:0.03125 296:0.03125 375:0.03125 381:0.03125 411:0.03125 428:0.03125 429:0.03125 430:0.03125 431:0.03125
13.409088381127193 1:0.0 2:0.05263157933950424 3:0.05263157933950424 4:0.05263157933950424 5:0.05263157933950424 6:0.05263157933950424 7:0.05263157933950424 8:0.0 40:0.05263157933950424 50:0.05263157933950424 71:0.05263157933950424 103:0.05263157933950424 106:0.05263157933950424 110:0.05263157933950424 119:0.05263157933950424 156:0.05263157933950424 559:0.05263157933950424 590:0.05263157933950424 701:0.05263157933950424 702:0.05263157933950424 815:0.05263157933950424
10.238520356904392 1:0.0 2:0.03703703731298447 3:0.03703703731298447 4:0.0 5:0.0 6:0.03703703731298447 7:0.03703703731298447 8:0.0 23:0.03703703731298447 35:0.03703703731298447 44:0.03703703731298447 52:0.03703703731298447 71:0.03703703731298447 103:0.03703703731298447 119:0.03703703731298447 127:0.03703703731298447 138:0.03703703731298447 141:0.03703703731298447 256:0.03703703731298447 267:0.03703703731298447 292:0.03703703731298447 296:0.03703703731298447 325:0.03703703731298447 422:0.03703703731298447 1106:0.03703703731298447 1113:0.03703703731298447 1114:0.03703703731298447 1115:0.14814814925193787
13.409088381127193 1:0.0 2:0.0476190485060215 3:0.0476190485060215 4:0.0476190485060215 5:0.0476190485060215 6:0.0476190485060215 7:0.0476190485060215 8:0.0 12:0.0476190485060215 23:0.0476190485060215 35:0.0476190485060215 71:0.0476190485060215 103:0.0476190485060215 129:0.0476190485060215 133:0.0476190485060215 190:0.0476190485060215 266:0.0476190485060215 549:0.0476190485060215 673:0.0476190485060215 674:0.0476190485060215 675:0.0476190485060215 676:0.0476190485060215 677:0.0476190485060215
13.409088381127193 1:0.0476190485060215 2:0.0476190485060215 3:0.0476190485060215 4:0.0476190485060215 5:0.0476190485060215 6:0.0476190485060215 7:0.0476190485060215 8:0.0 10:0.0476190485060215 23:0.0476190485060215 27:0.0476190485060215 52:0.0476190485060215 54:0.0476190485060215 65:0.0476190485060215 71:0.0476190485060215 279:0.0476190485060215 410:0.0476190485060215 427:0.0476190485060215 712:0.0476190485060215 713:0.0476190485060215 714:0.0476190485060215 715:0.0476190485060215
-13.409088381127193 1:0.0 2:0.0476190485060215 3:0.0476190485060215 4:0.0 5:0.0 6:0.0476190485060215 7:0.0476190485060215 8:0.0 27:0.0476190485060215 61:0.0476190485060215 71:0.0476190485060215 104:0.0476190485060215 138:0.0476190485060215 194:0.0476190485060215 325:0.0476190485060215 451:0.0476190485060215 549:0.0476190485060215 555:0.0476190485060215 602:0.0476190485060215 754:0.0476190485060215 755:0.0476190485060215 756:0.0476190485060215 757:0.0476190485060215 758:0.0476190485060215 759:0.0476190485060215
-10.672521171172749 1:0.0 2:0.0625 3:0.0625 4:0.0625 5:0.0625 6:0.0625 7:0.0 8:0.0 23:0.0625 61:0.0625 71:0.0625 143:0.0625 146:0.0625 152:0.0625 254:0.0625 361:0.0625 369:0.0625 370:0.0625 371:0.0625
-2.579820890527851 1:0.0 2:0.0555555559694767 3:0.0555555559694767 4:0.0555555559694767 5:0.0555555559694767 6:0.0555555559694767 7:0.0 8:0.0 23:0.0555555559694767 61:0.0555555559694767 71:0.0555555559694767 143:0.0555555559694767 146:0.0555555559694767 152:0.0555555559694767 361:0.0555555559694767 372:0.2222222238779068 373:0.0555555559694767 374:0.0555555559694767
13.409088381127193 1:0.0 2:0.029411764815449715 3:0.029411764815449715 4:0.0 5:0.0 6:0.029411764815449715 7:0.029411764815449715 8:0.0 23:0.029411764815449715 27:0.029411764815449715 35:0.11764705926179886 44:0.11764705926179886 51:0.029411764815449715 52:0.029411764815449715 71:0.029411764815449715 84:0.029411764815449715 103:0.029411764815449715 117:0.029411764815449715 120:0.029411764815449715 127:0.029411764815449715 131:0.029411764815449715 132:0.029411764815449715 138:0.029411764815449715 161:0.029411764815449715 185:0.029411764815449715 192:0.029411764815449715 256:0.029411764815449715 357:0.029411764815449715 428:0.029411764815449715 468:0.029411764815449715 469:0.029411764815449715 470:0.029411764815449715
10.1124209052224 1:0.0 2:0.05000000074505806 3:0.05000000074505806 4:0.0 5:0.0 6:0.05000000074505806 7:0.05000000074505806 8:0.0 44:0.05000000074505806 52:0.05000000074505806 65:0.05000000074505806 71:0.05000000074505806 90:0.05000000074505806 103:0.05000000074505806 127:0.05000000074505806 270:0.05000000074505806 297:0.05000000074505806 302:0.05000000074505806 378:0.05000000074505806 527:0.05000000074505806 587:0.05000000074505806 804:0.05000000074505806 895:0.05000000074505806 896:0.05000000074505806
11.76156517469266 1:0.0 2:0.043478261679410934 3:0.043478261679410934 4:0.0 5:0.0 6:0.043478261679410934 7:0.043478261679410934 8:0.0 10:0.043478261679410934 44:0.043478261679410934 52:0.17391304671764374 66:0.043478261679410934 71:0.043478261679410934 103:0.043478261679410934 127:0.043478261679410934 138:0.043478261679410934 296:0.043478261679410934 438:0.043478261679410934 537:0.043478261679410934 592:0.043478261679410934 605:0.043478261679410934 627:0.043478261679410934 628:0.043478261679410934 629:0.043478261679410934
13.345367337986737 1:0.0416666679084301 2:0.0416666679084301 3:0.0416666679084301 4:0.0 5:0.0416666679084301 6:0.0416666679084301 7:0.0416666679084301 8:0.0 10:0.0416666679084301 12:0.0416666679084301 27:0.1666666716337204 52:0.0416666679084301 71:0.0416666679084301 87:0.0416666679084301 90:0.0416666679084301 118:0.0416666679084301 138:0.0416666679084301 156:0.0416666679084301 634:0.0416666679084301 658:0.0416666679084301 659:0.0416666679084301 660:0.0416666679084301 661:0.0416666679084301
2.2130153317252548 1:0.0625 2:0.0625 3:0.0625 4:0.0625 5:0.0625 6:0.0625 7:0.0625 8:0.0 12:0.0625 61:0.0625 71:0.0625 108:0.0625 278:0.0625 489:0.0625 685:0.0625 708:0.0625 760:0.0625
-8.147316953489673 1:0.0 2:0.07692307978868484 3:0.07692307978868484 4:0.07692307978868484 5:0.07692307978868484 6:0.07692307978868484 7:0.07692307978868484 8:0.0 12:0.07692307978868484 49:0.07692307978868484 62:0.07692307978868484 109:0.07692307978868484 578:0.07692307978868484 931:0.07692307978868484 932:0.07692307978868484
13.409088381127193 1:0.0 2:0.043478261679410934 3:0.043478261679410934 4:0.043478261679410934 5:0.043478261679410934 6:0.043478261679410934 7:0.043478261679410934 8:0.0 27:0.043478261679410934 71:0.043478261679410934 103:0.17391304671764374 162:0.043478261679410934 186:0.043478261679410934 190:0.043478261679410934 291:0.043478261679410934 304:0.043478261679410934 378:0.043478261679410934 684:0.043478261679410934 685:0.043478261679410934 686:0.043478261679410934 687:0.043478261679410934 688:0.043478261679410934
13.409088381127193 1:0.0 2:0.03703703731298447 3:0.03703703731298447 4:0.0 5:0.0 6:0.03703703731298447 7:0.03703703731298447 8:0.0 10:0.03703703731298447 11:0.03703703731298447 12:0.03703703731298447 14:0.03703703731298447 23:0.03703703731298447 35:0.03703703731298447 44:0.03703703731298447 48:0.03703703731298447 61:0.03703703731298447 71:0.03703703731298447 103:0.14814814925193787 127:0.03703703731298447 131:0.03703703731298447 335:0.03703703731298447 345:0.03703703731298447 346:0.03703703731298447 347:0.03703703731298447 348:0.03703703731298447 349:0.03703703731298447 350:0.03703703731298447
13.409088381127193 1:0.0 2:0.03333333507180214 3:0.03333333507180214 4:0.0 5:0.0 6:0.03333333507180214 7:0.03333333507180214 8:0.0 10:0.03333333507180214 27:0.03333333507180214 44:0.03333333507180214 48:0.03333333507180214 54:0.03333333507180214 65:0.03333333507180214 71:0.03333333507180214 74:0.03333333507180214 103:0.13333334028720856 120:0.03333333507180214 127:0.03333333507180214 131:0.03333333507180214 161:0.03333333507180214 315:0.03333333507180214 321:0.03333333507180214 323:0.03333333507180214 412:0.03333333507180214 427:0.03333333507180214 454:0.03333333507180214 487:0.03333333507180214 488:0.03333333507180214 489:0.03333333507180214 490:0.03333333507180214
2.2800326441715892 1:0.0 2:0.027027027681469917 3:0.027027027681469917 4:0.0 5:0.0 6:0.027027027681469917 7:0.027027027681469917 8:0.0 44:0.027027027681469917 65:0.10810811072587967 71:0.027027027681469917 103:0.10810811072587967 138:0.027027027681469917 266:0.027027027681469917 281:0.027027027681469917 298:0.027027027681469917 586:0.027027027681469917 590:0.027027027681469917 605:0.2432432472705841 615:0.027027027681469917 616:0.027027027681469917 617:0.027027027681469917 618:0.027027027681469917 619:0.027027027681469917 620:0.027027027681469917 621:0.027027027681469917 622:0.027027027681469917
-13.409088381127193 1:0.0 2:0.0555555559694767 3:0.0555555559694767 4:0.0555555559694767 5:0.0 6:0.0555555559694767 7:0.0555555559694767 8:0.0 9:0.0555555559694767 11:0.0555555559694767 44:0.0555555559694767 52:0.0555555559694767 55:0.0555555559694767 61:0.0555555559694767 71:0.0555555559694767 103:0.0555555559694767 122:0.0555555559694767 195:0.0555555559694767 215:0.0555555559694767 406:0.0555555559694767 458:0.0555555559694767
-11.852089940932677 1:0.0 2:0.07692307978868484 3:0.07692307978868484 4:0.07692307978868484 5:0.07692307978868484 6:0.07692307978868484 7:0.0 8:0.0 23:0.07692307978868484 24:0.07692307978868484 52:0.07692307978868484 71:0.07692307978868484 494:0.07692307978868484 550:0.07692307978868484 981:0.07692307978868484 982:0.07692307978868484
-7.937839166781777 1:0.0 2:0.04545454680919647 3:0.04545454680919647 4:0.0 5:0.0 6:0.04545454680919647 7:0.04545454680919647 8:0.0 35:0.04545454680919647 44:0.04545454680919647 51:0.04545454680919647 57:0.04545454680919647 63:0.04545454680919647 104:0.04545454680919647 325:0.04545454680919647 544:0.04545454680919647 920:0.04545454680919647 922:0.04545454680919647 925:0.04545454680919647 954:0.04545454680919647 955:0.04545454680919647 956:0.04545454680919647 957:0.04545454680919647 958:0.04545454680919647 959:0.04545454680919647 960:0.04545454680919647
