SVM-light Version V6.01
0 # kernel type
3 # kernel parameter -d
1.0 # kernel parameter -g
1.0 # kernel parameter -s
0.0 # kernel parameter -r
empty# kernel parameter -u
905 # highest feature index
193 # number of training documents
165 # number of support vectors plus 1
0.2757136282668252 # threshold b, each following line is a SV (starting with alpha*y)
-10.19699448339518 1:0.0 2:0.029411764815449715 3:0.029411764815449715 4:0.0 5:0.0 6:0.029411764815449715 7:0.029411764815449715 8:0.0 9:0.029411764815449715 10:0.11764705926179886 11:0.029411764815449715 12:0.029411764815449715 13:0.029411764815449715 14:0.029411764815449715 15:0.029411764815449715 16:0.029411764815449715 17:0.11764705926179886 18:0.11764705926179886 19:0.029411764815449715 20:0.029411764815449715 21:0.029411764815449715 22:0.029411764815449715 23:0.029411764815449715 24:0.029411764815449715 25:0.029411764815449715 26:0.029411764815449715 27:0.029411764815449715 28:0.029411764815449715 29:0.029411764815449715
-2.5794511034736765 1:0.0 2:0.032258063554763794 3:0.0 4:0.0 5:0.0 6:0.032258063554763794 7:0.032258063554763794 8:0.0 9:0.032258063554763794 10:0.032258063554763794 11:0.032258063554763794 12:0.032258063554763794 13:0.032258063554763794 14:0.12903225421905518 15:0.032258063554763794 23:0.032258063554763794 30:0.032258063554763794 31:0.032258063554763794 32:0.032258063554763794 33:0.032258063554763794 34:0.032258063554763794 35:0.032258063554763794 36:0.032258063554763794 37:0.032258063554763794 38:0.032258063554763794 39:0.032258063554763794 40:0.032258063554763794 41:0.032258063554763794 42:0.032258063554763794 43:0.032258063554763794 44:0.032258063554763794 45:0.032258063554763794 46:0.032258063554763794
2.001672376103694 1:0.0 2:0.03448275849223137 3:0.03448275849223137 4:0.03448275849223137 5:0.03448275849223137 6:0.03448275849223137 7:0.03448275849223137 8:0.0 12:0.3103448152542114 54:0.03448275849223137 65:0.03448275849223137 137:0.03448275849223137 146:0.03448275849223137 449:0.03448275849223137 626:0.03448275849223137 683:0.03448275849223137 684:0.03448275849223137 685:0.03448275849223137 686:0.13793103396892548 687:0.03448275849223137
-3.200242289000901 1:0.0 2:0.012195121496915817 3:0.012195121496915817 4:0.0 5:0.0 6:0.012195121496915817 7:0.012195121496915817 8:0.0 27:0.012195121496915817 37:0.4390243887901306 41:0.012195121496915817 42:0.012195121496915817 45:0.10975609719753265 47:0.012195121496915817 49:0.012195121496915817 58:0.012195121496915817 59:0.012195121496915817 65:0.012195121496915817 66:0.012195121496915817 67:0.012195121496915817 68:0.012195121496915817 69:0.012195121496915817 70:0.012195121496915817 71:0.012195121496915817 72:0.04878048598766327 73:0.012195121496915817 74:0.012195121496915817 75:0.012195121496915817 76:0.012195121496915817 77:0.012195121496915817 78:0.012195121496915817 79:0.012195121496915817 80:0.012195121496915817 81:0.012195121496915817 82:0.012195121496915817 83:0.012195121496915817 84:0.012195121496915817 85:0.012195121496915817 86:0.012195121496915817 87:0.012195121496915817
-13.450292345544417 1:0.0 2:0.03333333507180214 3:0.03333333507180214 4:0.0 5:0.0 6:0.03333333507180214 7:0.03333333507180214 8:0.0 37:0.03333333507180214 40:0.03333333507180214 42:0.03333333507180214 44:0.03333333507180214 58:0.03333333507180214 65:0.03333333507180214 71:0.03333333507180214 72:0.13333334028720856 80:0.03333333507180214 88:0.03333333507180214 89:0.03333333507180214 90:0.03333333507180214 91:0.03333333507180214 92:0.03333333507180214 93:0.03333333507180214 94:0.03333333507180214 95:0.03333333507180214 96:0.03333333507180214 97:0.13333334028720856 98:0.03333333507180214
13.450292345544417 1:0.0 2:0.010869565419852734 3:0.010869565419852734 4:0.0 5:0.0 6:0.010869565419852734 7:0.010869565419852734 8:0.0 10:0.09782608598470688 11:0.010869565419852734 37:0.17391304671764374 40:0.010869565419852734 44:0.010869565419852734 45:0.010869565419852734 58:0.010869565419852734 61:0.010869565419852734 65:0.010869565419852734 67:0.010869565419852734 72:0.010869565419852734 88:0.010869565419852734 91:0.010869565419852734 94:0.010869565419852734 97:0.17391304671764374 100:0.010869565419852734 102:0.010869565419852734 109:0.010869565419852734 116:0.010869565419852734 121:0.010869565419852734 122:0.010869565419852734 124:0.010869565419852734 125:0.043478261679410934 126:0.010869565419852734 127:0.010869565419852734 128:0.010869565419852734 129:0.010869565419852734 130:0.010869565419852734 131:0.010869565419852734 132:0.010869565419852734 133:0.010869565419852734 134:0.010869565419852734 135:0.010869565419852734 136:0.010869565419852734 137:0.010869565419852734 138:0.010869565419852734 139:0.010869565419852734 140:0.010869565419852734 141:0.010869565419852734 142:0.010869565419852734 143:0.010869565419852734 144:0.010869565419852734 145:0.010869565419852734 146:0.010869565419852734 147:0.010869565419852734 148:0.010869565419852734 149:0.010869565419852734
13.450292345544417 1:0.09090909361839294 2:0.09090909361839294 3:0.09090909361839294 4:0.09090909361839294 5:0.0 6:0.09090909361839294 7:0.0 8:0.0 37:0.09090909361839294 65:0.09090909361839294 102:0.09090909361839294 123:0.09090909361839294 192:0.09090909361839294 193:0.09090909361839294
13.450292345544417 1:0.0 2:0.02857142873108387 3:0.02857142873108387 4:0.0 5:0.0 6:0.02857142873108387 7:0.02857142873108387 8:0.0 15:0.02857142873108387 37:0.02857142873108387 42:0.02857142873108387 43:0.02857142873108387 44:0.02857142873108387 45:0.11428571492433548 58:0.02857142873108387 65:0.02857142873108387 88:0.02857142873108387 97:0.11428571492433548 114:0.02857142873108387 132:0.02857142873108387 135:0.02857142873108387 136:0.02857142873108387 159:0.02857142873108387 161:0.02857142873108387 190:0.02857142873108387 194:0.02857142873108387 195:0.02857142873108387 196:0.02857142873108387 197:0.02857142873108387 198:0.02857142873108387 199:0.02857142873108387 200:0.02857142873108387 201:0.02857142873108387
-4.553562960738332 1:0.0 2:0.0555555559694767 3:0.0555555559694767 4:0.0555555559694767 5:0.0555555559694767 6:0.0555555559694767 7:0.0 8:0.0 44:0.0555555559694767 61:0.0555555559694767 287:0.0555555559694767 354:0.0555555559694767 396:0.0555555559694767 433:0.0555555559694767 483:0.0555555559694767 490:0.0555555559694767 856:0.0555555559694767 857:0.0555555559694767 858:0.0555555559694767 859:0.0555555559694767 860:0.0555555559694767
13.450292345544417 1:0.0357142873108387 2:0.0357142873108387 3:0.0357142873108387 4:0.0 5:0.0 6:0.0357142873108387 7:0.0357142873108387 8:0.0 12:0.0357142873108387 14:0.0357142873108387 37:0.0357142873108387 44:0.0357142873108387 45:0.0357142873108387 54:0.0357142873108387 65:0.0357142873108387 84:0.0357142873108387 94:0.0357142873108387 97:0.0357142873108387 155:0.0357142873108387 167:0.0357142873108387 185:0.0357142873108387 190:0.0357142873108387 260:0.0357142873108387 261:0.0357142873108387 262:0.0357142873108387 263:0.0357142873108387 264:0.0357142873108387 265:0.0357142873108387 266:0.0357142873108387 267:0.0357142873108387 268:0.0357142873108387
-13.450292345544417 1:0.0 2:0.0625 3:0.0 4:0.0625 5:0.0625 6:0.0625 7:0.0 8:0.0 46:0.0625 54:0.0625 97:0.25 102:0.0625 113:0.0625 116:0.0625 118:0.0625 119:0.0625 120:0.0625
-13.450292345544417 1:0.0 2:0.02777777798473835 3:0.02777777798473835 4:0.0 5:0.0 6:0.02777777798473835 7:0.02777777798473835 8:0.0 10:0.02777777798473835 12:0.1111111119389534 37:0.02777777798473835 44:0.02777777798473835 45:0.02777777798473835 60:0.02777777798473835 61:0.02777777798473835 65:0.02777777798473835 84:0.02777777798473835 93:0.02777777798473835 97:0.1111111119389534 131:0.02777777798473835 134:0.02777777798473835 138:0.02777777798473835 186:0.02777777798473835 373:0.02777777798473835 460:0.02777777798473835 461:0.02777777798473835 499:0.02777777798473835 619:0.02777777798473835 624:0.02777777798473835 625:0.02777777798473835 626:0.02777777798473835 627:0.02777777798473835 628:0.02777777798473835 629:0.02777777798473835
-13.450292345544417 1:0.0714285746216774 2:0.0714285746216774 3:0.0714285746216774 4:0.0714285746216774 5:0.0714285746216774 6:0.0714285746216774 7:0.0714285746216774 8:0.0 12:0.0714285746216774 65:0.0714285746216774 191:0.0714285746216774 243:0.0714285746216774 287:0.0714285746216774 897:0.0714285746216774 898:0.0714285746216774
-3.342601970632071 1:0.0 2:0.09090909361839294 3:0.09090909361839294 4:0.09090909361839294 5:0.09090909361839294 6:0.09090909361839294 7:0.0 8:0.0 65:0.09090909361839294 785:0.09090909361839294 786:0.09090909361839294 787:0.09090909361839294 788:0.09090909361839294 789:0.09090909361839294
-13.450292345544417 1:0.0 2:0.03846153989434242 3:0.03846153989434242 4:0.0 5:0.0 6:0.03846153989434242 7:0.0 8:0.0 12:0.1538461595773697 27:0.1538461595773697 61:0.03846153989434242 65:0.03846153989434242 98:0.03846153989434242 131:0.03846153989434242 186:0.03846153989434242 318:0.03846153989434242 405:0.03846153989434242 505:0.03846153989434242 506:0.03846153989434242 551:0.03846153989434242 625:0.03846153989434242 626:0.03846153989434242 628:0.03846153989434242 668:0.03846153989434242 757:0.03846153989434242
13.450292345544417 1:0.0 2:0.016949152573943138 3:0.016949152573943138 4:0.0 5:0.0 6:0.016949152573943138 7:0.016949152573943138 8:0.0 10:0.1525423675775528 12:0.016949152573943138 29:0.016949152573943138 33:0.016949152573943138 37:0.2711864411830902 47:0.016949152573943138 65:0.016949152573943138 88:0.016949152573943138 97:0.016949152573943138 121:0.016949152573943138 123:0.016949152573943138 125:0.016949152573943138 137:0.016949152573943138 146:0.016949152573943138 210:0.016949152573943138 274:0.016949152573943138 291:0.016949152573943138 296:0.016949152573943138 343:0.016949152573943138 344:0.016949152573943138 345:0.016949152573943138 346:0.016949152573943138 347:0.016949152573943138 348:0.016949152573943138 349:0.016949152573943138 350:0.016949152573943138 351:0.016949152573943138 352:0.016949152573943138 353:0.016949152573943138 354:0.016949152573943138 355:0.016949152573943138 356:0.016949152573943138
13.450292345544417 1:0.01075268816202879 2:0.01075268816202879 3:0.01075268816202879 4:0.0 5:0.0 6:0.01075268816202879 7:0.01075268816202879 8:0.0 12:0.01075268816202879 23:0.01075268816202879 27:0.09677419066429138 37:0.2688172161579132 43:0.09677419066429138 45:0.04301075264811516 48:0.01075268816202879 54:0.01075268816202879 65:0.01075268816202879 94:0.04301075264811516 98:0.01075268816202879 122:0.01075268816202879 163:0.04301075264811516 221:0.04301075264811516 241:0.01075268816202879 284:0.01075268816202879 310:0.09677419066429138 384:0.01075268816202879 389:0.04301075264811516 410:0.04301075264811516 438:0.01075268816202879 465:0.01075268816202879
13.450292345544417 1:0.0 2:0.004672897048294544 3:0.004672897048294544 4:0.0 5:0.0 6:0.004672897048294544 7:0.004672897048294544 8:0.0 9:0.04205607622861862 10:0.07476635277271271 12:0.004672897048294544 23:0.004672897048294544 37:0.004672897048294544 44:0.1682243049144745 45:0.004672897048294544 48:0.004672897048294544 60:0.004672897048294544 61:0.004672897048294544 65:0.004672897048294544 78:0.004672897048294544 86:0.04205607622861862 97:0.018691588193178177 98:0.11682242900133133 113:0.004672897048294544 114:0.018691588193178177 115:0.004672897048294544 125:0.004672897048294544 132:0.004672897048294544 155:0.004672897048294544 287:0.004672897048294544 296:0.004672897048294544 301:0.018691588193178177 312:0.018691588193178177 318:0.004672897048294544 320:0.018691588193178177 337:0.1682243049144745 341:0.004672897048294544 365:0.004672897048294544 378:0.07476635277271271 385:0.004672897048294544 388:0.004672897048294544 389:0.004672897048294544 400:0.004672897048294544 401:0.004672897048294544 402:0.004672897048294544 403:0.004672897048294544 404:0.004672897048294544 405:0.018691588193178177 406:0.004672897048294544 407:0.018691588193178177 408:0.018691588193178177 409:0.004672897048294544 410:0.004672897048294544 411:0.004672897048294544
13.450292345544417 1:0.0 2:0.025641025975346565 3:0.025641025975346565 4:0.0 5:0.0 6:0.025641025975346565 7:0.025641025975346565 8:0.0 37:0.23076923191547394 54:0.10256410390138626 61:0.025641025975346565 65:0.025641025975346565 131:0.10256410390138626 134:0.025641025975346565 163:0.025641025975346565 168:0.025641025975346565 287:0.025641025975346565 526:0.10256410390138626 538:0.025641025975346565 629:0.025641025975346565 674:0.025641025975346565 709:0.025641025975346565 710:0.025641025975346565 711:0.025641025975346565 712:0.025641025975346565 713:0.025641025975346565
-6.210641401961832 1:0.0 2:0.018518518656492233 3:0.018518518656492233 4:0.0 5:0.0 6:0.018518518656492233 7:0.018518518656492233 8:0.0 37:0.46296295523643494 54:0.018518518656492233 65:0.018518518656492233 137:0.018518518656492233 146:0.018518518656492233 155:0.018518518656492233 208:0.018518518656492233 212:0.018518518656492233 220:0.018518518656492233 227:0.018518518656492233 230:0.018518518656492233 248:0.018518518656492233 249:0.018518518656492233 250:0.07407407462596893 251:0.018518518656492233 252:0.018518518656492233 253:0.018518518656492233 254:0.018518518656492233 255:0.018518518656492233 256:0.018518518656492233 257:0.018518518656492233 258:0.018518518656492233 259:0.018518518656492233
-13.450292345544417 1:0.0181818176060915 2:0.0181818176060915 3:0.0181818176060915 4:0.0 5:0.0 6:0.0181818176060915 7:0.0181818176060915 8:0.0 37:0.4545454680919647 54:0.0181818176060915 65:0.0181818176060915 137:0.0181818176060915 140:0.0181818176060915 146:0.0181818176060915 190:0.0181818176060915 208:0.0181818176060915 211:0.072727270424366 220:0.0181818176060915 233:0.072727270424366 241:0.0181818176060915 243:0.0181818176060915 244:0.0181818176060915 245:0.0181818176060915 246:0.0181818176060915 247:0.072727270424366
-8.834262954453324 1:0.0 2:0.027027027681469917 3:0.027027027681469917 4:0.0 5:0.0 6:0.027027027681469917 7:0.027027027681469917 8:0.0 37:0.4324324429035187 54:0.027027027681469917 65:0.027027027681469917 147:0.027027027681469917 206:0.027027027681469917 207:0.027027027681469917 220:0.027027027681469917 226:0.027027027681469917 227:0.027027027681469917 228:0.10810811072587967 229:0.027027027681469917 230:0.027027027681469917 231:0.027027027681469917 232:0.027027027681469917 233:0.027027027681469917
-9.601571143073711 1:0.0 2:0.03999999910593033 3:0.03999999910593033 4:0.03999999910593033 5:0.0 6:0.0 7:0.03999999910593033 8:0.0 37:0.36000001430511475 65:0.03999999910593033 94:0.03999999910593033 203:0.03999999910593033 220:0.03999999910593033 221:0.1599999964237213 222:0.03999999910593033 223:0.03999999910593033 224:0.03999999910593033 225:0.03999999910593033
13.450292345544417 1:0.0 2:0.0625 3:0.0625 4:0.0625 5:0.0625 6:0.0625 7:0.0625 8:0.0 23:0.0625 58:0.0625 61:0.0625 65:0.0625 72:0.0625 111:0.0625 441:0.0625 536:0.0625 539:0.0625 706:0.0625
13.450292345544417 1:0.0 2:0.06666667014360428 3:0.06666667014360428 4:0.06666667014360428 5:0.06666667014360428 6:0.06666667014360428 7:0.06666667014360428 8:0.0 45:0.06666667014360428 65:0.06666667014360428 97:0.06666667014360428 179:0.06666667014360428 184:0.06666667014360428 186:0.06666667014360428 460:0.06666667014360428 461:0.06666667014360428 619:0.06666667014360428
13.450292345544417 1:0.0 2:0.10000000149011612 3:0.10000000149011612 4:0.10000000149011612 5:0.10000000149011612 6:0.10000000149011612 7:0.0 8:0.0 65:0.10000000149011612 68:0.10000000149011612 100:0.10000000149011612 383:0.10000000149011612 429:0.10000000149011612
13.450292345544417 1:0.0 2:0.0714285746216774 3:0.0714285746216774 4:0.0714285746216774 5:0.0714285746216774 6:0.0714285746216774 7:0.0714285746216774 8:0.0 61:0.0714285746216774 65:0.0714285746216774 84:0.0714285746216774 96:0.0714285746216774 102:0.0714285746216774 116:0.0714285746216774 741:0.0714285746216774 742:0.0714285746216774
13.450292345544417 1:0.06666667014360428 2:0.06666667014360428 3:0.06666667014360428 4:0.06666667014360428 5:0.06666667014360428 6:0.06666667014360428 7:0.06666667014360428 8:0.0 12:0.06666667014360428 65:0.06666667014360428 186:0.06666667014360428 211:0.06666667014360428 261:0.06666667014360428 441:0.06666667014360428 625:0.06666667014360428 626:0.06666667014360428
-13.450292345544417 1:0.0833333358168602 2:0.0833333358168602 3:0.0833333358168602 4:0.0833333358168602 5:0.0833333358168602 6:0.0 7:0.0833333358168602 8:0.0 44:0.0833333358168602 45:0.0833333358168602 65:0.0833333358168602 100:0.0833333358168602 635:0.0833333358168602 636:0.0833333358168602
-13.450292345544417 1:0.0 2:0.0476190485060215 3:0.0476190485060215 4:0.0476190485060215 5:0.0476190485060215 6:0.0476190485060215 7:0.0476190485060215 8:0.0 12:0.0476190485060215 44:0.190476194024086 45:0.0476190485060215 65:0.0476190485060215 167:0.0476190485060215 189:0.0476190485060215 419:0.0476190485060215 617:0.0476190485060215 628:0.0476190485060215 736:0.0476190485060215 821:0.0476190485060215 871:0.0476190485060215
-0.27629694762832635 1:0.0 2:0.09090909361839294 3:0.09090909361839294 4:0.09090909361839294 5:0.09090909361839294 6:0.09090909361839294 7:0.0 8:0.0 44:0.09090909361839294 45:0.09090909361839294 65:0.09090909361839294 354:0.09090909361839294 433:0.09090909361839294 818:0.09090909361839294
-11.652116585550862 1:0.0 2:0.0625 3:0.0625 4:0.0625 5:0.0625 6:0.0625 7:0.0 8:0.0 23:0.0625 54:0.0625 65:0.0625 137:0.0625 140:0.0625 146:0.0625 249:0.0625 336:0.0625 337:0.0625 338:0.0625 339:0.0625
-3.1764020027534134 1:0.0 2:0.0555555559694767 3:0.0555555559694767 4:0.0555555559694767 5:0.0555555559694767 6:0.0555555559694767 7:0.0 8:0.0 23:0.0555555559694767 54:0.0555555559694767 65:0.0555555559694767 137:0.0555555559694767 140:0.0555555559694767 146:0.0555555559694767 337:0.0555555559694767 340:0.2222222238779068 341:0.0555555559694767 342:0.0555555559694767
13.450292345544417 1:0.0 2:0.020408162847161293 3:0.020408162847161293 4:0.0 5:0.0 6:0.020408162847161293 7:0.020408162847161293 8:0.0 10:0.020408162847161293 23:0.020408162847161293 37:0.3265306055545807 50:0.020408162847161293 54:0.020408162847161293 58:0.020408162847161293 61:0.020408162847161293 65:0.020408162847161293 88:0.020408162847161293 97:0.020408162847161293 180:0.08163265138864517 574:0.020408162847161293 575:0.020408162847161293 576:0.020408162847161293 577:0.020408162847161293 578:0.020408162847161293 579:0.020408162847161293 580:0.020408162847161293 581:0.020408162847161293 582:0.020408162847161293 583:0.020408162847161293 584:0.020408162847161293 585:0.020408162847161293 586:0.020408162847161293 587:0.020408162847161293 588:0.020408162847161293 589:0.020408162847161293
13.450292345544417 1:0.0 2:0.03030303120613098 3:0.03030303120613098 4:0.0 5:0.0 6:0.03030303120613098 7:0.03030303120613098 8:0.0 12:0.12121212482452393 27:0.03030303120613098 37:0.27272728085517883 61:0.03030303120613098 65:0.03030303120613098 132:0.03030303120613098 378:0.03030303120613098 472:0.03030303120613098 526:0.03030303120613098 625:0.03030303120613098 660:0.03030303120613098 727:0.03030303120613098 737:0.03030303120613098 767:0.03030303120613098 768:0.03030303120613098 769:0.03030303120613098 770:0.03030303120613098 771:0.03030303120613098
13.450292345544417 1:0.0 2:0.06666667014360428 3:0.06666667014360428 4:0.06666667014360428 5:0.0 6:0.06666667014360428 7:0.0 8:0.0 37:0.2666666805744171 65:0.06666667014360428 78:0.06666667014360428 274:0.06666667014360428 351:0.06666667014360428 385:0.06666667014360428 455:0.06666667014360428 456:0.06666667014360428
13.450292345544417 1:0.0 2:0.07692307978868484 3:0.07692307978868484 4:0.07692307978868484 5:0.07692307978868484 6:0.07692307978868484 7:0.07692307978868484 8:0.0 44:0.07692307978868484 65:0.07692307978868484 140:0.07692307978868484 882:0.07692307978868484 884:0.07692307978868484 885:0.07692307978868484 886:0.07692307978868484
13.450292345544417 1:0.0625 2:0.0625 3:0.0625 4:0.0625 5:0.0625 6:0.0625 7:0.0625 8:0.0 12:0.0625 45:0.0625 65:0.0625 126:0.0625 499:0.0625 736:0.0625 738:0.0625 739:0.0625 740:0.0625
13.450292345544417 1:0.0 2:0.043478261679410934 3:0.043478261679410934 4:0.043478261679410934 5:0.043478261679410934 6:0.043478261679410934 7:0.043478261679410934 8:0.0 27:0.043478261679410934 44:0.043478261679410934 45:0.17391304671764374 58:0.043478261679410934 65:0.043478261679410934 78:0.043478261679410934 97:0.043478261679410934 184:0.043478261679410934 186:0.043478261679410934 370:0.043478261679410934 460:0.043478261679410934 461:0.043478261679410934 619:0.043478261679410934 620:0.043478261679410934
-13.450292345544417 1:0.0 2:0.027027027681469917 3:0.027027027681469917 4:0.0 5:0.027027027681469917 6:0.027027027681469917 7:0.027027027681469917 8:0.0 10:0.2432432472705841 47:0.027027027681469917 54:0.027027027681469917 65:0.027027027681469917 72:0.027027027681469917 97:0.10810811072587967 102:0.027027027681469917 121:0.027027027681469917 125:0.10810811072587967 131:0.027027027681469917 179:0.027027027681469917 274:0.027027027681469917 349:0.027027027681469917 382:0.027027027681469917 435:0.027027027681469917 536:0.027027027681469917 539:0.027027027681469917 732:0.027027027681469917
-13.450292345544417 1:0.0 2:0.0476190485060215 3:0.0476190485060215 4:0.0476190485060215 5:0.0476190485060215 6:0.0476190485060215 7:0.0476190485060215 8:0.0 10:0.190476194024086 65:0.0476190485060215 68:0.0476190485060215 72:0.0476190485060215 78:0.0476190485060215 91:0.0476190485060215 102:0.0476190485060215 134:0.0476190485060215 274:0.0476190485060215 346:0.0476190485060215 428:0.0476190485060215 429:0.0476190485060215
-13.450292345544417 1:0.05882352963089943 2:0.05882352963089943 3:0.05882352963089943 4:0.05882352963089943 5:0.05882352963089943 6:0.05882352963089943 7:0.05882352963089943 8:0.0 10:0.05882352963089943 27:0.05882352963089943 61:0.05882352963089943 65:0.05882352963089943 97:0.05882352963089943 123:0.05882352963089943 129:0.05882352963089943 668:0.05882352963089943 681:0.05882352963089943 784:0.05882352963089943
-13.450292345544417 1:0.0 2:0.020408162847161293 3:0.020408162847161293 4:0.0 5:0.0 6:0.020408162847161293 7:0.020408162847161293 8:0.0 10:0.020408162847161293 37:0.020408162847161293 43:0.020408162847161293 47:0.020408162847161293 48:0.020408162847161293 54:0.020408162847161293 61:0.08163265138864517 65:0.020408162847161293 70:0.020408162847161293 78:0.020408162847161293 84:0.020408162847161293 86:0.08163265138864517 97:0.08163265138864517 121:0.020408162847161293 122:0.020408162847161293 132:0.020408162847161293 137:0.020408162847161293 146:0.020408162847161293 161:0.020408162847161293 184:0.020408162847161293 262:0.020408162847161293 301:0.020408162847161293 310:0.18367347121238708 389:0.020408162847161293 461:0.020408162847161293 462:0.020408162847161293 463:0.020408162847161293 464:0.020408162847161293
-3.2155276323078184 1:0.0 2:0.07692307978868484 3:0.07692307978868484 4:0.07692307978868484 5:0.0 6:0.0 7:0.07692307978868484 8:0.0 29:0.07692307978868484 37:0.07692307978868484 50:0.07692307978868484 319:0.07692307978868484 337:0.07692307978868484 376:0.07692307978868484 377:0.07692307978868484 381:0.07692307978868484 382:0.07692307978868484
13.450292345544417 1:0.0 2:0.032258063554763794 3:0.032258063554763794 4:0.0 5:0.0 6:0.032258063554763794 7:0.032258063554763794 8:0.0 23:0.29032257199287415 37:0.032258063554763794 43:0.032258063554763794 54:0.032258063554763794 65:0.032258063554763794 97:0.032258063554763794 121:0.032258063554763794 239:0.032258063554763794 242:0.032258063554763794 284:0.12903225421905518 285:0.032258063554763794 286:0.032258063554763794 287:0.032258063554763794 288:0.032258063554763794 289:0.032258063554763794 290:0.032258063554763794
-13.450292345544417 1:0.0 2:0.02500000037252903 3:0.02500000037252903 4:0.0 5:0.0 6:0.02500000037252903 7:0.02500000037252903 8:0.0 14:0.02500000037252903 37:0.22499999403953552 45:0.10000000149011612 54:0.10000000149011612 61:0.02500000037252903 65:0.02500000037252903 84:0.02500000037252903 85:0.02500000037252903 88:0.02500000037252903 115:0.02500000037252903 132:0.02500000037252903 163:0.02500000037252903 218:0.02500000037252903 286:0.02500000037252903 309:0.02500000037252903 410:0.02500000037252903 443:0.02500000037252903 444:0.02500000037252903 445:0.02500000037252903 446:0.02500000037252903 447:0.02500000037252903 448:0.02500000037252903
13.450292345544417 1:0.0416666679084301 2:0.0416666679084301 3:0.0416666679084301 4:0.0416666679084301 5:0.0416666679084301 6:0.0416666679084301 7:0.0416666679084301 8:0.0 10:0.0416666679084301 40:0.0416666679084301 43:0.0416666679084301 65:0.0416666679084301 97:0.1666666716337204 113:0.1666666716337204 138:0.0416666679084301 382:0.0416666679084301 495:0.0416666679084301 637:0.0416666679084301 638:0.0416666679084301
9.95810161353473 1:0.0 2:0.043478261679410934 3:0.043478261679410934 4:0.043478261679410934 5:0.043478261679410934 6:0.043478261679410934 7:0.043478261679410934 8:0.0 27:0.043478261679410934 65:0.043478261679410934 97:0.17391304671764374 156:0.043478261679410934 180:0.043478261679410934 184:0.043478261679410934 286:0.043478261679410934 298:0.043478261679410934 346:0.043478261679410934 610:0.043478261679410934 611:0.043478261679410934 612:0.043478261679410934 613:0.043478261679410934 614:0.043478261679410934
13.450292345544417 1:0.0 2:0.0555555559694767 3:0.0555555559694767 4:0.0555555559694767 5:0.0555555559694767 6:0.0555555559694767 7:0.0555555559694767 8:0.0 10:0.0555555559694767 61:0.0555555559694767 65:0.0555555559694767 100:0.0555555559694767 188:0.0555555559694767 298:0.0555555559694767 472:0.0555555559694767 599:0.0555555559694767 600:0.0555555559694767 601:0.0555555559694767 602:0.0555555559694767 603:0.0555555559694767
13.450292345544417 1:0.0555555559694767 2:0.0555555559694767 3:0.0555555559694767 4:0.0555555559694767 5:0.0555555559694767 6:0.0555555559694767 7:0.0555555559694767 8:0.0 61:0.0555555559694767 65:0.0555555559694767 97:0.0555555559694767 149:0.0555555559694767 419:0.0555555559694767 537:0.0555555559694767 697:0.0555555559694767 734:0.0555555559694767 736:0.0555555559694767 738:0.0555555559694767 739:0.0555555559694767
13.450292345544417 1:0.022727273404598236 2:0.022727273404598236 3:0.022727273404598236 4:0.0 5:0.022727273404598236 6:0.022727273404598236 7:0.022727273404598236 8:0.0 12:0.022727273404598236 14:0.022727273404598236 27:0.09090909361839294 44:0.022727273404598236 45:0.022727273404598236 61:0.022727273404598236 65:0.022727273404598236 84:0.022727273404598236 112:0.022727273404598236 116:0.09090909361839294 123:0.022727273404598236 132:0.022727273404598236 134:0.022727273404598236 137:0.022727273404598236 146:0.022727273404598236 147:0.022727273404598236 191:0.09090909361839294 217:0.022727273404598236 310:0.022727273404598236 312:0.09090909361839294 314:0.022727273404598236 315:0.022727273404598236 316:0.022727273404598236 317:0.022727273404598236 318:0.022727273404598236 319:0.022727273404598236
-13.450292345544417 1:0.0 2:0.0714285746216774 3:0.0714285746216774 4:0.0714285746216774 5:0.0714285746216774 6:0.0714285746216774 7:0.0714285746216774 8:0.0 23:0.0714285746216774 61:0.0714285746216774 65:0.0714285746216774 152:0.0714285746216774 188:0.0714285746216774 550:0.0714285746216774 594:0.0714285746216774 595:0.0714285746216774
-13.450292345544417 1:0.0 2:0.02222222276031971 3:0.02222222276031971 4:0.0 5:0.02222222276031971 6:0.02222222276031971 7:0.02222222276031971 8:0.0 23:0.02222222276031971 27:0.08888889104127884 54:0.02222222276031971 57:0.02222222276031971 58:0.02222222276031971 65:0.02222222276031971 72:0.02222222276031971 97:0.08888889104127884 114:0.08888889104127884 125:0.02222222276031971 138:0.02222222276031971 150:0.02222222276031971 217:0.08888889104127884 221:0.02222222276031971 239:0.02222222276031971 241:0.02222222276031971 284:0.02222222276031971 312:0.20000000298023224 459:0.02222222276031971 460:0.02222222276031971
-13.450292345544417 1:0.0 2:0.0625 3:0.0625 4:0.0625 5:0.0 6:0.0625 7:0.0625 8:0.0 10:0.0625 12:0.0625 65:0.0625 98:0.0625 405:0.0625 498:0.0625 866:0.0625 867:0.0625 868:0.0625 869:0.0625 870:0.0625
-13.450292345544417 1:0.0 2:0.02500000037252903 3:0.02500000037252903 4:0.0 5:0.0 6:0.02500000037252903 7:0.02500000037252903 8:0.0 12:0.10000000149011612 45:0.02500000037252903 50:0.02500000037252903 59:0.02500000037252903 65:0.02500000037252903 97:0.02500000037252903 103:0.02500000037252903 116:0.02500000037252903 132:0.02500000037252903 137:0.02500000037252903 146:0.02500000037252903 180:0.10000000149011612 454:0.02500000037252903 490:0.02500000037252903 495:0.02500000037252903 498:0.02500000037252903 499:0.22499999403953552 872:0.02500000037252903 873:0.02500000037252903 874:0.02500000037252903 875:0.02500000037252903 876:0.02500000037252903
13.450292345544417 1:0.0 2:0.03333333507180214 3:0.03333333507180214 4:0.0 5:0.0 6:0.03333333507180214 7:0.03333333507180214 8:0.0 12:0.03333333507180214 37:0.13333334028720856 43:0.03333333507180214 47:0.13333334028720856 59:0.03333333507180214 61:0.03333333507180214 65:0.03333333507180214 84:0.03333333507180214 97:0.03333333507180214 125:0.03333333507180214 178:0.03333333507180214 179:0.03333333507180214 210:0.03333333507180214 294:0.03333333507180214 295:0.13333334028720856 296:0.03333333507180214 297:0.03333333507180214
13.450292345544417 1:0.02380952425301075 2:0.02380952425301075 3:0.02380952425301075 4:0.0 5:0.0 6:0.02380952425301075 7:0.02380952425301075 8:0.0 12:0.02380952425301075 15:0.02380952425301075 37:0.095238097012043 43:0.02380952425301075 44:0.02380952425301075 45:0.02380952425301075 47:0.02380952425301075 54:0.095238097012043 61:0.02380952425301075 65:0.02380952425301075 97:0.095238097012043 121:0.02380952425301075 159:0.02380952425301075 184:0.02380952425301075 188:0.02380952425301075 201:0.02380952425301075 210:0.02380952425301075 220:0.02380952425301075 277:0.02380952425301075 278:0.02380952425301075 279:0.02380952425301075 280:0.02380952425301075 281:0.095238097012043 282:0.02380952425301075 283:0.02380952425301075
1.3377790654622068 1:0.0 2:0.0416666679084301 3:0.0416666679084301 4:0.0 5:0.0 6:0.0416666679084301 7:0.0416666679084301 8:0.0 12:0.0416666679084301 23:0.0416666679084301 37:0.0416666679084301 65:0.0416666679084301 88:0.0416666679084301 97:0.1666666716337204 121:0.0416666679084301 122:0.0416666679084301 125:0.0416666679084301 134:0.0416666679084301 136:0.0416666679084301 141:0.0416666679084301 185:0.0416666679084301 287:0.0416666679084301 331:0.0416666679084301 881:0.0416666679084301 882:0.0416666679084301
1.7667109926613778 1:0.0 2:0.03030303120613098 3:0.03030303120613098 4:0.0 5:0.0 6:0.03030303120613098 7:0.03030303120613098 8:0.0 10:0.03030303120613098 12:0.03030303120613098 23:0.03030303120613098 37:0.03030303120613098 45:0.03030303120613098 65:0.03030303120613098 78:0.03030303120613098 91:0.12121212482452393 97:0.12121212482452393 105:0.03030303120613098 121:0.03030303120613098 130:0.12121212482452393 272:0.03030303120613098 301:0.03030303120613098 312:0.03030303120613098 333:0.03030303120613098 334:0.03030303120613098 378:0.03030303120613098 412:0.03030303120613098 413:0.03030303120613098
13.450292345544417 1:0.0 2:0.023255813866853714 3:0.023255813866853714 4:0.0 5:0.0 6:0.023255813866853714 7:0.023255813866853714 8:0.0 10:0.20930232107639313 12:0.09302325546741486 37:0.09302325546741486 45:0.023255813866853714 47:0.023255813866853714 54:0.023255813866853714 59:0.023255813866853714 65:0.023255813866853714 83:0.023255813866853714 91:0.023255813866853714 97:0.023255813866853714 116:0.023255813866853714 119:0.023255813866853714 121:0.023255813866853714 183:0.023255813866853714 384:0.023255813866853714 495:0.023255813866853714 498:0.023255813866853714 499:0.023255813866853714 526:0.023255813866853714 583:0.023255813866853714 664:0.023255813866853714 665:0.023255813866853714 666:0.023255813866853714 667:0.023255813866853714
-2.7923901243494615 1:0.014705882407724857 2:0.014705882407724857 3:0.014705882407724857 4:0.0 5:0.0 6:0.014705882407724857 7:0.014705882407724857 8:0.0 20:0.014705882407724857 37:0.529411792755127 54:0.014705882407724857 65:0.014705882407724857 137:0.014705882407724857 146:0.014705882407724857 209:0.05882352963089943 233:0.014705882407724857 234:0.014705882407724857 235:0.014705882407724857 236:0.014705882407724857 237:0.014705882407724857 238:0.13235294818878174 239:0.014705882407724857 240:0.014705882407724857 241:0.014705882407724857 242:0.014705882407724857
-13.450292345544417 1:0.0 2:0.027027027681469917 3:0.027027027681469917 4:0.0 5:0.0 6:0.027027027681469917 7:0.027027027681469917 8:0.0 37:0.2432432472705841 43:0.027027027681469917 45:0.027027027681469917 53:0.027027027681469917 54:0.027027027681469917 60:0.027027027681469917 65:0.027027027681469917 86:0.027027027681469917 88:0.027027027681469917 97:0.10810811072587967 121:0.027027027681469917 158:0.027027027681469917 159:0.027027027681469917 160:0.027027027681469917 161:0.027027027681469917 162:0.027027027681469917 163:0.027027027681469917 164:0.027027027681469917 165:0.027027027681469917 166:0.027027027681469917 167:0.027027027681469917 168:0.027027027681469917
-13.450292345544417 1:0.0 2:0.019999999552965164 3:0.019999999552965164 4:0.0 5:0.0 6:0.019999999552965164 7:0.019999999552965164 8:0.0 10:0.07999999821186066 12:0.019999999552965164 23:0.07999999821186066 37:0.019999999552965164 45:0.019999999552965164 54:0.019999999552965164 60:0.019999999552965164 65:0.019999999552965164 97:0.18000000715255737 102:0.019999999552965164 104:0.019999999552965164 119:0.019999999552965164 165:0.019999999552965164 181:0.019999999552965164 184:0.07999999821186066 298:0.019999999552965164 461:0.019999999552965164 472:0.019999999552965164 509:0.019999999552965164 526:0.019999999552965164 530:0.019999999552965164 537:0.019999999552965164 571:0.019999999552965164 626:0.019999999552965164 675:0.019999999552965164 676:0.019999999552965164 677:0.019999999552965164 678:0.019999999552965164 679:0.019999999552965164
13.450292345544417 1:0.06666667014360428 2:0.06666667014360428 3:0.06666667014360428 4:0.06666667014360428 5:0.06666667014360428 6:0.06666667014360428 7:0.06666667014360428 8:0.0 12:0.06666667014360428 65:0.06666667014360428 499:0.06666667014360428 697:0.06666667014360428 734:0.06666667014360428 740:0.06666667014360428 743:0.06666667014360428 744:0.06666667014360428
13.450292345544417 1:0.03846153989434242 2:0.03846153989434242 3:0.03846153989434242 4:0.0 5:0.03846153989434242 6:0.03846153989434242 7:0.03846153989434242 8:0.0 27:0.1538461595773697 45:0.1538461595773697 65:0.03846153989434242 78:0.03846153989434242 86:0.03846153989434242 100:0.03846153989434242 132:0.03846153989434242 180:0.03846153989434242 218:0.03846153989434242 298:0.03846153989434242 619:0.03846153989434242 636:0.03846153989434242 656:0.03846153989434242 657:0.03846153989434242
-13.450292345544417 1:0.0 2:0.0476190485060215 3:0.0476190485060215 4:0.0476190485060215 5:0.0476190485060215 6:0.0476190485060215 7:0.0476190485060215 8:0.0 27:0.0476190485060215 45:0.190476194024086 54:0.0476190485060215 65:0.0476190485060215 97:0.0476190485060215 126:0.0476190485060215 184:0.0476190485060215 270:0.0476190485060215 346:0.0476190485060215 393:0.0476190485060215 654:0.0476190485060215 714:0.0476190485060215
-6.583953380479189 1:0.0 2:0.07692307978868484 3:0.07692307978868484 4:0.07692307978868484 5:0.07692307978868484 6:0.07692307978868484 7:0.0 8:0.0 23:0.07692307978868484 24:0.07692307978868484 45:0.07692307978868484 65:0.07692307978868484 446:0.07692307978868484 496:0.07692307978868484 864:0.07692307978868484 865:0.07692307978868484
13.450292345544417 1:0.0 2:0.03333333507180214 3:0.03333333507180214 4:0.0 5:0.0 6:0.03333333507180214 7:0.03333333507180214 8:0.0 10:0.03333333507180214 27:0.03333333507180214 37:0.03333333507180214 41:0.03333333507180214 47:0.03333333507180214 58:0.03333333507180214 65:0.03333333507180214 68:0.03333333507180214 97:0.13333334028720856 114:0.03333333507180214 121:0.03333333507180214 125:0.03333333507180214 155:0.03333333507180214 312:0.03333333507180214 314:0.03333333507180214 316:0.03333333507180214 371:0.03333333507180214 382:0.03333333507180214 410:0.03333333507180214 439:0.03333333507180214 440:0.03333333507180214 441:0.03333333507180214 442:0.03333333507180214
3.4598789562852748 1:0.0 2:0.03999999910593033 3:0.03999999910593033 4:0.0 5:0.0 6:0.03999999910593033 7:0.03999999910593033 8:0.0 37:0.03999999910593033 54:0.03999999910593033 59:0.03999999910593033 61:0.03999999910593033 65:0.03999999910593033 83:0.03999999910593033 88:0.03999999910593033 97:0.1599999964237213 131:0.1599999964237213 149:0.03999999910593033 472:0.03999999910593033 681:0.03999999910593033 761:0.03999999910593033 765:0.03999999910593033 766:0.03999999910593033
5.239231816180805 1:0.0 2:0.023255813866853714 3:0.023255813866853714 4:0.0 5:0.0 6:0.023255813866853714 7:0.023255813866853714 8:0.0 37:0.023255813866853714 43:0.023255813866853714 45:0.09302325546741486 50:0.09302325546741486 59:0.09302325546741486 60:0.023255813866853714 65:0.023255813866853714 78:0.023255813866853714 84:0.023255813866853714 93:0.023255813866853714 97:0.20930232107639313 102:0.023255813866853714 125:0.023255813866853714 325:0.023255813866853714 388:0.023255813866853714 419:0.023255813866853714 495:0.023255813866853714 723:0.023255813866853714 724:0.023255813866853714 725:0.023255813866853714 726:0.023255813866853714 727:0.023255813866853714
13.450292345544417 1:0.0 2:0.03703703731298447 3:0.03703703731298447 4:0.0 5:0.0 6:0.03703703731298447 7:0.03703703731298447 8:0.0 10:0.03703703731298447 11:0.03703703731298447 12:0.03703703731298447 14:0.03703703731298447 23:0.03703703731298447 37:0.03703703731298447 41:0.03703703731298447 54:0.03703703731298447 61:0.03703703731298447 65:0.03703703731298447 97:0.14814814925193787 121:0.03703703731298447 125:0.03703703731298447 322:0.03703703731298447 330:0.03703703731298447 331:0.03703703731298447 332:0.03703703731298447 333:0.03703703731298447 334:0.03703703731298447 335:0.03703703731298447
-13.450292345544417 1:0.0 2:0.0357142873108387 3:0.0357142873108387 4:0.0 5:0.0 6:0.0357142873108387 7:0.0357142873108387 8:0.0 37:0.0357142873108387 61:0.0357142873108387 65:0.0357142873108387 88:0.0357142873108387 94:0.0357142873108387 97:0.1428571492433548 116:0.0357142873108387 125:0.0357142873108387 155:0.0357142873108387 161:0.0357142873108387 168:0.0357142873108387 268:0.0357142873108387 291:0.0357142873108387 297:0.0357142873108387 325:0.0357142873108387 450:0.0357142873108387 466:0.0357142873108387 467:0.0357142873108387 468:0.0357142873108387 469:0.0357142873108387 470:0.0357142873108387
-13.450292345544417 1:0.0 2:0.029411764815449715 3:0.029411764815449715 4:0.0 5:0.0 6:0.029411764815449715 7:0.029411764815449715 8:0.0 10:0.029411764815449715 37:0.029411764815449715 40:0.029411764815449715 43:0.11764705926179886 44:0.029411764815449715 45:0.029411764815449715 48:0.029411764815449715 59:0.029411764815449715 65:0.029411764815449715 88:0.029411764815449715 93:0.029411764815449715 97:0.11764705926179886 103:0.029411764815449715 113:0.029411764815449715 126:0.029411764815449715 131:0.029411764815449715 269:0.029411764815449715 270:0.029411764815449715 271:0.029411764815449715 272:0.029411764815449715 273:0.029411764815449715 274:0.029411764815449715 275:0.029411764815449715 276:0.029411764815449715
-13.450292345544417 1:0.0 2:0.032258063554763794 3:0.032258063554763794 4:0.0 5:0.0 6:0.032258063554763794 7:0.032258063554763794 8:0.0 10:0.032258063554763794 12:0.12903225421905518 14:0.032258063554763794 37:0.12903225421905518 45:0.032258063554763794 65:0.032258063554763794 97:0.032258063554763794 105:0.032258063554763794 116:0.032258063554763794 122:0.032258063554763794 125:0.032258063554763794 127:0.032258063554763794 185:0.032258063554763794 190:0.032258063554763794 202:0.032258063554763794 297:0.032258063554763794 350:0.032258063554763794 385:0.032258063554763794 466:0.032258063554763794 472:0.032258063554763794 473:0.032258063554763794
13.450292345544417 1:0.0 2:0.0476190485060215 3:0.0476190485060215 4:0.0 5:0.0 6:0.0476190485060215 7:0.0476190485060215 8:0.0 37:0.0476190485060215 42:0.0476190485060215 45:0.0476190485060215 65:0.0476190485060215 104:0.0476190485060215 114:0.0476190485060215 132:0.0476190485060215 155:0.0476190485060215 161:0.0476190485060215 198:0.0476190485060215 301:0.0476190485060215 308:0.0476190485060215 309:0.0476190485060215 310:0.0476190485060215 311:0.0476190485060215 312:0.0476190485060215 313:0.0476190485060215
13.450292345544417 1:0.0 2:0.09090909361839294 3:0.09090909361839294 4:0.09090909361839294 5:0.0 6:0.09090909361839294 7:0.0 8:0.0 37:0.09090909361839294 65:0.09090909361839294 77:0.09090909361839294 104:0.09090909361839294 136:0.09090909361839294 632:0.09090909361839294 883:0.09090909361839294
-13.450292345544417 1:0.0 2:0.09090909361839294 3:0.09090909361839294 4:0.09090909361839294 5:0.0 6:0.09090909361839294 7:0.0 8:0.0 29:0.09090909361839294 37:0.09090909361839294 102:0.09090909361839294 114:0.09090909361839294 121:0.09090909361839294 122:0.09090909361839294 123:0.09090909361839294
-12.674265893139943 1:0.0 2:0.1111111119389534 3:0.1111111119389534 4:0.1111111119389534 5:0.0 6:0.1111111119389534 7:0.0 8:0.0 37:0.1111111119389534 61:0.1111111119389534 65:0.1111111119389534 111:0.1111111119389534 765:0.1111111119389534
-13.450292345544417 1:0.043478261679410934 2:0.043478261679410934 3:0.043478261679410934 4:0.043478261679410934 5:0.0 6:0.043478261679410934 7:0.043478261679410934 8:0.0 37:0.043478261679410934 44:0.043478261679410934 61:0.17391304671764374 65:0.043478261679410934 93:0.043478261679410934 115:0.043478261679410934 123:0.043478261679410934 506:0.043478261679410934 681:0.043478261679410934 756:0.043478261679410934 762:0.043478261679410934 763:0.043478261679410934 772:0.043478261679410934 773:0.043478261679410934
-3.1407693651320976 1:0.0 2:0.05882352963089943 3:0.05882352963089943 4:0.05882352963089943 5:0.0 6:0.05882352963089943 7:0.0 8:0.0 23:0.05882352963089943 37:0.05882352963089943 50:0.05882352963089943 65:0.05882352963089943 396:0.05882352963089943 807:0.05882352963089943 809:0.05882352963089943 844:0.05882352963089943 845:0.05882352963089943 846:0.05882352963089943 847:0.05882352963089943 848:0.05882352963089943 849:0.05882352963089943
6.671412313390828 1:0.05263157933950424 2:0.05263157933950424 3:0.05263157933950424 4:0.05263157933950424 5:0.0 6:0.05263157933950424 7:0.05263157933950424 8:0.0 61:0.05263157933950424 65:0.05263157933950424 84:0.05263157933950424 97:0.05263157933950424 265:0.05263157933950424 536:0.05263157933950424 681:0.05263157933950424 736:0.05263157933950424 755:0.05263157933950424 762:0.05263157933950424 763:0.05263157933950424 782:0.05263157933950424 783:0.05263157933950424
10.868880662430422 1:0.0 2:0.03846153989434242 3:0.03846153989434242 4:0.0 5:0.03846153989434242 6:0.03846153989434242 7:0.03846153989434242 8:0.0 10:0.03846153989434242 12:0.1538461595773697 27:0.03846153989434242 61:0.03846153989434242 65:0.03846153989434242 97:0.03846153989434242 116:0.03846153989434242 119:0.03846153989434242 184:0.03846153989434242 378:0.03846153989434242 498:0.1538461595773697 499:0.03846153989434242 626:0.03846153989434242 694:0.03846153989434242 695:0.03846153989434242
7.5441324288320155 1:0.03448275849223137 2:0.03448275849223137 3:0.03448275849223137 4:0.0 5:0.03448275849223137 6:0.03448275849223137 7:0.03448275849223137 8:0.0 12:0.03448275849223137 45:0.03448275849223137 54:0.13793103396892548 65:0.03448275849223137 78:0.03448275849223137 97:0.03448275849223137 122:0.03448275849223137 137:0.03448275849223137 146:0.03448275849223137 155:0.03448275849223137 184:0.13793103396892548 210:0.03448275849223137 260:0.03448275849223137 262:0.03448275849223137 291:0.03448275849223137 292:0.03448275849223137 293:0.03448275849223137
11.084931770709048 1:0.0 2:0.02631578966975212 3:0.02631578966975212 4:0.0 5:0.0 6:0.02631578966975212 7:0.02631578966975212 8:0.0 12:0.02631578966975212 37:0.02631578966975212 45:0.02631578966975212 54:0.02631578966975212 58:0.02631578966975212 65:0.02631578966975212 84:0.10526315867900848 97:0.10526315867900848 102:0.02631578966975212 113:0.02631578966975212 121:0.02631578966975212 138:0.02631578966975212 148:0.02631578966975212 224:0.02631578966975212 382:0.02631578966975212 419:0.02631578966975212 461:0.02631578966975212 495:0.02631578966975212 499:0.10526315867900848 536:0.02631578966975212 539:0.02631578966975212 753:0.02631578966975212 754:0.02631578966975212 755:0.02631578966975212 756:0.02631578966975212
13.450292345544417 1:0.0 2:0.0625 3:0.0625 4:0.0625 5:0.0 6:0.0625 7:0.0625 8:0.0 10:0.0625 12:0.0625 37:0.0625 65:0.0625 163:0.0625 336:0.0625 384:0.0625 469:0.0625 470:0.0625 555:0.0625 655:0.0625
-13.450292345544417 1:0.0 2:0.025641025975346565 3:0.025641025975346565 4:0.0 5:0.0 6:0.025641025975346565 7:0.025641025975346565 8:0.0 12:0.10256410390138626 27:0.025641025975346565 37:0.10256410390138626 45:0.10256410390138626 65:0.025641025975346565 96:0.025641025975346565 97:0.025641025975346565 132:0.025641025975346565 164:0.025641025975346565 184:0.025641025975346565 186:0.025641025975346565 286:0.025641025975346565 287:0.10256410390138626 393:0.025641025975346565 639:0.025641025975346565 640:0.025641025975346565 641:0.025641025975346565 642:0.025641025975346565 643:0.025641025975346565 644:0.025641025975346565 645:0.025641025975346565 646:0.025641025975346565 647:0.025641025975346565
-13.450292345544417 1:0.0044843051582574844 2:0.0044843051582574844 3:0.0044843051582574844 4:0.0 5:0.0 6:0.0044843051582574844 7:0.0044843051582574844 8:0.0 9:0.0044843051582574844 10:0.017937220633029938 12:0.07174888253211975 27:0.07174888253211975 33:0.0044843051582574844 37:0.04035874456167221 40:0.0044843051582574844 45:0.04035874456167221 48:0.0044843051582574844 54:0.04035874456167221 61:0.017937220633029938 65:0.0044843051582574844 72:0.0044843051582574844 84:0.017937220633029938 102:0.0044843051582574844 112:0.0044843051582574844 127:0.0044843051582574844 156:0.017937220633029938 167:0.0044843051582574844 189:0.017937220633029938 329:0.0044843051582574844 433:0.04035874456167221 470:0.11210761964321136 474:0.0044843051582574844 475:0.0044843051582574844 476:0.0044843051582574844 477:0.0044843051582574844 478:0.0044843051582574844 479:0.0044843051582574844 480:0.0044843051582574844 481:0.0044843051582574844 482:0.0044843051582574844 483:0.0044843051582574844 484:0.0044843051582574844 485:0.0044843051582574844 486:0.0044843051582574844 487:0.0044843051582574844 488:0.0044843051582574844 489:0.0044843051582574844 490:0.0044843051582574844 491:0.07174888253211975 492:0.0044843051582574844 493:0.0044843051582574844 494:0.0044843051582574844 495:0.07174888253211975 496:0.017937220633029938 497:0.0044843051582574844 498:0.0044843051582574844 499:0.0044843051582574844 500:0.0044843051582574844 501:0.0044843051582574844 502:0.0044843051582574844 503:0.0044843051582574844 504:0.017937220633029938 505:0.0044843051582574844 506:0.0044843051582574844 507:0.0044843051582574844 508:0.017937220633029938 509:0.0044843051582574844 510:0.0044843051582574844 511:0.0044843051582574844 512:0.0044843051582574844 513:0.0044843051582574844 514:0.0044843051582574844 515:0.0044843051582574844 516:0.0044843051582574844 517:0.0044843051582574844 518:0.0044843051582574844 519:0.0044843051582574844 520:0.0044843051582574844 521:0.0044843051582574844 522:0.0044843051582574844 523:0.0044843051582574844 524:0.0044843051582574844 525:0.0044843051582574844 526:0.0044843051582574844 527:0.0044843051582574844 528:0.0044843051582574844
-13.450292345544417 1:0.0 2:0.03999999910593033 3:0.0 4:0.0 5:0.03999999910593033 6:0.03999999910593033 7:0.03999999910593033 8:0.0 45:0.03999999910593033 46:0.03999999910593033 47:0.03999999910593033 84:0.1599999964237213 86:0.03999999910593033 88:0.03999999910593033 97:0.03999999910593033 126:0.03999999910593033 153:0.03999999910593033 161:0.03999999910593033 175:0.03999999910593033 176:0.03999999910593033 177:0.03999999910593033 178:0.03999999910593033 179:0.03999999910593033 180:0.03999999910593033 181:0.03999999910593033 182:0.03999999910593033
-13.450292345544417 1:0.0 2:0.043478261679410934 3:0.043478261679410934 4:0.0 5:0.043478261679410934 6:0.043478261679410934 7:0.043478261679410934 8:0.0 10:0.043478261679410934 42:0.043478261679410934 48:0.043478261679410934 54:0.043478261679410934 65:0.043478261679410934 97:0.17391304671764374 115:0.043478261679410934 125:0.043478261679410934 202:0.043478261679410934 371:0.043478261679410934 498:0.043478261679410934 571:0.043478261679410934 665:0.043478261679410934 903:0.043478261679410934 904:0.043478261679410934
13.450292345544417 1:0.0 2:0.06666667014360428 3:0.06666667014360428 4:0.06666667014360428 5:0.0 6:0.06666667014360428 7:0.06666667014360428 8:0.0 37:0.06666667014360428 61:0.06666667014360428 65:0.06666667014360428 115:0.06666667014360428 681:0.06666667014360428 761:0.06666667014360428 762:0.06666667014360428 763:0.06666667014360428 776:0.06666667014360428 777:0.06666667014360428
-11.510493761473338 1:0.0 2:0.0625 3:0.0625 4:0.0625 5:0.0625 6:0.0625 7:0.0625 8:0.0 58:0.0625 65:0.0625 72:0.0625 84:0.0625 161:0.0625 183:0.0625 269:0.0625 438:0.0625 457:0.0625 458:0.0625
13.450292345544417 1:0.0 2:0.0416666679084301 3:0.0416666679084301 4:0.0 5:0.0 6:0.0416666679084301 7:0.0416666679084301 8:0.0 27:0.1666666716337204 37:0.0416666679084301 44:0.0416666679084301 48:0.0416666679084301 50:0.0416666679084301 61:0.1666666716337204 65:0.0416666679084301 186:0.0416666679084301 433:0.0416666679084301 489:0.0416666679084301 512:0.0416666679084301 658:0.0416666679084301 659:0.0416666679084301 660:0.0416666679084301
-13.450292345544417 1:0.0 2:0.0476190485060215 3:0.0476190485060215 4:0.0476190485060215 5:0.0476190485060215 6:0.0476190485060215 7:0.0476190485060215 8:0.0 14:0.0476190485060215 61:0.190476194024086 65:0.0476190485060215 78:0.0476190485060215 84:0.0476190485060215 97:0.0476190485060215 115:0.0476190485060215 125:0.0476190485060215 127:0.0476190485060215 279:0.0476190485060215 382:0.0476190485060215 471:0.0476190485060215
-11.390611450943672 1:0.0 2:0.05000000074505806 3:0.0 4:0.05000000074505806 5:0.05000000074505806 6:0.05000000074505806 7:0.05000000074505806 8:0.0 27:0.20000000298023224 40:0.05000000074505806 46:0.05000000074505806 61:0.20000000298023224 72:0.05000000074505806 291:0.05000000074505806 315:0.05000000074505806 321:0.05000000074505806 357:0.05000000074505806
-13.450292345544417 1:0.0 2:0.0416666679084301 3:0.0416666679084301 4:0.0 5:0.0 6:0.0416666679084301 7:0.0416666679084301 8:0.0 27:0.1666666716337204 61:0.0416666679084301 65:0.0416666679084301 84:0.0416666679084301 98:0.0416666679084301 127:0.0416666679084301 318:0.0416666679084301 396:0.0416666679084301 408:0.0416666679084301 500:0.0416666679084301 501:0.0416666679084301 545:0.0416666679084301 550:0.0416666679084301 551:0.0416666679084301 552:0.0416666679084301 553:0.0416666679084301 554:0.0416666679084301
-13.450292345544417 1:0.0 2:0.0476190485060215 3:0.0476190485060215 4:0.0476190485060215 5:0.0 6:0.0476190485060215 7:0.0476190485060215 8:0.0 12:0.0476190485060215 14:0.0476190485060215 37:0.0476190485060215 61:0.0476190485060215 65:0.0476190485060215 78:0.0476190485060215 99:0.0476190485060215 116:0.190476194024086 170:0.0476190485060215 171:0.0476190485060215 172:0.0476190485060215 173:0.0476190485060215 174:0.0476190485060215
-13.450292345544417 1:0.0 2:0.043478261679410934 3:0.043478261679410934 4:0.0 5:0.0 6:0.043478261679410934 7:0.043478261679410934 8:0.0 11:0.043478261679410934 48:0.043478261679410934 54:0.043478261679410934 61:0.043478261679410934 65:0.043478261679410934 84:0.043478261679410934 116:0.043478261679410934 137:0.043478261679410934 146:0.043478261679410934 317:0.043478261679410934 330:0.043478261679410934 337:0.043478261679410934 361:0.043478261679410934 363:0.043478261679410934 364:0.043478261679410934 365:0.043478261679410934 366:0.043478261679410934 367:0.043478261679410934 368:0.043478261679410934
13.450292345544417 1:0.0 2:0.021276595070958138 3:0.021276595070958138 4:0.0 5:0.0 6:0.021276595070958138 7:0.021276595070958138 8:0.0 10:0.021276595070958138 12:0.021276595070958138 23:0.021276595070958138 27:0.021276595070958138 29:0.021276595070958138 37:0.08510638028383255 43:0.08510638028383255 45:0.08510638028383255 54:0.021276595070958138 59:0.08510638028383255 61:0.021276595070958138 78:0.021276595070958138 93:0.021276595070958138 97:0.08510638028383255 121:0.021276595070958138 125:0.021276595070958138 129:0.021276595070958138 132:0.021276595070958138 134:0.021276595070958138 461:0.021276595070958138 526:0.021276595070958138 530:0.021276595070958138 619:0.08510638028383255 630:0.021276595070958138 631:0.021276595070958138
13.450292345544417 1:0.05263157933950424 2:0.05263157933950424 3:0.05263157933950424 4:0.05263157933950424 5:0.05263157933950424 6:0.05263157933950424 7:0.05263157933950424 8:0.0 9:0.05263157933950424 65:0.05263157933950424 85:0.05263157933950424 86:0.05263157933950424 88:0.05263157933950424 97:0.05263157933950424 131:0.05263157933950424 320:0.05263157933950424 536:0.05263157933950424 539:0.05263157933950424 607:0.05263157933950424 654:0.05263157933950424
13.450292345544417 1:0.0 2:0.03703703731298447 3:0.03703703731298447 4:0.0 5:0.0 6:0.03703703731298447 7:0.03703703731298447 8:0.0 27:0.03703703731298447 36:0.03703703731298447 37:0.03703703731298447 43:0.03703703731298447 44:0.03703703731298447 45:0.03703703731298447 65:0.03703703731298447 72:0.03703703731298447 88:0.03703703731298447 97:0.14814814925193787 102:0.03703703731298447 104:0.03703703731298447 106:0.03703703731298447 121:0.03703703731298447 153:0.03703703731298447 274:0.03703703731298447 276:0.03703703731298447 307:0.03703703731298447 328:0.03703703731298447 329:0.03703703731298447
-13.450292345544417 1:0.0 2:0.0555555559694767 3:0.0555555559694767 4:0.0555555559694767 5:0.0 6:0.0555555559694767 7:0.0555555559694767 8:0.0 28:0.0555555559694767 37:0.0555555559694767 43:0.0555555559694767 45:0.0555555559694767 53:0.0555555559694767 58:0.0555555559694767 65:0.0555555559694767 72:0.0555555559694767 88:0.0555555559694767 97:0.0555555559694767 121:0.0555555559694767 156:0.0555555559694767 157:0.0555555559694767
-13.450292345544417 1:0.0 2:0.03999999910593033 3:0.03999999910593033 4:0.0 5:0.03999999910593033 6:0.03999999910593033 7:0.03999999910593033 8:0.0 9:0.03999999910593033 23:0.03999999910593033 65:0.03999999910593033 97:0.03999999910593033 153:0.03999999910593033 177:0.03999999910593033 184:0.03999999910593033 195:0.03999999910593033 269:0.03999999910593033 296:0.03999999910593033 301:0.03999999910593033 313:0.03999999910593033 335:0.03999999910593033 461:0.03999999910593033 495:0.03999999910593033 499:0.03999999910593033 877:0.03999999910593033 878:0.03999999910593033 879:0.03999999910593033 880:0.03999999910593033
-13.450292345544417 1:0.0 2:0.03703703731298447 3:0.03703703731298447 4:0.0 5:0.0 6:0.03703703731298447 7:0.03703703731298447 8:0.0 10:0.03703703731298447 37:0.03703703731298447 54:0.03703703731298447 65:0.03703703731298447 88:0.03703703731298447 97:0.03703703731298447 102:0.03703703731298447 125:0.03703703731298447 188:0.03703703731298447 276:0.03703703731298447 452:0.03703703731298447 526:0.03703703731298447 529:0.03703703731298447 530:0.03703703731298447 531:0.03703703731298447 532:0.03703703731298447 533:0.03703703731298447 534:0.03703703731298447 535:0.03703703731298447 536:0.03703703731298447 537:0.03703703731298447 538:0.03703703731298447 539:0.03703703731298447
13.450292345544417 1:0.0 2:0.0714285746216774 3:0.0714285746216774 4:0.0714285746216774 5:0.0714285746216774 6:0.0714285746216774 7:0.0 8:0.0 12:0.0714285746216774 65:0.0714285746216774 84:0.0714285746216774 134:0.0714285746216774 890:0.0714285746216774 899:0.0714285746216774 900:0.0714285746216774 901:0.0714285746216774 902:0.0714285746216774
3.364207066375428 1:0.05000000074505806 2:0.05000000074505806 3:0.05000000074505806 4:0.05000000074505806 5:0.05000000074505806 6:0.05000000074505806 7:0.05000000074505806 8:0.0 12:0.05000000074505806 61:0.20000000298023224 65:0.05000000074505806 84:0.05000000074505806 132:0.05000000074505806 696:0.05000000074505806 697:0.05000000074505806 698:0.05000000074505806 699:0.05000000074505806 700:0.05000000074505806
13.450292345544417 1:0.0 2:0.03703703731298447 3:0.03703703731298447 4:0.0 5:0.0 6:0.03703703731298447 7:0.03703703731298447 8:0.0 10:0.03703703731298447 33:0.03703703731298447 37:0.03703703731298447 61:0.14814814925193787 65:0.03703703731298447 84:0.03703703731298447 94:0.14814814925193787 121:0.03703703731298447 279:0.03703703731298447 346:0.03703703731298447 461:0.03703703731298447 507:0.03703703731298447 703:0.03703703731298447 705:0.03703703731298447 708:0.03703703731298447 778:0.03703703731298447 779:0.03703703731298447
13.450292345544417 1:0.03448275849223137 2:0.03448275849223137 3:0.03448275849223137 4:0.0 5:0.03448275849223137 6:0.03448275849223137 7:0.03448275849223137 8:0.0 54:0.03448275849223137 61:0.13793103396892548 65:0.03448275849223137 97:0.03448275849223137 113:0.03448275849223137 287:0.13793103396892548 438:0.03448275849223137 446:0.03448275849223137 507:0.03448275849223137 526:0.03448275849223137 668:0.03448275849223137 712:0.03448275849223137 715:0.03448275849223137 716:0.03448275849223137 717:0.03448275849223137 718:0.03448275849223137 719:0.03448275849223137
-13.450292345544417 1:0.0 2:0.0714285746216774 3:0.0714285746216774 4:0.0714285746216774 5:0.0 6:0.0714285746216774 7:0.0714285746216774 8:0.0 10:0.0714285746216774 37:0.0714285746216774 61:0.0714285746216774 65:0.0714285746216774 97:0.0714285746216774 566:0.0714285746216774 567:0.0714285746216774 568:0.0714285746216774 569:0.0714285746216774
5.461655386842848 1:0.0 2:0.027027027681469917 3:0.027027027681469917 4:0.0 5:0.0 6:0.027027027681469917 7:0.027027027681469917 8:0.0 37:0.027027027681469917 58:0.10810811072587967 65:0.027027027681469917 97:0.10810811072587967 132:0.027027027681469917 261:0.027027027681469917 276:0.027027027681469917 292:0.027027027681469917 535:0.027027027681469917 539:0.027027027681469917 554:0.2432432472705841 558:0.027027027681469917 559:0.027027027681469917 560:0.027027027681469917 561:0.027027027681469917 562:0.027027027681469917 563:0.027027027681469917 564:0.027027027681469917 565:0.027027027681469917
13.450292345544417 1:0.0 2:0.0357142873108387 3:0.0357142873108387 4:0.0 5:0.0 6:0.0357142873108387 7:0.0357142873108387 8:0.0 10:0.0357142873108387 12:0.0357142873108387 27:0.0357142873108387 37:0.0357142873108387 61:0.0357142873108387 65:0.0357142873108387 84:0.0357142873108387 97:0.0357142873108387 121:0.0357142873108387 123:0.0357142873108387 125:0.0357142873108387 188:0.0357142873108387 268:0.0357142873108387 310:0.0357142873108387 313:0.0357142873108387 315:0.0357142873108387 317:0.0357142873108387 321:0.0357142873108387 322:0.0357142873108387 323:0.0357142873108387 324:0.0357142873108387 325:0.0357142873108387 326:0.0357142873108387 327:0.0357142873108387
13.450292345544417 1:0.0 2:0.03999999910593033 3:0.03999999910593033 4:0.0 5:0.0 6:0.03999999910593033 7:0.03999999910593033 8:0.0 12:0.03999999910593033 37:0.03999999910593033 44:0.03999999910593033 65:0.03999999910593033 78:0.1599999964237213 88:0.03999999910593033 97:0.03999999910593033 122:0.03999999910593033 262:0.03999999910593033 310:0.03999999910593033 385:0.03999999910593033 472:0.03999999910593033 495:0.03999999910593033 499:0.03999999910593033 615:0.03999999910593033 616:0.03999999910593033 617:0.03999999910593033 618:0.03999999910593033
13.450292345544417 1:0.0416666679084301 2:0.0416666679084301 3:0.0416666679084301 4:0.0 5:0.0416666679084301 6:0.0416666679084301 7:0.0416666679084301 8:0.0 27:0.0416666679084301 29:0.0416666679084301 44:0.0416666679084301 45:0.0416666679084301 54:0.0416666679084301 61:0.0416666679084301 91:0.0416666679084301 100:0.0416666679084301 102:0.0416666679084301 185:0.0416666679084301 209:0.0416666679084301 260:0.0416666679084301 261:0.0416666679084301 273:0.0416666679084301 430:0.0416666679084301 431:0.0416666679084301 432:0.0416666679084301 433:0.0416666679084301
13.450292345544417 1:0.05263157933950424 2:0.05263157933950424 3:0.05263157933950424 4:0.05263157933950424 5:0.0 6:0.05263157933950424 7:0.05263157933950424 8:0.0 10:0.05263157933950424 29:0.05263157933950424 37:0.05263157933950424 58:0.05263157933950424 68:0.05263157933950424 97:0.05263157933950424 104:0.05263157933950424 184:0.05263157933950424 561:0.05263157933950424 570:0.05263157933950424 571:0.05263157933950424 572:0.05263157933950424 573:0.05263157933950424
-13.450292345544417 1:0.0 2:0.043478261679410934 3:0.043478261679410934 4:0.0 5:0.0 6:0.043478261679410934 7:0.043478261679410934 8:0.0 15:0.043478261679410934 37:0.043478261679410934 45:0.043478261679410934 48:0.043478261679410934 58:0.043478261679410934 65:0.043478261679410934 88:0.043478261679410934 97:0.043478261679410934 132:0.043478261679410934 165:0.043478261679410934 190:0.043478261679410934 191:0.043478261679410934 199:0.043478261679410934 213:0.043478261679410934 214:0.043478261679410934 215:0.043478261679410934 216:0.043478261679410934 217:0.043478261679410934 218:0.043478261679410934
-13.450292345544417 1:0.0 2:0.032258063554763794 3:0.032258063554763794 4:0.0 5:0.0 6:0.032258063554763794 7:0.032258063554763794 8:0.0 14:0.032258063554763794 15:0.032258063554763794 27:0.032258063554763794 37:0.032258063554763794 44:0.032258063554763794 45:0.032258063554763794 52:0.032258063554763794 54:0.032258063554763794 61:0.032258063554763794 65:0.032258063554763794 68:0.032258063554763794 72:0.032258063554763794 88:0.032258063554763794 93:0.032258063554763794 97:0.032258063554763794 99:0.032258063554763794 100:0.032258063554763794 101:0.032258063554763794 102:0.032258063554763794 103:0.032258063554763794 104:0.032258063554763794 105:0.032258063554763794 106:0.032258063554763794 107:0.032258063554763794 108:0.032258063554763794 109:0.032258063554763794 110:0.032258063554763794
-13.450292345544417 1:0.0555555559694767 2:0.0555555559694767 3:0.0 4:0.0555555559694767 5:0.0555555559694767 6:0.0555555559694767 7:0.0555555559694767 8:0.0 9:0.0555555559694767 10:0.0555555559694767 12:0.0555555559694767 46:0.0555555559694767 78:0.0555555559694767 88:0.0555555559694767 97:0.0555555559694767 151:0.0555555559694767 152:0.0555555559694767 153:0.0555555559694767 154:0.0555555559694767 155:0.0555555559694767
-13.450292345544417 1:0.0 2:0.05882352963089943 3:0.05882352963089943 4:0.05882352963089943 5:0.05882352963089943 6:0.05882352963089943 7:0.05882352963089943 8:0.0 44:0.05882352963089943 45:0.05882352963089943 65:0.05882352963089943 80:0.05882352963089943 100:0.05882352963089943 113:0.05882352963089943 168:0.05882352963089943 648:0.05882352963089943 661:0.05882352963089943 662:0.05882352963089943 663:0.05882352963089943
13.450292345544417 1:0.0416666679084301 2:0.0416666679084301 3:0.0416666679084301 4:0.0 5:0.0416666679084301 6:0.0416666679084301 7:0.0416666679084301 8:0.0 10:0.0416666679084301 12:0.0416666679084301 27:0.1666666716337204 45:0.0416666679084301 65:0.0416666679084301 81:0.0416666679084301 84:0.0416666679084301 112:0.0416666679084301 132:0.0416666679084301 150:0.0416666679084301 575:0.0416666679084301 595:0.0416666679084301 596:0.0416666679084301 597:0.0416666679084301 598:0.0416666679084301
13.450292345544417 1:0.0 2:0.03125 3:0.03125 4:0.0 5:0.0 6:0.03125 7:0.03125 8:0.0 10:0.125 12:0.03125 27:0.03125 37:0.03125 47:0.03125 54:0.03125 61:0.03125 65:0.03125 97:0.03125 123:0.03125 125:0.03125 135:0.03125 137:0.03125 140:0.03125 146:0.03125 210:0.03125 279:0.03125 343:0.03125 349:0.03125 370:0.03125 383:0.03125 384:0.03125 385:0.03125 386:0.03125 387:0.03125
13.450292345544417 1:0.0476190485060215 2:0.0476190485060215 3:0.0476190485060215 4:0.0476190485060215 5:0.0476190485060215 6:0.0476190485060215 7:0.0476190485060215 8:0.0 10:0.0476190485060215 23:0.0476190485060215 27:0.0476190485060215 45:0.0476190485060215 47:0.0476190485060215 58:0.0476190485060215 65:0.0476190485060215 274:0.0476190485060215 369:0.0476190485060215 382:0.0476190485060215 631:0.0476190485060215 632:0.0476190485060215 633:0.0476190485060215 634:0.0476190485060215
13.450292345544417 1:0.0 2:0.03448275849223137 3:0.03448275849223137 4:0.0 5:0.0 6:0.03448275849223137 7:0.03448275849223137 8:0.0 10:0.03448275849223137 27:0.03448275849223137 37:0.03448275849223137 45:0.03448275849223137 60:0.03448275849223137 61:0.03448275849223137 65:0.03448275849223137 84:0.03448275849223137 96:0.03448275849223137 97:0.03448275849223137 102:0.13793103396892548 116:0.03448275849223137 138:0.03448275849223137 156:0.03448275849223137 276:0.03448275849223137 461:0.03448275849223137 535:0.03448275849223137 588:0.03448275849223137 619:0.03448275849223137 621:0.03448275849223137 622:0.03448275849223137 623:0.03448275849223137
13.450292345544417 1:0.0 2:0.0476190485060215 3:0.0476190485060215 4:0.0476190485060215 5:0.0476190485060215 6:0.0476190485060215 7:0.0476190485060215 8:0.0 12:0.0476190485060215 23:0.0476190485060215 61:0.0476190485060215 65:0.0476190485060215 97:0.0476190485060215 123:0.0476190485060215 127:0.0476190485060215 184:0.0476190485060215 261:0.0476190485060215 495:0.0476190485060215 604:0.0476190485060215 605:0.0476190485060215 606:0.0476190485060215 607:0.0476190485060215 608:0.0476190485060215
-13.450292345544417 1:0.0 2:0.016129031777381897 3:0.016129031777381897 4:0.0 5:0.0 6:0.016129031777381897 7:0.016129031777381897 8:0.0 10:0.25806450843811035 27:0.06451612710952759 37:0.016129031777381897 40:0.06451612710952759 47:0.06451612710952759 54:0.06451612710952759 61:0.016129031777381897 65:0.016129031777381897 72:0.016129031777381897 102:0.016129031777381897 111:0.016129031777381897 123:0.016129031777381897 137:0.016129031777381897 146:0.016129031777381897 149:0.016129031777381897 163:0.016129031777381897 273:0.016129031777381897 407:0.016129031777381897 506:0.016129031777381897 668:0.016129031777381897 681:0.016129031777381897 758:0.016129031777381897 759:0.016129031777381897 760:0.06451612710952759 761:0.016129031777381897 762:0.016129031777381897 763:0.016129031777381897 764:0.016129031777381897
-13.450292345544417 1:0.0 2:0.019607843831181526 3:0.019607843831181526 4:0.0 5:0.0 6:0.019607843831181526 7:0.019607843831181526 8:0.0 10:0.0784313753247261 12:0.019607843831181526 20:0.019607843831181526 21:0.019607843831181526 37:0.0784313753247261 45:0.0784313753247261 59:0.019607843831181526 60:0.019607843831181526 61:0.0784313753247261 65:0.019607843831181526 68:0.019607843831181526 84:0.019607843831181526 102:0.019607843831181526 180:0.0784313753247261 254:0.019607843831181526 269:0.019607843831181526 273:0.019607843831181526 276:0.019607843831181526 454:0.019607843831181526 495:0.019607843831181526 499:0.019607843831181526 535:0.019607843831181526 540:0.019607843831181526 541:0.019607843831181526 542:0.019607843831181526 543:0.019607843831181526 544:0.019607843831181526 545:0.019607843831181526 546:0.019607843831181526 547:0.019607843831181526 548:0.019607843831181526 549:0.019607843831181526
-13.450292345544417 1:0.0 2:0.04545454680919647 3:0.04545454680919647 4:0.0 5:0.04545454680919647 6:0.04545454680919647 7:0.04545454680919647 8:0.0 11:0.04545454680919647 54:0.04545454680919647 61:0.04545454680919647 65:0.04545454680919647 84:0.04545454680919647 137:0.04545454680919647 146:0.04545454680919647 268:0.04545454680919647 317:0.04545454680919647 331:0.04545454680919647 337:0.04545454680919647 358:0.04545454680919647 359:0.04545454680919647 360:0.04545454680919647 361:0.04545454680919647 362:0.04545454680919647 363:0.04545454680919647
-13.450292345544417 1:0.0 2:0.03703703731298447 3:0.03703703731298447 4:0.0 5:0.0 6:0.03703703731298447 7:0.03703703731298447 8:0.0 12:0.03703703731298447 23:0.03703703731298447 37:0.03703703731298447 42:0.03703703731298447 61:0.03703703731298447 65:0.03703703731298447 98:0.03703703731298447 251:0.03703703731298447 281:0.03703703731298447 287:0.03703703731298447 405:0.03703703731298447 804:0.03703703731298447 809:0.03703703731298447 827:0.03703703731298447 828:0.03703703731298447 829:0.03703703731298447 830:0.03703703731298447 831:0.03703703731298447 832:0.03703703731298447 833:0.03703703731298447 834:0.03703703731298447 835:0.03703703731298447 836:0.03703703731298447
-13.450292345544417 1:0.0 2:0.0476190485060215 3:0.0476190485060215 4:0.0 5:0.0 6:0.0476190485060215 7:0.0476190485060215 8:0.0 27:0.0476190485060215 54:0.0476190485060215 65:0.0476190485060215 98:0.0476190485060215 132:0.0476190485060215 188:0.0476190485060215 318:0.0476190485060215 407:0.0476190485060215 495:0.0476190485060215 503:0.0476190485060215 551:0.0476190485060215 668:0.0476190485060215 669:0.0476190485060215 670:0.0476190485060215 671:0.0476190485060215 672:0.0476190485060215 673:0.0476190485060215
13.450292345544417 1:0.0 2:0.0476190485060215 3:0.0476190485060215 4:0.0476190485060215 5:0.0476190485060215 6:0.0476190485060215 7:0.0476190485060215 8:0.0 12:0.0476190485060215 44:0.0476190485060215 45:0.0476190485060215 65:0.0476190485060215 91:0.0476190485060215 97:0.0476190485060215 184:0.0476190485060215 287:0.0476190485060215 352:0.0476190485060215 482:0.0476190485060215 495:0.0476190485060215 554:0.0476190485060215 555:0.0476190485060215 556:0.0476190485060215 557:0.0476190485060215
13.450292345544417 1:0.0 2:0.05263157933950424 3:0.05263157933950424 4:0.05263157933950424 5:0.05263157933950424 6:0.05263157933950424 7:0.05263157933950424 8:0.0 33:0.05263157933950424 43:0.05263157933950424 65:0.05263157933950424 97:0.05263157933950424 100:0.05263157933950424 104:0.05263157933950424 113:0.05263157933950424 150:0.05263157933950424 507:0.05263157933950424 539:0.05263157933950424 720:0.05263157933950424 721:0.05263157933950424 722:0.05263157933950424
13.450292345544417 1:0.0 2:0.0476190485060215 3:0.0476190485060215 4:0.0 5:0.0476190485060215 6:0.0476190485060215 7:0.0476190485060215 8:0.0 12:0.0476190485060215 27:0.0476190485060215 45:0.0476190485060215 54:0.0476190485060215 65:0.0476190485060215 88:0.0476190485060215 91:0.0476190485060215 97:0.0476190485060215 130:0.0476190485060215 140:0.0476190485060215 155:0.0476190485060215 267:0.0476190485060215 337:0.0476190485060215 369:0.0476190485060215 370:0.0476190485060215 371:0.0476190485060215
-13.450292345544417 1:0.0 2:0.10000000149011612 3:0.10000000149011612 4:0.10000000149011612 5:0.10000000149011612 6:0.10000000149011612 7:0.10000000149011612 8:0.0 12:0.10000000149011612 29:0.10000000149011612 495:0.10000000149011612 499:0.10000000149011612
-7.8133304216719015 1:0.0 2:0.10000000149011612 3:0.0 4:0.10000000149011612 5:0.10000000149011612 6:0.10000000149011612 7:0.0 8:0.0 46:0.10000000149011612 97:0.10000000149011612 183:0.10000000149011612 184:0.10000000149011612 185:0.10000000149011612 186:0.10000000149011612
-13.450292345544417 1:0.0 2:0.0625 3:0.0625 4:0.0625 5:0.0625 6:0.0625 7:0.0625 8:0.0 58:0.0625 65:0.0625 70:0.0625 113:0.0625 498:0.0625 537:0.0625 539:0.0625 733:0.0625 734:0.0625 735:0.0625
-12.035291558030796 1:0.0 2:0.0833333358168602 3:0.0833333358168602 4:0.0833333358168602 5:0.0833333358168602 6:0.0833333358168602 7:0.0 8:0.0 65:0.0833333358168602 84:0.0833333358168602 701:0.0833333358168602 702:0.0833333358168602 703:0.0833333358168602 704:0.0833333358168602 705:0.0833333358168602
-11.126487759811313 1:0.0 2:0.06666667014360428 3:0.06666667014360428 4:0.06666667014360428 5:0.06666667014360428 6:0.06666667014360428 7:0.0 8:0.0 12:0.06666667014360428 23:0.06666667014360428 27:0.06666667014360428 42:0.06666667014360428 65:0.06666667014360428 186:0.06666667014360428 462:0.06666667014360428 659:0.06666667014360428 809:0.06666667014360428 826:0.06666667014360428
-13.212278589850257 1:0.0 2:0.0714285746216774 3:0.0714285746216774 4:0.0714285746216774 5:0.0 6:0.0714285746216774 7:0.0 8:0.0 27:0.0714285746216774 37:0.0714285746216774 40:0.0714285746216774 65:0.0714285746216774 97:0.0714285746216774 111:0.0714285746216774 112:0.0714285746216774 113:0.0714285746216774 114:0.0714285746216774 115:0.0714285746216774
-13.450292345544417 1:0.0 2:0.05000000074505806 3:0.05000000074505806 4:0.05000000074505806 5:0.05000000074505806 6:0.05000000074505806 7:0.05000000074505806 8:0.0 23:0.05000000074505806 45:0.05000000074505806 60:0.05000000074505806 65:0.05000000074505806 274:0.05000000074505806 325:0.05000000074505806 703:0.05000000074505806 886:0.05000000074505806 891:0.05000000074505806 892:0.05000000074505806 893:0.05000000074505806 894:0.05000000074505806 895:0.05000000074505806 896:0.05000000074505806
-10.22236116533479 1:0.0 2:0.04545454680919647 3:0.04545454680919647 4:0.04545454680919647 5:0.04545454680919647 6:0.04545454680919647 7:0.0 8:0.0 12:0.04545454680919647 29:0.04545454680919647 44:0.04545454680919647 91:0.04545454680919647 96:0.04545454680919647 392:0.04545454680919647 433:0.1818181872367859 460:0.04545454680919647 819:0.04545454680919647 820:0.04545454680919647 821:0.04545454680919647 822:0.04545454680919647 823:0.04545454680919647 824:0.04545454680919647
-13.450292345544417 1:0.0 2:0.03333333507180214 3:0.03333333507180214 4:0.0 5:0.0 6:0.03333333507180214 7:0.03333333507180214 8:0.0 12:0.03333333507180214 23:0.03333333507180214 24:0.03333333507180214 37:0.03333333507180214 42:0.03333333507180214 44:0.03333333507180214 50:0.03333333507180214 65:0.03333333507180214 111:0.03333333507180214 161:0.03333333507180214 261:0.03333333507180214 315:0.03333333507180214 364:0.03333333507180214 407:0.03333333507180214 659:0.03333333507180214 804:0.03333333507180214 805:0.03333333507180214 806:0.03333333507180214 807:0.03333333507180214 808:0.03333333507180214 809:0.03333333507180214 810:0.03333333507180214 811:0.03333333507180214 812:0.03333333507180214 813:0.03333333507180214 814:0.03333333507180214
13.450292345544417 1:0.0 2:0.02777777798473835 3:0.02777777798473835 4:0.0 5:0.0 6:0.02777777798473835 7:0.02777777798473835 8:0.0 10:0.02777777798473835 27:0.02777777798473835 37:0.02777777798473835 45:0.02777777798473835 61:0.1111111119389534 65:0.02777777798473835 80:0.02777777798473835 84:0.1111111119389534 102:0.1111111119389534 116:0.02777777798473835 121:0.02777777798473835 132:0.02777777798473835 461:0.02777777798473835 645:0.02777777798473835 742:0.02777777798473835 745:0.02777777798473835 746:0.02777777798473835 747:0.02777777798473835 748:0.02777777798473835 749:0.02777777798473835 750:0.02777777798473835 751:0.02777777798473835 752:0.02777777798473835
13.450292345544417 1:0.05882352963089943 2:0.05882352963089943 3:0.05882352963089943 4:0.05882352963089943 5:0.05882352963089943 6:0.05882352963089943 7:0.05882352963089943 8:0.0 10:0.05882352963089943 12:0.05882352963089943 65:0.05882352963089943 177:0.05882352963089943 210:0.05882352963089943 298:0.05882352963089943 299:0.05882352963089943 300:0.05882352963089943 301:0.05882352963089943 302:0.05882352963089943
13.450292345544417 1:0.0 2:0.04545454680919647 3:0.04545454680919647 4:0.04545454680919647 5:0.04545454680919647 6:0.04545454680919647 7:0.04545454680919647 8:0.0 12:0.04545454680919647 54:0.04545454680919647 65:0.04545454680919647 84:0.04545454680919647 91:0.04545454680919647 132:0.04545454680919647 346:0.1818181872367859 498:0.04545454680919647 537:0.04545454680919647 639:0.04545454680919647 678:0.04545454680919647 736:0.04545454680919647 737:0.04545454680919647
13.450292345544417 1:0.0 2:0.03703703731298447 3:0.03703703731298447 4:0.0 5:0.0 6:0.03703703731298447 7:0.03703703731298447 8:0.0 23:0.03703703731298447 37:0.03703703731298447 45:0.03703703731298447 61:0.03703703731298447 65:0.03703703731298447 97:0.03703703731298447 113:0.03703703731298447 121:0.03703703731298447 132:0.03703703731298447 135:0.03703703731298447 251:0.03703703731298447 262:0.03703703731298447 287:0.03703703731298447 318:0.03703703731298447 384:0.03703703731298447 821:0.03703703731298447 887:0.03703703731298447 888:0.03703703731298447 889:0.03703703731298447 890:0.14814814925193787
13.450292345544417 1:0.0 2:0.03999999910593033 3:0.03999999910593033 4:0.0 5:0.0 6:0.03999999910593033 7:0.03999999910593033 8:0.0 10:0.03999999910593033 12:0.03999999910593033 33:0.03999999910593033 37:0.03999999910593033 45:0.03999999910593033 61:0.03999999910593033 65:0.03999999910593033 97:0.03999999910593033 100:0.03999999910593033 121:0.03999999910593033 125:0.03999999910593033 273:0.03999999910593033 498:0.03999999910593033 499:0.03999999910593033 608:0.03999999910593033 648:0.03999999910593033 649:0.03999999910593033 650:0.03999999910593033 651:0.03999999910593033 652:0.03999999910593033 653:0.03999999910593033
13.450292345544417 1:0.0 2:0.03333333507180214 3:0.03333333507180214 4:0.0 5:0.0 6:0.03333333507180214 7:0.03333333507180214 8:0.0 10:0.03333333507180214 12:0.03333333507180214 23:0.03333333507180214 37:0.03333333507180214 61:0.03333333507180214 65:0.03333333507180214 93:0.03333333507180214 102:0.03333333507180214 104:0.03333333507180214 165:0.03333333507180214 184:0.13333334028720856 251:0.03333333507180214 396:0.03333333507180214 449:0.03333333507180214 472:0.03333333507180214 530:0.03333333507180214 686:0.03333333507180214 688:0.03333333507180214 689:0.03333333507180214 690:0.03333333507180214 691:0.03333333507180214 692:0.03333333507180214 693:0.03333333507180214
11.906917946768251 1:0.0625 2:0.0625 3:0.0625 4:0.0625 5:0.0625 6:0.0625 7:0.0625 8:0.0 12:0.0625 54:0.0625 65:0.0625 102:0.0625 273:0.0625 441:0.0625 611:0.0625 626:0.0625 674:0.0625
13.450292345544417 1:0.05000000074505806 2:0.05000000074505806 3:0.05000000074505806 4:0.05000000074505806 5:0.05000000074505806 6:0.05000000074505806 7:0.05000000074505806 8:0.0 12:0.05000000074505806 45:0.05000000074505806 65:0.05000000074505806 97:0.05000000074505806 121:0.05000000074505806 149:0.05000000074505806 272:0.05000000074505806 273:0.05000000074505806 495:0.05000000074505806 499:0.05000000074505806 612:0.05000000074505806 614:0.05000000074505806 648:0.05000000074505806
-13.450292345544417 1:0.0 2:0.0555555559694767 3:0.0555555559694767 4:0.0555555559694767 5:0.0 6:0.0555555559694767 7:0.0555555559694767 8:0.0 9:0.0555555559694767 11:0.0555555559694767 37:0.0555555559694767 45:0.0555555559694767 48:0.0555555559694767 54:0.0555555559694767 65:0.0555555559694767 97:0.0555555559694767 116:0.0555555559694767 190:0.0555555559694767 210:0.0555555559694767 414:0.0555555559694767 415:0.0555555559694767
-12.862618990149699 1:0.0 2:0.0714285746216774 3:0.0 4:0.0714285746216774 5:0.0714285746216774 6:0.0714285746216774 7:0.0714285746216774 8:0.0 40:0.0714285746216774 43:0.0714285746216774 46:0.0714285746216774 59:0.0714285746216774 60:0.0714285746216774 86:0.0714285746216774 97:0.0714285746216774 121:0.0714285746216774 439:0.0714285746216774
-6.484394929552973 1:0.0 2:0.07692307978868484 3:0.07692307978868484 4:0.07692307978868484 5:0.07692307978868484 6:0.07692307978868484 7:0.07692307978868484 8:0.0 12:0.07692307978868484 42:0.07692307978868484 55:0.07692307978868484 103:0.07692307978868484 526:0.07692307978868484 815:0.07692307978868484 816:0.07692307978868484
11.787732051117688 1:0.0 2:0.03999999910593033 3:0.03999999910593033 4:0.0 5:0.0 6:0.03999999910593033 7:0.03999999910593033 8:0.0 10:0.03999999910593033 43:0.03999999910593033 59:0.03999999910593033 60:0.03999999910593033 61:0.03999999910593033 65:0.03999999910593033 68:0.03999999910593033 97:0.03999999910593033 183:0.03999999910593033 220:0.03999999910593033 296:0.03999999910593033 346:0.03999999910593033 452:0.03999999910593033 536:0.1599999964237213 539:0.03999999910593033 702:0.03999999910593033 707:0.03999999910593033 708:0.03999999910593033
13.450292345544417 1:0.0 2:0.05000000074505806 3:0.05000000074505806 4:0.05000000074505806 5:0.05000000074505806 6:0.05000000074505806 7:0.05000000074505806 8:0.0 10:0.05000000074505806 12:0.05000000074505806 47:0.05000000074505806 61:0.05000000074505806 65:0.05000000074505806 97:0.05000000074505806 184:0.05000000074505806 352:0.05000000074505806 382:0.05000000074505806 482:0.05000000074505806 590:0.05000000074505806 591:0.05000000074505806 592:0.05000000074505806 593:0.05000000074505806
-13.450292345544417 1:0.0 2:0.05000000074505806 3:0.05000000074505806 4:0.05000000074505806 5:0.05000000074505806 6:0.05000000074505806 7:0.05000000074505806 8:0.0 10:0.20000000298023224 14:0.05000000074505806 45:0.05000000074505806 65:0.05000000074505806 78:0.05000000074505806 300:0.05000000074505806 303:0.05000000074505806 304:0.05000000074505806 305:0.05000000074505806 306:0.05000000074505806 307:0.05000000074505806
-13.450292345544417 1:0.0 2:0.02857142873108387 3:0.02857142873108387 4:0.0 5:0.0 6:0.02857142873108387 7:0.02857142873108387 8:0.0 23:0.02857142873108387 27:0.02857142873108387 37:0.02857142873108387 40:0.02857142873108387 42:0.02857142873108387 43:0.02857142873108387 44:0.02857142873108387 45:0.11428571492433548 50:0.02857142873108387 65:0.02857142873108387 72:0.02857142873108387 98:0.02857142873108387 156:0.02857142873108387 234:0.02857142873108387 238:0.02857142873108387 241:0.02857142873108387 290:0.02857142873108387 337:0.02857142873108387 364:0.02857142873108387 372:0.02857142873108387 373:0.02857142873108387 374:0.02857142873108387 375:0.02857142873108387 376:0.02857142873108387 377:0.02857142873108387 378:0.02857142873108387 379:0.02857142873108387 380:0.02857142873108387
-13.450292345544417 1:0.0 2:0.0714285746216774 3:0.0714285746216774 4:0.0714285746216774 5:0.0714285746216774 6:0.0714285746216774 7:0.0714285746216774 8:0.0 23:0.0714285746216774 42:0.0714285746216774 65:0.0714285746216774 104:0.0714285746216774 132:0.0714285746216774 809:0.0714285746216774 850:0.0714285746216774 851:0.0714285746216774
-10.416365718608171 1:0.0 2:0.023255813866853714 3:0.023255813866853714 4:0.0 5:0.0 6:0.023255813866853714 7:0.023255813866853714 8:0.0 27:0.09302325546741486 37:0.20930232107639313 42:0.023255813866853714 45:0.023255813866853714 54:0.023255813866853714 61:0.023255813866853714 65:0.023255813866853714 72:0.023255813866853714 116:0.023255813866853714 191:0.09302325546741486 287:0.023255813866853714 348:0.023255813866853714 390:0.023255813866853714 391:0.023255813866853714 392:0.023255813866853714 393:0.023255813866853714 394:0.09302325546741486 395:0.023255813866853714 396:0.023255813866853714 397:0.023255813866853714 398:0.023255813866853714 399:0.023255813866853714
-10.347466155665272 1:0.0 2:0.04545454680919647 3:0.04545454680919647 4:0.0 5:0.0 6:0.04545454680919647 7:0.04545454680919647 8:0.0 37:0.04545454680919647 44:0.04545454680919647 50:0.04545454680919647 56:0.04545454680919647 61:0.04545454680919647 98:0.04545454680919647 318:0.04545454680919647 490:0.04545454680919647 804:0.04545454680919647 806:0.04545454680919647 809:0.04545454680919647 837:0.04545454680919647 838:0.04545454680919647 839:0.04545454680919647 840:0.04545454680919647 841:0.04545454680919647 842:0.04545454680919647 843:0.04545454680919647
-8.598443482104734 1:0.0 2:0.0625 3:0.0625 4:0.0625 5:0.0625 6:0.0625 7:0.0 8:0.0 65:0.0625 787:0.0625 795:0.0625 796:0.0625 797:0.0625 798:0.0625 799:0.0625 800:0.0625 801:0.0625 802:0.0625 803:0.0625
-2.682169526889127 1:0.0 2:0.125 3:0.125 4:0.125 5:0.125 6:0.0 7:0.0 8:0.0 65:0.125 790:0.125 791:0.125 792:0.125
11.0037410934353 1:0.0476190485060215 2:0.0476190485060215 3:0.0476190485060215 4:0.0476190485060215 5:0.0476190485060215 6:0.0476190485060215 7:0.0476190485060215 8:0.0 12:0.0476190485060215 43:0.0476190485060215 61:0.0476190485060215 65:0.0476190485060215 97:0.0476190485060215 136:0.0476190485060215 180:0.0476190485060215 188:0.0476190485060215 264:0.0476190485060215 310:0.0476190485060215 336:0.0476190485060215 436:0.0476190485060215 437:0.0476190485060215 438:0.0476190485060215
6.794078034816363 1:0.0 2:0.024390242993831635 3:0.024390242993831635 4:0.0 5:0.024390242993831635 6:0.024390242993831635 7:0.024390242993831635 8:0.0 10:0.09756097197532654 43:0.024390242993831635 47:0.024390242993831635 54:0.024390242993831635 58:0.024390242993831635 59:0.024390242993831635 65:0.024390242993831635 84:0.024390242993831635 97:0.09756097197532654 102:0.024390242993831635 116:0.024390242993831635 131:0.09756097197532654 183:0.024390242993831635 274:0.024390242993831635 346:0.024390242993831635 435:0.024390242993831635 536:0.024390242993831635 632:0.09756097197532654 729:0.09756097197532654 730:0.024390242993831635 731:0.024390242993831635
5.324430464209059 1:0.0 2:0.0357142873108387 3:0.0357142873108387 4:0.0 5:0.0 6:0.0357142873108387 7:0.0357142873108387 8:0.0 12:0.0357142873108387 27:0.0357142873108387 37:0.1428571492433548 43:0.0357142873108387 54:0.0357142873108387 61:0.0357142873108387 65:0.0357142873108387 97:0.1428571492433548 163:0.0357142873108387 180:0.0357142873108387 184:0.0357142873108387 210:0.0357142873108387 315:0.0357142873108387 321:0.0357142873108387 456:0.0357142873108387 654:0.0357142873108387 689:0.0357142873108387 905:0.0357142873108387
-2.0875208378354677 1:0.0 2:0.07692307978868484 3:0.0 4:0.07692307978868484 5:0.07692307978868484 6:0.0 7:0.07692307978868484 8:0.0 43:0.07692307978868484 46:0.07692307978868484 88:0.07692307978868484 97:0.07692307978868484 209:0.07692307978868484 233:0.07692307978868484 423:0.07692307978868484 426:0.07692307978868484 427:0.07692307978868484
-0.35694821751899575 1:0.0 2:0.09090909361839294 3:0.09090909361839294 4:0.09090909361839294 5:0.09090909361839294 6:0.09090909361839294 7:0.09090909361839294 8:0.0 43:0.09090909361839294 48:0.09090909361839294 65:0.09090909361839294 72:0.09090909361839294 150:0.09090909361839294
